,Factor_1,Factor_2,Factor_3,Factor_4,Factor_5,Factor_6,Factor_7,Factor_8,Factor_9,Factor_10,Factor_11,Factor_12,Factor_13,Factor_14,Factor_15,Label,Split
TCGA-DX-A8BV-01A,-0.3306333124637604,0.07390454411506653,0.21107131242752075,-0.05207878723740578,-0.5585917234420776,-0.1055314764380455,0.1051298975944519,0.760952353477478,0.3893510103225708,-0.2751345932483673,-0.06270567327737808,0.8048781752586365,-0.621980607509613,-0.057801615446805954,-0.12524737417697906,1,train
TCGA-DX-A7EL-01A,-0.5801935195922852,-0.45728158950805664,-0.6039412021636963,-0.018652042374014854,0.7567945718765259,-0.19512945413589478,-0.31021931767463684,-0.8674074411392212,-0.08772925287485123,-0.17796625196933746,0.41854751110076904,-0.21007876098155975,0.06227699667215347,0.32516366243362427,0.25992730259895325,2,train
TCGA-DX-A48O-01A,0.5179585814476013,-0.461096853017807,-0.5224659442901611,0.24293312430381775,0.40238669514656067,-0.26408788561820984,-0.0734577625989914,-0.37404507398605347,-0.01521633006632328,-0.2156408280134201,0.4106673002243042,-0.11846520006656647,0.5401656627655029,0.37421756982803345,0.4339051842689514,2,train
TCGA-DX-A6Z0-01A,-0.5850212574005127,-0.3954080045223236,0.22253715991973877,-0.12608373165130615,-1.0851095914840698,0.47308212518692017,0.0634385198354721,0.7576256394386292,0.1578005850315094,-0.3593486547470093,-0.06139029189944267,0.3079085350036621,-0.10435188561677933,-0.31467828154563904,-0.3020351827144623,1,train
TCGA-IW-A3M4-01A,0.5826296210289001,-0.22415176033973694,-0.14302213490009308,0.035673581063747406,0.9146637916564941,-0.9398214817047119,-0.4524841010570526,-0.5589045286178589,-0.4249231219291687,0.5252111554145813,0.0734500139951706,-0.4902709126472473,-0.05034332349896431,-0.1879645437002182,0.3422427773475647,2,train
TCGA-3B-A9HL-01A,-0.09038253873586655,-0.011736924760043621,0.2647077143192291,0.18016783893108368,-0.24049311876296997,-0.10490261018276215,-0.27420660853385925,-0.24636118113994598,0.10842985659837723,-0.0639948919415474,-0.09315502643585205,0.5060380101203918,-0.591444730758667,0.32087478041648865,-0.5464359521865845,0,train
TCGA-MJ-A68H-01A,-0.06656606495380402,-0.2360060065984726,-0.08193021267652512,0.1827273666858673,-0.37535855174064636,-0.2709595263004303,0.050514768809080124,0.5781821012496948,0.31110188364982605,-0.17170782387256622,0.3101433515548706,-0.5574588775634766,-0.15457341074943542,0.3962104320526123,0.24855491518974304,2,train
TCGA-PC-A5DL-01A,-0.3617747724056244,0.2700202167034149,-0.382057785987854,0.21376492083072662,0.06702061742544174,-0.577686607837677,-0.10523024946451187,0.43046489357948303,0.28247392177581787,-0.319722443819046,0.6444165706634521,0.3552119731903076,-0.012776140123605728,0.23632878065109253,0.13219167292118073,2,train
TCGA-HB-A43Z-01A,0.16172651946544647,0.10954182595014572,0.22486291825771332,0.2592198848724365,-0.34978774189949036,-0.38467544317245483,-0.38657230138778687,0.0413142628967762,0.28642556071281433,0.1699123978614807,0.567158579826355,-0.6900465488433838,-0.16732856631278992,0.21884894371032715,0.08314435184001923,2,train
TCGA-DX-AB35-01A,0.2089414745569229,0.0795755386352539,0.5134811401367188,0.09470668435096741,-0.3202975392341614,-0.08831528574228287,0.3098188042640686,0.3803426921367645,-0.4074886441230774,-0.43020203709602356,-0.0078310277312994,0.8555662631988525,-0.181560218334198,0.08020467311143875,-0.21673160791397095,0,train
TCGA-DX-A3UD-01A,-0.13311301171779633,0.6018893122673035,-0.7164545059204102,-0.3226226568222046,-0.024982737377285957,0.12717141211032867,0.4132407605648041,0.6426289081573486,-0.6086069941520691,-0.05649203434586525,0.5900458097457886,-0.23596106469631195,-0.26817601919174194,0.375015527009964,-0.4091024696826935,2,train
TCGA-DX-A1KY-01A,0.23194748163223267,0.1782444566488266,0.7869399785995483,0.07903632521629333,-0.6115443706512451,0.3133019804954529,-0.3650875687599182,-0.6784191131591797,-0.10134243220090866,0.6937932968139648,0.5248132348060608,-0.2936677634716034,-0.5799558162689209,0.6573804616928101,0.04070106893777847,0,train
TCGA-JV-A75J-01A,0.5549116134643555,-0.09689503908157349,1.2116024494171143,-0.35829100012779236,0.5588809251785278,0.18133705854415894,-0.18013180792331696,-0.259517639875412,0.8189691305160522,-0.0582023561000824,0.2848946750164032,-0.47601452469825745,-0.32208123803138733,-0.09194641560316086,0.348782479763031,2,train
TCGA-DX-A8BL-01A,-0.5556532740592957,0.42417073249816895,-0.21547381579875946,0.14810411632061005,-0.520937442779541,0.2690604031085968,-0.2581651508808136,0.16210871934890747,-0.48866158723831177,0.007077428046613932,-0.2508244216442108,0.318311482667923,0.15135441720485687,-0.3848614990711212,-0.6819971799850464,3,train
TCGA-DX-A48K-01A,0.10418502986431122,0.543502688407898,-0.016774673014879227,-0.08043098449707031,0.2670632302761078,0.4407687485218048,0.08436692506074905,-0.19353459775447845,0.7994341254234314,-0.17696009576320648,-0.12549519538879395,0.09778589755296707,0.09324494749307632,-0.34372231364250183,0.10830423980951309,2,train
TCGA-SI-AA8B-01A,0.39005374908447266,0.10735198855400085,-0.11635548621416092,-0.2842235863208771,0.11801070719957352,0.6706386208534241,0.01425967738032341,0.2157592922449112,-0.04819666966795921,-0.17783433198928833,-0.3065566122531891,-0.20690350234508514,-0.12391284108161926,-0.6482019424438477,-0.36690613627433777,3,train
TCGA-IS-A3K6-01A,0.5770286321640015,-0.11987774074077606,-0.015431872569024563,0.022749189287424088,0.4381345510482788,-0.4718429446220398,0.29663345217704773,-0.34508076310157776,-0.1799202412366867,-0.15712103247642517,-0.11455930024385452,-0.46817031502723694,0.640533983707428,0.1304035484790802,-0.17212176322937012,2,train
TCGA-DX-AB2X-01A,0.10259084403514862,-0.38733619451522827,-0.16021552681922913,0.17636944353580475,-0.29278016090393066,0.4241451919078827,-0.12427254021167755,0.17131727933883667,0.07321050763130188,0.11195211112499237,-0.7031774520874023,-0.3558192551136017,0.07530180364847183,0.05483510345220566,0.1670796126127243,3,train
TCGA-LI-A9QH-01A,-0.008851400576531887,-0.2672308087348938,-0.28617554903030396,0.47166359424591064,-0.41103678941726685,0.5109291076660156,-0.20649471879005432,0.09033561497926712,0.08263935148715973,0.2022325098514557,0.047406964004039764,0.5995306372642517,-0.8287175297737122,-0.8147975206375122,-0.5364068746566772,3,train
TCGA-DX-A7EI-01A,-0.36655354499816895,-0.2086060494184494,0.739881694316864,-0.2512131929397583,-0.40621504187583923,-0.13887451589107513,-0.4494503140449524,0.19005252420902252,0.15419277548789978,-0.36305999755859375,0.4624553918838501,-0.32159623503685,-0.06629692018032074,-0.051116082817316055,-0.0011262869229540229,0,train
TCGA-WK-A8XY-01A,0.39303427934646606,-0.3329927623271942,-0.3570970594882965,-0.3213783800601959,-0.2996872067451477,0.1769515872001648,-0.0938383936882019,-0.5805291533470154,0.3056839108467102,-0.3892073333263397,0.5313565731048584,-0.5459879636764526,0.13581664860248566,0.6773163676261902,0.4761851131916046,2,train
TCGA-DX-A6YS-01A,-0.006010402459651232,0.24683499336242676,0.2555798590183258,-0.20248469710350037,-0.7690660357475281,-0.06764791905879974,0.12938982248306274,-0.07962578535079956,-0.38311681151390076,-0.4137499928474426,0.07837671786546707,0.7462039589881897,-0.3259943723678589,-0.4027491807937622,-0.4185876250267029,1,train
TCGA-X6-A7WD-01A,0.1558772325515747,-0.05730211362242699,-0.5783920288085938,-0.05234966054558754,0.4155910313129425,0.2899560034275055,0.31006163358688354,-0.8784247040748596,0.29358911514282227,-0.3340311646461487,0.4010620713233948,-0.45955514907836914,-0.39332759380340576,0.33717381954193115,0.29069268703460693,2,train
TCGA-3B-A9HQ-01A,-0.43230050802230835,-0.3427434265613556,-0.5400223731994629,-0.4245759844779968,1.044041633605957,-0.10104840993881226,0.14004714787006378,-0.20459668338298798,0.33117619156837463,0.3105340301990509,0.6141190528869629,-0.05289977043867111,0.32685428857803345,0.19314280152320862,-0.046521417796611786,2,train
TCGA-DX-A8BK-01A,-0.16407737135887146,-0.3599815368652344,-0.29910704493522644,-0.1743617206811905,0.262817919254303,0.1859906017780304,-0.03136095777153969,0.6717079877853394,-0.9606589078903198,0.4272550344467163,-0.36121565103530884,0.2707098424434662,-0.08368253707885742,-0.5005397200584412,-0.46539703011512756,3,train
TCGA-PC-A5DO-01A,-0.05831053853034973,-0.24682727456092834,-0.20250236988067627,-0.06379059702157974,0.09999972581863403,0.22113502025604248,0.5976917743682861,-0.05992085114121437,0.17212678492069244,0.20537827908992767,0.5297046899795532,-0.35539180040359497,0.12848781049251556,0.6227492094039917,0.05134908854961395,2,train
TCGA-QQ-A5VB-01A,-0.7683456540107727,-0.08124617487192154,-0.035312384366989136,-0.07302998751401901,-0.3687470853328705,0.33547890186309814,0.19935466349124908,0.7864643335342407,0.36420097947120667,-0.22999118268489838,-0.39176198840141296,-0.30716386437416077,-0.04579957202076912,-0.25181668996810913,-0.3896973431110382,2,train
TCGA-DX-A8BM-01A,0.3060245215892792,0.2713361084461212,0.21397459506988525,0.35742858052253723,-0.078842394053936,0.07403111457824707,-0.010096798650920391,0.4139419198036194,-0.01436025183647871,0.18536008894443512,-0.007958512753248215,0.6787208318710327,-0.1886303424835205,-0.3908904492855072,-0.3060961365699768,3,train
TCGA-VT-A80G-01A,0.12500344216823578,0.6027601957321167,0.06077910587191582,0.21224810183048248,-0.005366591736674309,0.6604448556900024,-0.01213730126619339,-0.11364071071147919,-0.5546139478683472,0.16915418207645416,-0.22653602063655853,-0.2151643931865692,-0.26774337887763977,-0.32039156556129456,-0.2550128698348999,3,train
TCGA-K1-A6RU-01A,-0.3025704622268677,-0.6220115423202515,0.27248358726501465,-0.13914716243743896,-0.6770918369293213,0.06688165664672852,0.11260657757520676,0.4702508747577667,-0.23767928779125214,-0.004289217293262482,-0.06548786163330078,0.4150336682796478,-0.09512946009635925,-0.03308011218905449,-0.21819546818733215,1,train
TCGA-FX-A48G-01A,0.6329110860824585,-0.06969447433948517,-0.301664799451828,0.028359388932585716,0.8873571157455444,-0.9005038142204285,-0.378091037273407,-0.5339868664741516,-0.4521048665046692,0.4821508526802063,-0.31898996233940125,-0.3173491656780243,-0.018473783507943153,-0.35236191749572754,0.4133758544921875,2,train
TCGA-DX-AB2H-01A,0.25078776478767395,-0.12163125723600388,0.9373193383216858,-0.029499242082238197,0.20426897704601288,0.25342994928359985,-0.0854911133646965,-0.5019852519035339,-0.09422454237937927,0.010937629267573357,0.5037997961044312,-0.21438632905483246,-0.366052508354187,-0.09665978699922562,0.15961597859859467,0,train
TCGA-QQ-A5VD-01A,-0.12898603081703186,0.3295437693595886,0.17429843544960022,-0.3022876977920532,0.03890230506658554,-0.2282305508852005,-0.03107128106057644,-0.42423155903816223,0.7799379229545593,0.1004209816455841,0.10247000306844711,0.13451330363750458,0.3513355255126953,0.2322441190481186,0.03582286089658737,2,train
TCGA-3B-A9I0-01A,-0.1943359673023224,0.31416451930999756,-0.5998440980911255,-0.43117547035217285,0.9164608120918274,0.06099434942007065,0.0696137472987175,-0.2061818540096283,0.4630517065525055,0.23921245336532593,0.4620630741119385,0.042964763939380646,0.20699231326580048,0.5695503950119019,-0.03908255323767662,2,train
TCGA-X6-A8C5-01A,-0.37695521116256714,-0.36370518803596497,-0.48508092761039734,0.08940292149782181,0.41569820046424866,-0.15005850791931152,0.27281704545021057,-0.196568101644516,0.6201431751251221,-0.1632857620716095,0.5231507420539856,0.053970109671354294,0.2938285171985626,0.12218530476093292,0.544036328792572,2,train
TCGA-DX-A3LS-01A,-0.17836371064186096,-0.565095067024231,0.21501192450523376,-0.08481783419847488,0.3330458700656891,-0.09188154339790344,-0.12630580365657806,-0.16187840700149536,-0.12674979865550995,0.17207874357700348,-0.20910125970840454,0.04266880080103874,0.15668781101703644,0.11976784467697144,0.0623023547232151,0,train
TCGA-DX-A6BH-01A,0.08600697666406631,0.1223282516002655,0.2568175494670868,-0.055185671895742416,0.21785910427570343,0.05062280222773552,-0.2830841541290283,-0.21295160055160522,-0.010930958203971386,0.10326322168111801,-0.10468723624944687,0.2928614914417267,-0.03190283477306366,0.25734424591064453,0.13848595321178436,0,train
TCGA-JV-A5VF-01A,0.45657238364219666,0.07012926787137985,0.38203126192092896,0.1816243976354599,-0.5339148640632629,0.27377939224243164,-0.1932878941297531,0.3959113657474518,-0.3851911425590515,-0.03411543741822243,-0.14218604564666748,-0.6650300025939941,0.018915120512247086,-0.3169233798980713,-0.5085412859916687,2,train
TCGA-QQ-A5VC-01A,-0.2219114899635315,0.13542477786540985,-0.23322656750679016,-0.523908793926239,-0.6488561630249023,0.4061521291732788,0.1470177173614502,-0.20245328545570374,0.5815948843955994,-0.018588174134492874,-0.4087269604206085,-0.16624194383621216,-0.2074081301689148,-0.8407934308052063,-0.2659428119659424,2,train
TCGA-DX-A6Z2-01A,-0.11946322023868561,-0.3636247217655182,-0.5671043992042542,0.0837462842464447,1.296634554862976,-0.03846826031804085,-0.07865521311759949,-0.49167564511299133,0.15035445988178253,0.4462137818336487,0.5118598341941833,0.001541278325021267,0.5195612907409668,0.020158667117357254,0.4181503653526306,2,train
TCGA-HS-A5N7-01A,-0.19133402407169342,-0.22194966673851013,-0.2320588380098343,0.04386841505765915,0.2111692577600479,0.1455853283405304,0.25378769636154175,0.048757534474134445,0.5354623198509216,0.3352507948875427,0.6364138126373291,-0.21634681522846222,0.10540076345205307,0.16605792939662933,0.07150018960237503,2,train
TCGA-DX-A6BF-01A,-0.19260311126708984,-0.6352680325508118,0.12341953068971634,0.0048853023909032345,-0.39106327295303345,0.3558861017227173,0.12857408821582794,0.628139853477478,-0.4655761420726776,-0.3496517539024353,-0.33192190527915955,0.3125937581062317,-0.19169025123119354,0.05727280303835869,-0.18674518167972565,0,train
TCGA-DX-A8BN-01A,0.3936677575111389,-0.7170857191085815,-0.2856559753417969,0.4331517517566681,-0.24611374735832214,0.05299763008952141,-0.41486281156539917,-0.1130128726363182,-0.5211695432662964,-0.09477366507053375,-0.382498174905777,0.6074342131614685,-0.42001810669898987,-0.3217301368713379,-0.6333849430084229,3,train
TCGA-FX-A3NK-01A,-0.197655588388443,0.1659211665391922,0.37372085452079773,0.28892114758491516,0.851900041103363,-0.06753042340278625,-0.22350318729877472,0.08453096449375153,-0.08993660658597946,-0.03553224354982376,0.07565518468618393,0.29758545756340027,-0.14210525155067444,0.23393824696540833,0.04732777178287506,0,train
TCGA-DX-AB2E-01A,-0.5398357510566711,0.3291194438934326,-0.17479881644248962,-0.02928827330470085,-0.6627574563026428,0.17866387963294983,-0.4708777368068695,0.9624794125556946,-0.24825571477413177,-0.6606876850128174,-0.7709413170814514,-0.5657403469085693,-0.23208880424499512,0.2639526426792145,-0.3836238980293274,1,train
TCGA-DX-A23V-01A,-0.008833666332066059,-0.828485906124115,0.2329304814338684,-0.10565812885761261,0.3054599165916443,-0.15151527523994446,-0.0808810442686081,-0.1760963499546051,-0.16349661350250244,0.1345817744731903,-0.2488958090543747,0.4854898750782013,0.08829226344823837,0.191242516040802,0.1525508612394333,0,train
TCGA-DX-A6BB-01A,0.23194913566112518,0.32957324385643005,-0.48908764123916626,0.16997522115707397,0.02400812692940235,-0.4606163203716278,0.19834142923355103,-0.05559311807155609,0.6215184926986694,0.10548104345798492,0.3121680021286011,0.2659526467323303,-0.23081941902637482,0.2751811146736145,0.5789890885353088,2,train
TCGA-DX-A48U-01A,0.60848069190979,0.24604077637195587,-0.9335570931434631,0.20125041902065277,0.5697565078735352,-0.39008408784866333,-0.39004960656166077,-0.8540900349617004,-0.05420198664069176,-0.10872654616832733,0.5113436579704285,0.2295808643102646,0.14922717213630676,0.29179033637046814,0.1596469134092331,2,train
TCGA-DX-A3UB-01A,0.2682758569717407,0.26716479659080505,-0.06225042790174484,-0.10676999390125275,0.07629070430994034,-0.5200020670890808,-0.12783540785312653,-0.09602277725934982,0.03245791047811508,0.0462169386446476,-0.20668035745620728,0.07205893844366074,-0.017257798463106155,0.2659468948841095,0.061043690890073776,2,train
TCGA-DX-A2IZ-01A,-0.39460474252700806,0.30207559466362,0.724708080291748,-0.5057060122489929,-0.16796235740184784,0.03105299361050129,-0.29140111804008484,-0.2711735665798187,0.42310771346092224,-0.35315072536468506,0.20141568779945374,-0.3957289457321167,-0.9197582602500916,0.7239881753921509,0.2598755657672882,0,train
TCGA-X6-A8C4-01A,0.29002469778060913,0.16797126829624176,-0.33147162199020386,-0.6167528629302979,0.007757098414003849,0.7990469336509705,-0.12719407677650452,0.7882789373397827,0.18251201510429382,0.613925039768219,-0.5665554404258728,-0.46897822618484497,-0.1309286504983902,-0.43611395359039307,-0.14404745399951935,3,train
TCGA-DX-A1L4-01A,-0.12017256766557693,0.12199041247367859,0.05736145004630089,-0.0719417855143547,0.3209098279476166,-0.32558831572532654,-0.19464156031608582,-0.12737295031547546,-0.1564333289861679,0.13507914543151855,-0.5606381893157959,0.48053595423698425,0.18048495054244995,-0.0308748297393322,0.12036404013633728,0,train
TCGA-K1-A6RV-01A,-0.23669777810573578,0.5768892765045166,-0.17121173441410065,0.018206607550382614,-0.8362879753112793,0.2780115604400635,-0.0384121797978878,0.10332342237234116,0.06762740015983582,-0.14009597897529602,-0.521247923374176,0.05404723808169365,-0.40628892183303833,-0.5709913372993469,-0.20700019598007202,2,train
TCGA-MB-A5YA-01A,0.0769902840256691,0.25086677074432373,-0.4099254012107849,-0.13215230405330658,0.2264159917831421,-0.02697959914803505,0.2774246335029602,-0.03538835048675537,0.7480045557022095,-0.1631714552640915,0.21693186461925507,0.24674579501152039,0.2717500329017639,0.45937517285346985,0.03953803330659866,2,train
TCGA-3B-A9HV-01A,0.6950618624687195,0.335421621799469,0.06413993239402771,0.4861826002597809,0.22385695576667786,-0.41097310185432434,0.22261092066764832,-0.42148861289024353,0.13673943281173706,0.18980076909065247,0.404507577419281,-0.8005796670913696,-0.09148787707090378,-0.5746419429779053,0.47260966897010803,2,train
TCGA-DX-AB2T-01A,-0.4879812002182007,-0.44752922654151917,0.15190330147743225,-0.2944174110889435,-0.5416368246078491,-0.002007549861446023,0.35326462984085083,0.22002314031124115,-0.6586118936538696,-0.24021217226982117,-0.023718051612377167,0.4940474033355713,-0.25083109736442566,-0.20815470814704895,-0.32322990894317627,1,train
TCGA-X6-A8C6-01A,-0.20385690033435822,0.18373611569404602,0.0602228157222271,0.4483768343925476,-0.6604891419410706,0.15264783799648285,-0.6418903470039368,0.9733062982559204,-0.4228016436100006,-0.3927589952945709,0.02761238068342209,0.4291922450065613,-0.2838776111602783,-0.24412155151367188,-0.1492099165916443,1,train
TCGA-3B-A9HR-01A,0.23456303775310516,-0.19856300950050354,-0.5143560767173767,-0.2424096167087555,-0.9725542068481445,0.06514731049537659,0.5103720426559448,0.505154550075531,0.5136443972587585,-0.5777990818023682,0.6042998433113098,-0.07132674008607864,-0.08833111822605133,0.13506190478801727,-0.1559634953737259,2,train
TCGA-DX-A1KX-01A,-0.30574291944503784,-0.6501870155334473,0.15579988062381744,0.18564265966415405,-0.7431960701942444,-0.24887600541114807,-0.3148854374885559,0.9078952074050903,0.0531051829457283,-0.5428787469863892,-0.3323858678340912,0.5397616624832153,-0.26862239837646484,-0.09954242408275604,-0.13427244126796722,0,train
TCGA-X6-A7W8-01A,0.21994559466838837,0.554656982421875,-0.1244225800037384,-0.12905044853687286,-0.07456504553556442,0.42196226119995117,0.25970450043678284,0.4320373833179474,0.40121835470199585,0.11346470564603806,-0.658867359161377,-0.10213035345077515,0.34764108061790466,-0.3170754909515381,-0.04343319311738014,1,train
TCGA-DX-A3U7-01A,-0.02114112488925457,0.4300997257232666,-0.2124810814857483,-0.08601003140211105,-1.2926276922225952,0.24700133502483368,0.21282744407653809,0.41959869861602783,-0.4641232192516327,-0.7741068005561829,0.4201695919036865,-0.3227458596229553,0.14883382618427277,0.7062464356422424,-0.13251453638076782,2,train
TCGA-DX-A6YQ-01A,-0.6567725539207458,-0.12452822923660278,-0.06330050528049469,0.37182924151420593,-0.43262526392936707,0.3254377543926239,0.3668905198574066,0.5914998054504395,0.19286781549453735,-0.20546647906303406,-0.2672426104545593,-0.07837139815092087,-0.24131955206394196,-0.454344242811203,-0.31934934854507446,1,train
TCGA-DX-AB3A-01A,-0.00928488839417696,0.10326897352933884,0.29976245760917664,0.11323864758014679,0.3212149441242218,-0.05431345850229263,-0.6991702318191528,-1.0625056028366089,-0.012932570651173592,0.14595364034175873,0.062041815370321274,0.5052614808082581,-0.6292169094085693,-0.08324148505926132,-0.20108290016651154,0,train
TCGA-X6-A8C3-01A,-0.8309962749481201,-0.1024889275431633,-0.024110423400998116,0.43074777722358704,-0.9197124242782593,0.33778849244117737,0.6491997838020325,0.6066197156906128,0.809916079044342,0.004309643991291523,-0.37783026695251465,-0.1672171950340271,-0.04237767681479454,-0.2095683366060257,0.3252790570259094,1,train
TCGA-DX-AB30-01A,0.11148566007614136,-0.1028040423989296,0.9808354377746582,0.027006007730960846,0.23832349479198456,0.2173650562763214,-0.5787385702133179,-0.4863894283771515,0.11360643804073334,0.10618294775485992,0.6482447385787964,-0.4606245458126068,-0.37406402826309204,-0.1829022914171219,0.14725802838802338,1,train
TCGA-K1-A42X-02A,-0.002634551376104355,-0.15792453289031982,-0.2580026090145111,-0.155901700258255,0.13628268241882324,-1.3520511388778687,-0.45892152190208435,-0.9652900099754333,-0.10186779499053955,0.25610196590423584,0.12688609957695007,-0.6229721307754517,-0.39235538244247437,-0.2361873984336853,0.21897687017917633,2,train
TCGA-FX-A3NJ-01A,0.16970194876194,0.2646865248680115,-0.30438339710235596,-0.24861234426498413,0.21457038819789886,-0.5299333333969116,-0.09763797372579575,-0.12971319258213043,0.1843472123146057,-0.2964525520801544,0.6094790101051331,0.5136237740516663,0.3588062524795532,0.03566354140639305,-0.06653659045696259,2,train
TCGA-DX-A1L3-01A,0.0008060513064265251,-0.7155254483222961,0.07413039356470108,-0.11031516641378403,0.27176710963249207,0.10584094375371933,-0.023043543100357056,-0.1311299055814743,-0.14735586941242218,0.09941117465496063,-0.47773465514183044,0.2844003140926361,0.11553578078746796,0.1642231047153473,0.1479010134935379,0,train
TCGA-X2-A95T-01A,0.6774849891662598,0.2233773022890091,0.09049184620380402,-0.7057293653488159,0.37616434693336487,-0.9222261309623718,0.45086944103240967,0.15533298254013062,-0.0720025822520256,-0.2572375535964966,0.38140493631362915,-0.18869079649448395,0.34396177530288696,-0.2720109820365906,-0.15867960453033447,2,train
TCGA-WK-A8XX-01A,-0.21768899261951447,0.4242865741252899,-0.328449010848999,-0.2836073040962219,-0.0006004783208481967,-0.0008710201946087182,0.3741649091243744,0.6927977204322815,-0.745755672454834,-0.4059165418148041,0.5480014681816101,-0.15031255781650543,-0.02123192325234413,0.6603633761405945,-0.0411003939807415,2,train
TCGA-DX-A1KW-01A,0.3445400595664978,0.006203731056302786,0.5272388458251953,0.43956929445266724,-0.11132609844207764,0.23085704445838928,-0.4167554974555969,0.5778954029083252,0.20823334157466888,0.16692747175693512,-0.1339920461177826,0.21653226017951965,-0.23084232211112976,0.6068785190582275,0.07297208160161972,0,train
TCGA-VT-A80J-01A,-0.6945385932922363,-0.39669063687324524,-0.15048614144325256,0.2628936469554901,-1.2288175821304321,0.10710184276103973,-0.406132310628891,-2.439822196960449,0.18435311317443848,0.9075458645820618,-0.44986671209335327,-0.30507588386535645,0.5654649138450623,-0.00468340702354908,2.5392143726348877,3,train
TCGA-DX-A6B7-01A,0.4736945331096649,0.1982404589653015,-0.7021136283874512,0.3304602801799774,0.6597365736961365,-0.4561428129673004,-0.144803985953331,-0.8234041929244995,0.49650052189826965,0.11243079602718353,0.3538583219051361,0.2663216292858124,0.005716745741665363,0.3504566550254822,0.2103186398744583,2,train
TCGA-3R-A8YX-01A,-0.35555943846702576,0.26357269287109375,-0.14026959240436554,0.1368311196565628,-0.8748528957366943,0.4135282635688782,-0.5051345825195312,1.2041411399841309,-0.2207804024219513,-0.530105471611023,-0.6348532438278198,-0.3079357147216797,-0.3810531795024872,0.3684595823287964,-0.4389508366584778,0,train
TCGA-DX-A2J0-01A,-0.06004896014928818,-0.49613943696022034,0.3355954587459564,-0.4110853374004364,0.9136449098587036,0.36293649673461914,-0.4604044258594513,-0.43598228693008423,-0.34257689118385315,0.48826050758361816,0.2626914381980896,0.08812659233808517,-0.17934326827526093,0.016031505540013313,-0.0036071734502911568,0,train
TCGA-IE-A4EH-01A,1.0917913913726807,-0.06836306303739548,-0.1918053925037384,-0.12676730751991272,0.536544919013977,-0.6132974028587341,0.3909177780151367,-0.1583077311515808,-0.225719153881073,-0.24145972728729248,0.04759438335895538,-0.5560601949691772,0.4113607108592987,-0.08165670931339264,0.602396547794342,2,train
TCGA-X6-A8C2-01A,0.37947341799736023,0.6453390717506409,-0.051388200372457504,-0.14700725674629211,0.2718261182308197,0.6979454755783081,-0.04086856171488762,0.2268037348985672,-1.0010327100753784,-0.07058410346508026,-0.08278670161962509,-0.07923215627670288,0.0593176931142807,-0.5064536929130554,-0.5680832862854004,3,train
TCGA-JV-A5VE-01A,0.28899064660072327,-0.10586117208003998,0.04238119721412659,0.20066779851913452,0.5394172668457031,-0.5140471458435059,0.5076972842216492,-0.2828159034252167,0.24366635084152222,0.12921716272830963,0.0711899995803833,-0.39386630058288574,0.5841667652130127,-0.15473538637161255,-0.060620225965976715,2,train
TCGA-3B-A9HJ-01A,-0.7115747332572937,0.13647155463695526,0.10645125806331635,0.006973681040108204,0.548179566860199,-0.3310670554637909,-0.2551250755786896,-0.13359114527702332,-0.2152290791273117,0.3130773603916168,-0.3275233209133148,0.29465705156326294,0.43393847346305847,0.19660727679729462,0.10245400667190552,0,train
TCGA-WP-A9GB-01A,0.40556639432907104,0.08080027252435684,-0.19722521305084229,0.7442530393600464,-0.43842390179634094,-0.8276265859603882,-0.011816919781267643,0.2685166299343109,-0.17648105323314667,-0.3402656614780426,0.37609174847602844,-0.7697519659996033,-0.44825607538223267,-0.26029330492019653,0.6119753122329712,2,train
TCGA-DX-A48P-01A,-0.14350470900535583,-0.44250303506851196,-0.6724256873130798,-0.26595839858055115,0.9125178456306458,-0.3955247700214386,0.1458335965871811,-0.3382822275161743,0.3403249979019165,0.16292500495910645,0.4707150459289551,0.16064223647117615,-0.012448805384337902,0.06837253272533417,0.48146742582321167,2,train
TCGA-DX-A1L0-01A,0.06826963275671005,0.1292266547679901,0.5723897218704224,0.10731612890958786,0.17188546061515808,0.41712841391563416,0.004600313492119312,-0.1597779393196106,-0.4021347761154175,-0.25242868065834045,0.13198773562908173,0.3063158094882965,-0.7148129940032959,0.4107201099395752,-0.14041247963905334,0,train
TCGA-K1-A3PN-01A,0.26430025696754456,-0.3223041296005249,-0.7099013924598694,-0.34612953662872314,0.36059921979904175,0.08335889875888824,-0.10608277469873428,-0.5821336507797241,0.1177915632724762,-0.2416042536497116,0.5453333258628845,-0.3450007736682892,-0.057564109563827515,0.41504356265068054,-0.4277532696723938,2,train
TCGA-DX-A8BZ-01A,0.3395521640777588,-0.36419084668159485,-0.12154578417539597,-0.4013352692127228,0.19784803688526154,0.2944701910018921,0.09818261861801147,-0.11768552660942078,0.13099253177642822,-0.3537324368953705,-0.744262158870697,0.10337747633457184,0.3505886495113373,-0.35891401767730713,-0.21278147399425507,2,train
TCGA-DX-A7EF-01A,-0.11229201406240463,-0.0854623094201088,-0.1427990347146988,-0.14864347875118256,-0.8687556385993958,0.4072118103504181,-0.2569441795349121,0.7685770392417908,-0.06291132420301437,-0.8908171653747559,-0.348108172416687,-0.04411084204912186,-0.3588981330394745,-0.5218885540962219,-0.1882977932691574,3,train
TCGA-DX-AB36-01A,0.3339402377605438,0.2938501834869385,0.11736971884965897,-0.10213235020637512,0.08898735046386719,-0.1106148436665535,-0.21137957274913788,-0.17258352041244507,0.03803747147321701,0.029377581551671028,-0.3657631576061249,0.31863489747047424,-0.10193254053592682,-0.14670923352241516,0.12388406693935394,0,train
TCGA-DX-A3LT-01A,0.3164230287075043,0.30798545479774475,0.05960885435342789,-0.20784789323806763,1.2064945697784424,0.5098744034767151,-0.5850945115089417,-0.6299842596054077,-0.28886255621910095,0.2914915978908539,-0.3234175443649292,0.18700094521045685,0.46483224630355835,-0.14872252941131592,-0.04425358399748802,0,train
TCGA-KD-A5QT-01A,0.16880901157855988,-0.015089946798980236,0.012479881756007671,-0.2850821316242218,-0.1628972887992859,-0.9339281916618347,0.0725446566939354,-0.6878417134284973,0.17278191447257996,-0.3183874487876892,0.22259221971035004,-0.7556588053703308,0.1315823644399643,0.021450724452733994,0.4293132424354553,2,train
TCGA-DX-A8BH-01A,-0.5461894273757935,0.44941020011901855,-0.08577986806631088,0.017496639862656593,0.08084094524383545,0.13214796781539917,0.09298522770404816,0.3314553499221802,0.1154269129037857,-0.1910182684659958,-0.5174146294593811,0.2422606348991394,0.24283133447170258,-0.29683181643486023,-0.09944736212491989,3,train
TCGA-DX-A3LY-01B,-0.026994962245225906,-0.03063233755528927,0.2465628981590271,0.1370997279882431,-0.40603703260421753,0.12121686339378357,-0.34158727526664734,0.5221478939056396,-0.32186004519462585,-0.15287958085536957,-0.357528954744339,0.1583942174911499,-0.10147785395383835,0.6081603765487671,-0.24418853223323822,0,train
TCGA-KD-A5QU-01A,0.5979291796684265,0.4361998438835144,-0.046685200184583664,-0.002390926470980048,0.9084190726280212,0.012484921142458916,1.9122438430786133,-0.7951254844665527,-1.1552180051803589,0.25246262550354004,0.4086965024471283,-0.48607534170150757,-0.009102855809032917,-0.36252543330192566,0.4219778776168823,2,train
TCGA-KD-A5QS-01A,0.49079421162605286,0.0687442198395729,-0.29432401061058044,-0.042359836399555206,-0.31103619933128357,0.23303218185901642,-0.10116896033287048,0.4016982316970825,-0.5765470266342163,0.12897545099258423,-0.04365892335772514,-0.29663994908332825,0.06981063634157181,-0.661769688129425,0.22671814262866974,2,train
TCGA-IW-A3M6-01A,0.20906710624694824,-0.12381713837385178,0.05215272679924965,0.4605623185634613,0.4665456712245941,-0.22349534928798676,0.07196614146232605,-0.5075205564498901,-0.4038090109825134,0.19494757056236267,-0.014111081138253212,-0.45704349875450134,0.26723483204841614,0.0750783309340477,0.6022833585739136,2,train
TCGA-DX-A240-01A,0.20414608716964722,0.18749237060546875,0.11741136014461517,-0.2387917935848236,0.01530662551522255,-0.3178369402885437,-0.08009442687034607,-0.06970930844545364,0.1553594321012497,-0.20511755347251892,-0.35849422216415405,0.09399224072694778,-0.42314308881759644,-0.01592124067246914,0.155848890542984,0,train
TCGA-IE-A6BZ-01A,0.15829472243785858,-0.4344560205936432,0.012684694491326809,0.4137899577617645,-0.6115509271621704,0.3006984293460846,0.24213466048240662,0.5555402040481567,-0.13546723127365112,-0.05501125380396843,-0.2742643654346466,0.4731557369232178,-0.4649627208709717,-0.3785930275917053,-0.029010586440563202,3,train
TCGA-DX-A8BX-01A,-0.0362694188952446,0.12071049958467484,0.36927396059036255,0.35455936193466187,-0.45228269696235657,0.25695091485977173,0.06459984183311462,0.29105114936828613,0.1572035700082779,-0.10469359159469604,-0.30157697200775146,0.5013204216957092,-0.40999835729599,0.19231146574020386,0.3355693519115448,3,train
TCGA-WK-A8XO-01A,-0.26944100856781006,-0.4580385684967041,0.3721453845500946,-0.27186188101768494,0.037367843091487885,-0.05041747912764549,0.25440874695777893,-0.10378482192754745,0.7151688933372498,0.015577035024762154,-0.3743424415588379,-0.15540030598640442,0.6468921899795532,0.36943429708480835,0.21544870734214783,0,train
TCGA-IS-A3K7-01A,0.09646697342395782,-0.32713568210601807,0.12180387228727341,0.45769408345222473,0.685732901096344,-0.026004575192928314,0.03217824548482895,-0.5589932203292847,0.4683062732219696,0.0023567622993141413,-0.5085322856903076,-0.2816891372203827,0.3685629367828369,-0.16589684784412384,0.6679147481918335,2,train
TCGA-PC-A5DN-01A,-0.13958339393138885,-0.39301449060440063,0.5375536680221558,-0.007105509750545025,0.3207983076572418,0.043649282306432724,-0.34673383831977844,-0.30775511264801025,-0.03933129087090492,0.16480331122875214,0.4002853333950043,-0.16290514171123505,-0.05045695602893829,0.012028553523123264,0.12484168261289597,2,train
TCGA-X9-A971-01A,0.2556993067264557,-0.010517084039747715,-0.22251255810260773,-0.08868664503097534,0.002746271900832653,0.5474928617477417,-0.062395140528678894,-0.08704829216003418,0.1151672899723053,0.002213092288002372,0.4203038811683655,-0.6281288862228394,-0.033387795090675354,0.6106059551239014,0.05407173931598663,2,train
TCGA-DX-A7ES-01A,-0.41845500469207764,-0.5328341722488403,0.09612271189689636,-0.04574572667479515,0.43248090147972107,-0.23639948666095734,-0.12229333072900772,-0.1277053952217102,-0.200746089220047,0.22920209169387817,-0.1138659343123436,0.1642623245716095,0.2986782193183899,0.02862839587032795,0.10310771316289902,0,train
TCGA-VT-AB3D-01A,-0.7682331204414368,0.70167076587677,0.6079524755477905,-0.005890899803489447,0.6188591718673706,0.11796506494283676,2.136089563369751,-0.4294629693031311,-0.638803243637085,0.20804481208324432,-0.04323159158229828,0.47643187642097473,0.3756585717201233,-0.07642481476068497,0.1462748795747757,3,train
TCGA-FX-A2QS-01A,-0.19168177247047424,-0.1285409778356552,0.6567057371139526,0.5025637745857239,-0.10494062304496765,0.5881845951080322,-0.5332254767417908,-0.028602080419659615,0.16137073934078217,0.06046251952648163,0.18064583837985992,-0.5836459994316101,-0.15551698207855225,0.5138007402420044,-0.5796105861663818,0,train
TCGA-3B-A9HI-01A,-0.5516331791877747,0.22781936824321747,0.016346776857972145,0.12516336143016815,-0.1858857274055481,-0.06431332230567932,-0.07456871122121811,0.1079307422041893,-0.0231829434633255,-0.6653645634651184,-0.2007058560848236,0.6227061748504639,-0.265762060880661,-0.2616139352321625,-0.18185709416866302,0,train
TCGA-3B-A9HO-01A,-0.5931915640830994,-0.05861188471317291,0.04312005266547203,0.08695583790540695,-0.2573338747024536,-0.17549006640911102,-0.4044085741043091,0.6916765570640564,-0.30590251088142395,-0.17028889060020447,-0.5755512118339539,0.4241926670074463,-0.0073194983415305614,0.48856133222579956,-0.22321975231170654,0,train
TCGA-DX-A8BO-01A,-0.04404290392994881,-0.47721564769744873,-0.21384820342063904,0.12134434282779694,0.4281921088695526,0.04817638546228409,-0.16430151462554932,-0.7566788792610168,0.062290895730257034,1.1689648628234863,-0.5830376744270325,0.1523238718509674,0.26100173592567444,0.04735369607806206,-0.1988549381494522,3,train
TCGA-MB-A5Y8-01A,0.4904811680316925,-0.1521804928779602,-0.0622720792889595,-0.28874579071998596,1.0601530075073242,0.6014524102210999,-0.04448452219367027,-0.40266841650009155,0.3033773601055145,0.4781780242919922,-0.5218487977981567,-0.22853390872478485,0.43269598484039307,-0.3348144590854645,-0.32313331961631775,3,train
TCGA-MJ-A68J-01A,-0.0181607436388731,-0.6680402755737305,0.02171003632247448,-0.11380427330732346,0.2681259512901306,-0.2067761868238449,-0.023805785924196243,-0.10523313283920288,-0.14891861379146576,0.1290193796157837,-0.3091881275177002,0.39922329783439636,0.15932892262935638,-0.0033300910145044327,0.12451609969139099,1,train
TCGA-QC-A7B5-01A,0.0016694184159860015,0.5035930871963501,-0.11600416898727417,0.2512322962284088,-0.09133780747652054,0.24580536782741547,-0.4969371557235718,0.37853115797042847,-0.41393178701400757,0.1759800910949707,-0.3911302387714386,-0.17319828271865845,0.11524918675422668,-0.27567386627197266,-0.13854512572288513,3,train
TCGA-VT-A80J-02A,-0.9972808361053467,-0.1419888436794281,-0.0853845551609993,0.28658348321914673,-1.0210206508636475,0.42923906445503235,0.34845462441444397,-0.2043827623128891,0.8849128484725952,-0.018102960661053658,-0.6031957268714905,-0.4387626647949219,-0.17372475564479828,0.13940443098545074,0.6607556343078613,3,train
TCGA-DX-AB32-01A,-0.18224357068538666,0.22874972224235535,0.4039859473705292,0.16120782494544983,0.7113019824028015,-0.07482373714447021,0.22723618149757385,-0.49998804926872253,0.21678820252418518,0.3421458899974823,-0.1775618940591812,0.6259484887123108,0.8455135822296143,-0.02789587900042534,0.04459808021783829,1,train
TCGA-N1-A6IA-01A,0.08242525160312653,-0.05477457493543625,0.09629236906766891,-0.0016334783285856247,-0.3412630259990692,0.009450210258364677,0.4528368413448334,0.48638975620269775,-0.009655454196035862,0.080707848072052,-0.14546790719032288,-0.48715952038764954,-0.2922544777393341,-0.23622919619083405,-0.3205161392688751,2,train
TCGA-X6-A7WB-01A,0.8206401467323303,0.33080267906188965,0.06799914687871933,-0.049065928906202316,-0.16231012344360352,-0.37587738037109375,0.0744430273771286,-0.48578062653541565,-0.16568920016288757,0.32990753650665283,0.3572431802749634,-0.6472135186195374,0.3934546411037445,0.27372634410858154,-0.10680999606847763,2,train
TCGA-DX-A1L2-01A,-0.043001074343919754,-0.06713588535785675,0.09707380831241608,0.06899586319923401,-0.662727415561676,0.11194811016321182,0.09038475900888443,0.5522921085357666,-0.18777205049991608,-0.13177141547203064,-0.1365887075662613,0.5971943736076355,-0.407790869474411,-0.07619257271289825,0.025517962872982025,0,train
TCGA-SG-A6Z7-01A,-0.25488749146461487,-0.08985978364944458,1.088869571685791,-0.34132373332977295,-0.3442474603652954,0.12208782136440277,-0.7244802117347717,-0.10585491359233856,0.19949966669082642,-0.331912100315094,0.6962905526161194,-0.3773725926876068,-0.4287577271461487,-0.3257908821105957,-0.27459144592285156,0,train
TCGA-3B-A9HP-01A,0.210617795586586,-0.4185589551925659,-0.09294905513525009,0.21415695548057556,0.584625780582428,-0.2551324665546417,0.1378927379846573,-0.21616636216640472,0.495269238948822,0.18540745973587036,0.36772000789642334,-0.07958321273326874,0.6625930070877075,0.2666279375553131,-0.038679588586091995,2,train
TCGA-DX-A3U6-01A,-0.5997686982154846,-0.6080042123794556,0.1820760816335678,-0.1437378078699112,0.5295892357826233,-0.25494807958602905,-0.06203196942806244,-0.018927333876490593,-0.2561807334423065,0.3365061581134796,-0.32496678829193115,0.18246980011463165,0.49798598885536194,0.041866760700941086,-0.18813657760620117,0,train
TCGA-DX-A3U9-01A,0.4246577024459839,0.6332335472106934,-0.3606407940387726,-0.1004643365740776,0.02850949950516224,0.17390647530555725,0.21713700890541077,-0.44446346163749695,0.12286713719367981,-0.603395938873291,0.4314195513725281,-0.0033714468590915203,-0.013328545726835728,-0.16574843227863312,0.5303987264633179,2,train
TCGA-DX-A1L1-01A,-0.4894929826259613,0.2008419930934906,0.49002814292907715,0.20690211653709412,0.00835309736430645,0.13651038706302643,0.3502638041973114,0.07937740534543991,-0.0915994644165039,-0.03304394707083702,-0.3418009877204895,0.05594576522707939,0.5267799496650696,0.560341477394104,0.27104803919792175,0,train
TCGA-DX-A23U-01A,0.304328054189682,0.24601878225803375,0.0146475899964571,-0.1414920538663864,0.09922666847705841,-0.056521035730838776,-0.2690883278846741,-0.16389301419258118,-0.17032618820667267,-0.022188805043697357,-0.44421279430389404,0.3031182587146759,-0.007657165639102459,-0.2690468430519104,0.11424846202135086,0,train
TCGA-DX-A6YV-01A,0.008315246552228928,0.3816687762737274,-0.15300717949867249,-0.044210284948349,-0.178550124168396,0.45250174403190613,-0.12827010452747345,0.32677993178367615,-0.2804560363292694,0.04876932501792908,0.025690121576189995,0.48092004656791687,-0.731985330581665,-0.6505305171012878,-0.3530151844024658,1,train
TCGA-DX-A48R-01A,0.42121750116348267,0.591901957988739,-0.6593599915504456,0.31755873560905457,-0.4508512318134308,-0.040343936532735825,0.2636151611804962,-0.790113627910614,0.3736967444419861,-0.9022247791290283,0.5202879905700684,-0.33289116621017456,-0.29375940561294556,0.38408875465393066,0.23034922778606415,2,train
TCGA-DX-A6YZ-01A,-0.10479547083377838,0.2469175010919571,-0.007164072711020708,-0.025681104511022568,-0.632885217666626,0.31503602862358093,-0.3872866928577423,0.4717130959033966,0.20603962242603302,-0.4290488660335541,-0.08380435407161713,0.3533010184764862,0.3601813018321991,-0.1821850687265396,-0.015115163289010525,1,train
TCGA-DX-A48J-01A,0.03289076313376427,0.271585077047348,-0.43055570125579834,0.09965911507606506,0.12410563975572586,-0.6010280847549438,-0.18641816079616547,-0.17228597402572632,-0.01711394637823105,-0.0018760508392006159,0.6465474963188171,0.41587087512016296,-0.012018266133964062,0.12106316536664963,0.5452736616134644,2,train
TCGA-DX-A1KZ-01A,0.22768503427505493,-0.040661346167325974,0.10215725749731064,0.20109890401363373,-0.31553664803504944,-0.01635325886309147,-0.6102743148803711,0.42748624086380005,-0.3780193626880646,-0.1496628224849701,-0.3721562922000885,0.3553501069545746,0.2925851345062256,0.4647834300994873,-0.32149285078048706,0,train
TCGA-DX-A3U5-01A,0.0653746947646141,-0.035139039158821106,0.1673627644777298,0.18473176658153534,0.16256819665431976,0.16690652072429657,0.10845750570297241,-0.384385347366333,-0.41687315702438354,0.13157014548778534,-0.3894534409046173,0.39902177453041077,-0.3276805579662323,0.4932100772857666,0.801430881023407,0,train
TCGA-3B-A9I1-01A,0.28993847966194153,-0.024592554196715355,-0.027577608823776245,0.1689971685409546,-0.24227802455425262,-0.6940979361534119,0.39384135603904724,0.3226395845413208,-0.5437690615653992,0.05810081586241722,0.22651463747024536,-0.5410824418067932,-0.008452938869595528,0.05549803003668785,-0.23769281804561615,2,train
TCGA-IE-A4EK-01A,0.37668102979660034,0.30281442403793335,-0.5897445678710938,-0.07925251871347427,0.0713488981127739,-0.4362964332103729,-0.07415111362934113,-0.2801906168460846,0.25416216254234314,-0.5309555530548096,0.506763219833374,0.22772052884101868,0.06678362935781479,0.40939199924468994,0.4974314570426941,2,train
TCGA-HB-A2OT-01A,0.3518404960632324,-0.13065868616104126,0.14354905486106873,0.10568311810493469,0.3828811049461365,0.20346802473068237,0.5864693522453308,-0.04912976175546646,0.17762845754623413,0.4847107231616974,-0.39963337779045105,0.09352105110883713,0.4154358208179474,-0.6142475008964539,-0.258912593126297,3,train
TCGA-MO-A47R-01A,-0.18765708804130554,0.09078236669301987,0.20162807404994965,0.305440217256546,-0.2257034033536911,0.2700081169605255,-0.4900526702404022,0.28381961584091187,0.3102535903453827,0.1054704412817955,0.22551319003105164,-0.5608858466148376,-0.5274365544319153,0.020280154421925545,0.2313656210899353,2,train
TCGA-X9-A973-01A,0.16395032405853271,0.22104312479496002,0.3948154151439667,0.14493125677108765,-0.1681600660085678,-0.06922560930252075,-0.19965633749961853,-0.12589888274669647,0.17809008061885834,-0.10097011923789978,-0.18556374311447144,0.2948557138442993,0.011590556241571903,0.12785087525844574,0.17171619832515717,3,train
TCGA-X6-A7WC-01A,-0.6012043952941895,0.5515626668930054,0.03877922520041466,-0.21305114030838013,-0.9888604283332825,0.4542253315448761,-0.11703752726316452,0.5291059613227844,0.36098772287368774,-0.1547401249408722,-0.19778116047382355,-0.13790340721607208,-0.3208425045013428,-0.35616517066955566,-0.43919938802719116,2,train
TCGA-3B-A9HT-01A,-0.7540484070777893,0.3110595643520355,-0.0196551363915205,0.07989583909511566,0.09053760766983032,-0.29709669947624207,-0.3733520209789276,0.3827918469905853,-0.24589847028255463,0.05123774707317352,-0.3318825364112854,0.0406995564699173,0.2252659648656845,0.023424094542860985,-0.12477804720401764,2,train
TCGA-DX-A1KU-01A,0.10296151787042618,0.21706916391849518,0.2891310155391693,0.32110264897346497,-0.27271878719329834,0.09720450639724731,-0.5712282657623291,0.25509095191955566,-0.32420840859413147,-0.15286463499069214,-0.1658373475074768,0.19154317677021027,0.16773152351379395,0.13148805499076843,-0.09792288392782211,0,train
TCGA-DX-A3U8-01A,-0.2832076847553253,0.25023066997528076,-0.05587708204984665,-0.08923303335905075,0.33087050914764404,-0.01213530171662569,-0.35939618945121765,-0.15020382404327393,-0.4219822883605957,0.06529134511947632,-0.450457900762558,-0.12404915690422058,0.3077011704444885,0.17744925618171692,0.0749148279428482,2,train
TCGA-HB-A3L4-01A,0.8672600984573364,0.11453644931316376,0.09944063425064087,0.20581114292144775,0.18342578411102295,-0.5891154408454895,0.13868199288845062,-0.30364295840263367,-0.2877901792526245,0.17007794976234436,0.3307480812072754,-0.4295159876346588,0.15971992909908295,-0.6279788613319397,0.0015849247574806213,2,train
TCGA-IS-A3KA-01A,-0.24612955749034882,0.013726877979934216,-0.2682170569896698,-0.0037775158416479826,-0.25625142455101013,-0.006884458474814892,0.2416548877954483,0.17231221497058868,-0.7705872058868408,-0.6814832091331482,-0.13587594032287598,-0.495779812335968,-0.34766024351119995,-0.3243344724178314,0.42465582489967346,2,train
TCGA-FX-A76Y-01A,0.5931457281112671,-0.1574646234512329,-0.28929802775382996,-0.22600999474525452,1.0153844356536865,-0.8680561780929565,-0.15236063301563263,-0.42788422107696533,0.05223255977034569,0.32967492938041687,0.24049313366413116,-0.09497565776109695,0.37438857555389404,-0.41040483117103577,-0.1512996107339859,2,train
TCGA-MB-A8JL-01A,-0.3176147937774658,-0.12934395670890808,0.7013667225837708,0.12294203042984009,0.386237233877182,0.17408423125743866,-0.10612837970256805,-0.28409910202026367,0.5589054226875305,0.37283241748809814,0.005439018830657005,-0.48217570781707764,-0.16190539300441742,0.30400460958480835,0.15874886512756348,2,train
TCGA-KF-A41W-01A,-0.25084057450294495,0.10327508300542831,0.3254588544368744,-0.08644679188728333,0.022608667612075806,0.05621587485074997,0.7746121883392334,0.6609504818916321,0.15217316150665283,0.38113275170326233,0.006663918029516935,-0.4053698480129242,-0.10196798294782639,-0.3318348228931427,-0.18310897052288055,2,train
TCGA-HS-A5N8-01A,0.2216625213623047,0.023293200880289078,0.7238178849220276,0.06526850908994675,0.045067016035318375,0.05217108875513077,-0.19489642977714539,0.6852056980133057,0.2711004316806793,-0.09382720291614532,0.2904752194881439,-0.2533468008041382,0.3397045433521271,-0.39345449209213257,0.16643615067005157,2,train
TCGA-DX-A6BG-01A,-0.24379509687423706,0.25930675864219666,0.032599110156297684,-0.047589804977178574,0.33327168226242065,-0.3015385866165161,-0.23801487684249878,-0.1289304792881012,-0.14410074055194855,0.16618108749389648,-0.29723381996154785,0.23501411080360413,0.2240997850894928,-0.1416970193386078,0.09393929690122604,0,train
TCGA-DX-A3M1-01A,-0.19805054366588593,0.27856889367103577,0.48359960317611694,0.0010115050245076418,-0.5349023938179016,0.4818422198295593,-0.30788007378578186,0.33498841524124146,-0.32303309440612793,-0.32490167021751404,0.19162073731422424,0.2559497356414795,-0.301785945892334,-0.09755037724971771,-0.11918297410011292,0,train
TCGA-K1-A3PN-02A,0.3369366228580475,-0.2547610402107239,-0.7097073793411255,-1.171252965927124,0.0030795277561992407,0.19806231558322906,0.027802307158708572,-0.38183724880218506,0.20371274650096893,-0.2216397523880005,0.4053139388561249,-0.4552748203277588,-0.17212288081645966,0.4402064383029938,-0.13189026713371277,2,train
TCGA-WK-A8XS-01A,-0.08082608878612518,-0.17538613080978394,-0.12178082764148712,0.1606580913066864,-0.3176347613334656,-0.12550710141658783,0.46112605929374695,0.6387349963188171,0.45594340562820435,-0.7397094964981079,0.46776527166366577,-0.3919731080532074,-0.33842629194259644,0.22929441928863525,-0.09317514300346375,2,train
TCGA-DX-A8BG-01A,-0.6900261640548706,-0.3681589663028717,0.19695650041103363,0.22383734583854675,-0.5098992586135864,0.05849200859665871,0.7428122162818909,0.6999343633651733,-0.2651325464248657,-0.5444782376289368,-0.15033768117427826,0.29120656847953796,0.23467235267162323,-0.037610139697790146,-0.20295412838459015,1,train
TCGA-WK-A8Y0-01A,-0.2559119462966919,-0.16245678067207336,-0.1807587891817093,-0.2760891914367676,-0.41142481565475464,0.3994867205619812,-0.2822975516319275,0.3260190486907959,-0.9258928298950195,0.0009122209739871323,-0.15690802037715912,-0.2938573360443115,0.2850267291069031,-0.3235251009464264,-0.371314138174057,3,train
TCGA-IE-A4EI-01A,0.22738373279571533,-0.3536818325519562,-0.25260716676712036,0.18644799292087555,-0.32694360613822937,-0.02187711000442505,0.48116034269332886,0.20320501923561096,0.77384352684021,0.028132159262895584,0.49243491888046265,-0.2887326180934906,0.036854520440101624,0.6413373351097107,0.09382759779691696,2,train
TCGA-DX-AATS-01A,-0.15076188743114471,0.5533163547515869,-0.018120314925909042,0.24896608293056488,-0.7451634407043457,0.4827575087547302,-0.7338997721672058,0.6092455983161926,0.2212211787700653,-0.60593581199646,-0.001995062455534935,0.07158878445625305,-0.2241363376379013,-0.6222097873687744,-0.2705380916595459,3,train
TCGA-DX-A48L-01A,0.35479751229286194,-0.2607088088989258,-0.6140865683555603,-0.23718658089637756,-0.18042156100273132,0.40299487113952637,0.1529129594564438,0.11629438400268555,0.29794976115226746,-0.10480216890573502,0.5447757244110107,-0.2047448754310608,-0.13443942368030548,0.2106848657131195,0.06798482686281204,2,train
TCGA-K1-A3PO-01A,-0.2900087237358093,0.273311585187912,0.15614092350006104,-0.01925484836101532,0.35763782262802124,-0.5210028290748596,-0.30222243070602417,-0.1606454998254776,-0.09264464676380157,0.2200486660003662,0.08894601464271545,0.317308634519577,0.18998929858207703,-0.05512809008359909,0.08974482864141464,2,train
TCGA-DX-A6YU-01A,-0.33949628472328186,-0.3496132791042328,0.3055204153060913,0.23487867414951324,-0.45546969771385193,0.2890821397304535,0.7343917489051819,0.5365237593650818,-0.01775236241519451,-0.23231826722621918,0.09896869957447052,0.40240997076034546,0.18349383771419525,-0.15374134480953217,-0.2238083928823471,1,train
TCGA-QC-A6FX-01A,-0.05865456536412239,0.3733568489551544,0.23722440004348755,0.08677446842193604,-0.8446021676063538,0.26027899980545044,0.6709968447685242,-0.11909548938274384,0.6954790949821472,0.12280227988958359,-0.4456367790699005,0.345751017332077,0.44430193305015564,-0.015445224940776825,-0.1932094246149063,3,train
TCGA-DX-A2J1-01A,-0.12419304251670837,0.019875183701515198,0.043970391154289246,-0.09277082234621048,0.3109099268913269,-0.2960454821586609,-0.1491353064775467,-0.11065882444381714,-0.13025233149528503,0.16102968156337738,-0.6062254309654236,0.5233659148216248,0.20329050719738007,0.10003665089607239,0.10028652846813202,0,train
TCGA-SG-A849-01A,-1.080776333808899,0.43981873989105225,0.0379800908267498,-0.4173108637332916,0.05688878148794174,0.1686188280582428,0.7241972088813782,0.3899165689945221,0.2508947253227234,0.5389313101768494,-0.4532516300678253,0.06769313663244247,-0.1821754276752472,-0.0540057010948658,-0.26430362462997437,3,train
TCGA-DX-A6B8-01A,0.8568554520606995,0.7431793212890625,0.09522943943738937,0.05385236814618111,-0.1566172093153,0.5647866725921631,0.29052573442459106,-0.4132068455219269,0.3871109187602997,0.5391067266464233,-0.2545974850654602,0.07770448923110962,0.25418785214424133,-0.7456843852996826,0.04386868327856064,2,train
TCGA-MB-A5Y9-01A,-0.26765817403793335,0.15050016343593597,-0.09668328613042831,-0.06076212599873543,0.29139599204063416,0.02678411826491356,-0.07793355733156204,0.11966940015554428,-0.2586020231246948,0.5368378758430481,-0.7639601826667786,0.10565256327390671,0.35477298498153687,0.21164827048778534,-0.18532723188400269,3,train
TCGA-K1-A42W-01A,0.11668263375759125,-0.4228866696357727,-0.1960979551076889,0.09756395220756531,-0.23328764736652374,-0.15385062992572784,0.12451818585395813,0.1056852862238884,0.11138560622930527,-0.11037838459014893,0.3776596188545227,-0.052204303443431854,0.22206389904022217,0.4922729432582855,0.08361933380365372,2,train
TCGA-DX-A7EN-01A,0.3361626863479614,0.05251011997461319,-0.8705722689628601,-0.2888115346431732,0.5410283803939819,0.22765034437179565,0.29562056064605713,-0.29693275690078735,-0.30776771903038025,0.1582265943288803,0.8662481904029846,-0.1722303330898285,-0.2913711667060852,-0.25100022554397583,0.47468605637550354,2,train
TCGA-PC-A5DK-01A,-0.4929857850074768,0.21863768994808197,-0.47003617882728577,-0.08134936541318893,0.9569224119186401,-0.5341919660568237,-0.11949733644723892,-0.2841510772705078,0.19153927266597748,0.6404933929443359,0.66376131772995,0.2985740005970001,-0.1014380231499672,0.26214495301246643,0.5170503854751587,2,train
TCGA-DX-A6B9-01A,-0.08118310570716858,-0.40971171855926514,-0.17050814628601074,0.06460455805063248,0.17125685513019562,-0.8852348327636719,-0.05137869343161583,-0.8229060769081116,0.4897253215312958,0.39428821206092834,0.2104806751012802,0.19832181930541992,-0.4790578782558441,-0.15548086166381836,-0.29860183596611023,2,train
TCGA-DX-A23T-01A,-0.15633822977542877,-0.5639402270317078,0.10556530207395554,-0.38631492853164673,0.34068676829338074,-0.23961524665355682,0.0799533799290657,0.20788267254829407,-0.2005089670419693,0.37001684308052063,-0.42344930768013,0.3481220304965973,0.5628000497817993,-0.1243564710021019,-0.7152118682861328,0,train
TCGA-DX-A3LU-01A,0.22351954877376556,-0.047316353768110275,0.06738372892141342,0.25133073329925537,0.5589463710784912,-0.15932507812976837,-0.2710041403770447,-0.1966363787651062,-0.3111257553100586,0.42012956738471985,-0.5712266564369202,0.4760645627975464,0.5585761070251465,0.21684803068637848,0.0524187833070755,0,train
TCGA-DX-A6YT-01A,-0.27325111627578735,-0.5505917072296143,0.0863349586725235,-0.11737050116062164,-1.1439037322998047,-0.05945321172475815,0.440832257270813,0.21531794965267181,-0.5268508195877075,-0.350829541683197,-0.10209748893976212,0.38112518191337585,-0.673891544342041,0.013375799171626568,0.2704786956310272,1,train
TCGA-DX-A48N-01A,-200.0321263885845,82.62802404484478,737.5488460161359,550.465733003305,-729.8810665060558,-42.62303769617162,-993.4859945466932,1264.273140946663,-681.3994005398704,-614.6219237831514,284.652351571519,382.1965665711884,-893.9220145836343,435.77327243431347,-527.7113797861015,0,test
TCGA-3B-A9HU-01A,-270.9343594852125,-324.0279508273181,-872.0693212908341,-824.7876408572683,586.8613509934665,-561.1546015793629,287.24486788001656,-924.5994794227613,267.7390540983296,461.9447388559088,1245.0455713386366,-301.38584951520505,798.0444246959456,564.8213896597398,504.1292452695252,2,test
TCGA-DX-A6BA-01A,-105.54867542881539,-502.49570363963204,-564.8687432973985,107.04257544227436,-238.83459196724536,-364.17434600318967,-223.6764399208382,490.619138769594,242.32611696800367,-290.9911505589963,1033.778166212653,-1056.4590649941174,-358.95230191934655,1327.2663414425383,-217.74710114352732,2,test
TCGA-DX-A3UC-01A,278.1950678235416,-273.0694278254778,-1010.4835330501215,-43.21938767122097,67.52261044884476,-479.9434902313271,354.3909700860211,-395.62030602606956,307.3318555359094,102.27474443062415,1500.7602366228405,-480.6840332919478,94.52160873666594,554.5614120382276,259.96584606257903,2,test
TCGA-DX-A3LW-01A,321.866710290423,216.4791996955668,603.902232796178,-132.4930943025893,250.40730056973473,103.4525399263373,-236.20631566133474,-266.70309807258633,5.87187487058237,93.14228202419908,69.48057171542276,956.5677940383265,-210.93770311395247,-304.67035338436074,242.76832682104256,0,test
TCGA-MB-A8JK-01A,-201.65174112942853,232.76545861418958,97.98250969952785,277.5916072539157,-273.8660147720679,-63.16079898435853,-568.0082675700928,683.736516293102,-584.3076596503748,-600.5563951820019,-175.62041666551735,1021.4858768719099,-33.921002049226736,-407.2865422997468,-380.90574951435957,3,test
TCGA-DX-A2J4-01A,-251.6131702742965,200.24340748143663,163.44002665734575,-205.9337961280928,305.872037181783,-476.8275306556068,-169.2670385811414,-178.45099453793364,-49.265519925084625,115.54944248496021,-625.9083682903214,976.6139599667796,445.7348263391971,-75.37271185651336,119.34250767671993,0,test
TCGA-X6-A7WA-01A,122.09113219380772,-297.026777081948,-671.386326528284,-241.98380841850076,154.41919319523242,-168.8178541649559,250.8494512549913,-241.442086491713,262.8738914134478,168.75936751223284,1085.4098513780918,-627.111451265328,177.22818336757425,920.4045403940086,143.1324022695681,2,test
TCGA-QQ-A8VF-01A,-536.4033258226383,301.36552382811556,289.02893908175116,303.8044497679353,-334.1740396982149,165.07747310749207,-146.10887080264828,97.34433151424678,40.912426633867184,-217.43604054363345,-658.8310862557461,-11.121613390388006,203.15653313683345,230.26612292913163,-72.9912665971005,2,test
TCGA-DX-A7ET-01A,-326.46203510442814,366.0775340324482,-82.60731045037461,-22.4984422233712,215.267823248959,424.1009394066473,361.81732840961246,-49.01925483939996,31.528546236826553,124.38205854533254,-1153.5322485959925,633.7562798850546,82.23165753152118,-448.9193577899018,-242.31679241081008,3,test
TCGA-3B-A9HX-01A,-145.28820973534914,-100.09933835973818,-95.32889566261565,-35.85890604961864,-241.95712075830758,-84.93284868705682,-153.31068576633308,343.1795549010444,-342.2536244227305,-250.47260377893724,232.51826295103547,-329.0196803778722,-94.27240312169265,-503.48728632046704,-192.188388250877,2,test
TCGA-DX-A3UE-01A,653.0990486589664,-299.5646169383562,-889.7177361126911,-235.61971901771184,336.0510689516604,-131.09817386760002,338.11579528233284,-547.9202702491184,507.2268226662674,17.59790195662218,1056.8237169726071,-393.415010411708,330.2604387540774,745.6563779098129,163.65437260936545,2,test
TCGA-DX-A23R-01A,488.3790868279593,-117.84058247782632,848.2026193500286,-162.9479695486692,437.9871496148424,339.67789556097176,-236.52910244043497,-545.9868079788411,282.88335425502316,67.10426561998017,540.4649881858153,384.251500651694,199.17705370191308,-1201.0244713395798,184.88167632417063,0,test
TCGA-DX-A3UA-01A,246.0282787509548,21.691483435332895,352.933733390181,-422.50330550664677,512.0143377718592,565.7366824906729,107.48029170505528,-601.3440834182612,608.4369540307408,476.2407294369253,-101.18371217906576,-191.72559661699833,7.56939340826646,-723.1221230744198,556.8298389299794,2,test
TCGA-DX-A6BE-01A,-340.54496977356524,156.96932512880085,351.1936326398602,-212.30887825581195,260.95043848049505,-439.587271024741,-181.761386094014,-152.4906515060661,-44.31193360407019,129.19963972597284,-488.9293826640598,768.2410624351496,438.5702932658991,278.64096567467783,130.30090556234697,0,test
TCGA-DX-A3UF-01A,159.713237505016,-371.33115660106336,-115.51755278593514,-214.2436762553161,459.281913960813,-278.29949070600975,719.338379176865,-704.5036035382087,656.402356892169,470.55941537386724,973.216613795509,-1336.3864473425708,132.91222697490284,1408.9427172311077,476.7760157175501,2,test
TCGA-Z4-AAPG-01A,-305.4248276281851,68.25323098665889,87.75504884718286,39.43757052608555,-431.0407468201301,1175.0127722908699,-419.8430578048283,481.28812882745984,-39.632395528836184,-190.5474787027622,-1104.1254430584333,-682.8506051705207,-258.0857536448724,-378.1101167814555,-281.3616974361536,3,test
TCGA-DX-A3M2-01A,-524.2543884855015,165.25107922956832,77.83771385893716,550.1332413653969,-644.7874274743799,53.58829150855894,-351.7710220789367,826.0632534138822,-725.7437188441382,-258.6498770329453,-1337.2966352418155,934.6114719259808,-205.9983985445393,-198.8669610473867,-274.3271300292635,0,test
TCGA-QQ-A5VA-01A,-770.7859062960264,-392.51494602617475,509.6526655427336,156.62659924890622,-235.39110310426824,-42.97374689771586,-158.18738658344432,61.655381842739075,-328.6833060435531,-0.1832748002873501,145.72053452802314,-294.5090042251292,328.79554220744706,257.48078621221333,-9.841194752834534,0,test
TCGA-3B-A9HZ-01A,-29.37539609163029,235.45453227213724,-789.9077509377379,-795.0318658156233,454.3679139752539,-328.4258878928717,211.81392038899654,-1011.3747455805957,468.937675139766,301.2720050337657,735.8995333957699,-235.73676996576037,656.7073707864636,1068.8411950717584,407.39423624528536,2,test
TCGA-DX-AB2J-01A,350.1187525582872,-408.8855615449095,758.0300729045799,-187.16811424497715,207.07487710143266,-591.7730397997149,-146.86063723770766,-256.3086772392966,191.2455318615547,126.36847877926515,435.6131791035139,-688.5377915735858,-164.73826967398946,471.2813013504283,148.59561887360846,3,test
TCGA-SG-A6Z4-01A,-28.114343175035724,567.6370989717132,132.29410489167074,365.2726650081957,-464.65706929471,761.3417048159968,-436.0709229008556,849.8109878287701,-699.532547967976,-409.58260843197974,-245.88533608169587,976.1418844351607,-651.6002904027345,-1549.9373898194735,-388.08791270077023,3,test
TCGA-DX-AB37-01A,-316.8028218778959,-362.68462912861133,-26.978149001483498,-71.02333006374123,236.7782805524049,73.1644627919606,-93.72267360699891,-80.58060172807947,-116.84563938891499,266.4874952991924,-735.6860353742478,610.6339934443189,282.2906298083938,-367.1091037656151,106.21924153715223,0,test
TCGA-DX-A6YR-01A,-234.33249771597903,276.9416016391596,211.4729338471196,517.0705261292468,-338.2527897828962,509.40472548315944,136.6890566753575,380.58085338547227,246.5873635861914,80.14555131149054,-461.20075385115706,1073.1355811354172,-471.42231557721317,-725.1502606206844,-229.09941304651178,1,test
TCGA-HB-A5W3-01A,354.89990823589113,-394.86431270165923,-768.9245350677753,-553.6347397469999,783.3817325549959,-501.0450826112901,602.7753606574522,-952.0023155526752,935.7233667147744,454.386494630047,1049.8049428074582,-973.5485938309558,256.09445199792316,1085.7116049379383,422.0605474075484,2,test
TCGA-IW-A3M5-01A,53.506950821798874,-140.31805390142833,778.1121735542507,383.4744269524597,-110.71422953029746,235.38712757306848,-472.92224274168126,490.9713985055219,96.80488354398729,-406.3065403688927,-143.52758465077406,-157.6900976806443,-362.691761395254,-997.6148694952363,-209.5324124398422,2,test
TCGA-DX-A6YX-01A,-192.261561887222,-100.52826873883366,-18.973525982530845,123.24274923754467,-288.4877382083385,950.1273557934629,-72.7748113193856,214.89175279846802,75.42293696293736,-139.73662269917304,-1051.4821282695987,-477.5000795531614,29.092050901085987,-416.70949769454523,-201.2970564011704,1,test
TCGA-3B-A9HY-01A,274.87515534014534,313.53486616606466,-383.12787630476197,-334.3288222307834,426.0792314803518,-289.05627866818514,438.6556363116171,-576.1546061432427,926.8296352248385,264.285830686284,1107.2258752717914,-248.62001373337603,246.35887445985705,569.7715919677535,210.83153467289165,2,test
TCGA-FX-A3RE-01A,387.74582604366105,-305.7648676989482,437.7831524248857,10.452461893167575,314.9507252494602,-161.01650260528564,261.9791469114702,-407.07522554633994,616.782991262722,562.677911484329,395.19076382402454,-867.9117026032251,-294.38896045347025,60.86847666827416,329.1455293338298,2,test
TCGA-LI-A67I-01A,183.4108443702189,-39.81518700685287,82.4145706361047,69.37190482795872,-11.110637756600276,520.539911451234,-426.6946699341254,523.4665005660905,-781.8132818575513,-368.2820005036997,-239.57466229334753,453.8454342291437,-342.0074926309341,-1287.3802403957018,-320.751977168643,1,test
TCGA-DX-A23Y-01A,-621.1872916953922,69.89467542277136,349.44784563662125,589.90292417506,-287.0958908820049,231.0393705372666,-299.87761672936136,771.4428750086639,-684.4171681667782,-285.0741077096986,-696.4347347391631,68.16884891322631,-198.70373367652292,886.6931200309537,-291.79135145959964,0,test
TCGA-DX-AB2F-01A,-38.861210549825024,-433.1216732533723,535.8730754750678,607.9309292943705,-459.04344968576896,-30.97932902508119,-495.015893767498,928.7929953874005,-631.5721211969359,-333.93087347591614,-288.2756940598713,753.9372101994244,-567.2780815524608,48.97723305182615,-418.9237882959285,0,test
TCGA-DX-A7EM-01A,-219.0669965925434,219.54861816709638,-676.6972617378638,30.22215051539655,-90.89887760657568,-298.215528495884,36.53170309389572,277.2945599288683,100.07870857260366,-124.129207389687,1347.7396018497875,-469.155257097128,-139.4106736272979,1137.6162531790953,-220.58413450649246,2,test
TCGA-Z4-A9VC-01A,98.69158962079983,354.5514919892505,397.23865342320045,-161.71164147514554,190.5886073557593,-75.02144064967472,-226.6966567027508,-176.80430633848587,52.29351788226577,95.66421236221392,266.0811795101769,786.4770865708191,-41.50206704942295,-616.5381087085226,131.93524351819613,0,test
TCGA-DX-AB2V-01A,-160.9696772321889,160.8659131085669,425.6049637202248,-50.831075556060405,-299.3950746695164,45.824659303436995,617.3788389227564,-487.6097988339341,365.6113104476408,501.16893167351145,-438.5085040378537,468.8922760028836,-44.15762878152697,544.4052089766678,231.98269896087814,1,test
TCGA-3B-A9I3-01A,203.52265311774093,328.61900476417014,-380.3769372667651,-815.8701141877963,949.5735994870083,-537.0902142885517,709.1858900997646,-1587.6447444615367,819.251588078262,620.9874380203224,720.7636470023841,-74.25892145456005,602.6483089717976,339.2714544869563,1414.1663622115593,2,test
TCGA-IF-A4AJ-01A,-308.58774556626344,173.12711412329529,-425.7610357441279,88.20056224947984,-361.21723990818583,-194.20900057206094,15.443701198446698,452.1284712835602,436.81291345761593,24.58183579322902,1041.5293465176185,-761.6792643882945,-202.0056937761615,1316.0022423198614,-141.1416495968955,2,test
TCGA-QQ-A5V9-01A,-402.1839861471902,186.85273048610114,307.0730347527934,561.1167032235492,-399.57361151772096,143.05871787755038,-407.0330424384058,838.6220084857182,-340.0289874913751,-132.8479794779297,-752.4929919251999,833.3338102978813,-219.59042039814244,-126.60231513973118,-427.9044797884239,3,test
TCGA-IE-A3OV-01A,-241.91647880076061,183.69922401445623,-587.9098629338536,-97.01633834773827,-10.05809673416213,-78.13175123631213,-18.571053053954035,90.12553813368875,34.31482564622126,-44.90311283759445,813.9109344283429,-244.65888852190656,175.18082508408938,931.8250759415923,-89.16286075761356,2,test
TCGA-K1-A42X-01A,550.2887440425801,-362.47163288196833,-242.8938080624937,-592.3879589089414,512.3417415879001,-1739.589974552547,112.18356463354928,-729.3231096710452,156.27794274643838,437.16680738796344,944.3661917224177,-1161.2133715938878,-124.32975814156687,208.85935282219214,452.7281229434823,2,test
TCGA-QC-AA9N-01A,279.6289111904161,-298.8946599696347,590.1521075898096,75.95411973553247,991.8631257122693,-87.56027540796755,1682.4679972829344,-1046.3380851599684,2527.4091063794735,1563.7610991449385,-213.33158027986929,10.482323858164838,119.26724391359174,100.02561850030497,446.4774876172068,3,test
