,Factor_1,Factor_2,Factor_3,Factor_4,Factor_5,Factor_6,Factor_7,Factor_8,Factor_9,Factor_10,Factor_11,Factor_12,Factor_13,Factor_14,Factor_15,Label,Split
TCGA-DX-A3LW-01A,-0.5598605871200562,0.013034321367740631,0.09452281147241592,0.038159821182489395,0.6706241369247437,-0.6076660752296448,-0.45936670899391174,0.006018491927534342,-0.018630055710673332,0.3774853050708771,0.3168655335903168,0.453877329826355,0.17387786507606506,-0.07940986007452011,-0.10331244766712189,0,train
TCGA-HB-A3L4-01A,-0.1921088546514511,-0.2061787247657776,0.20486705005168915,0.46618014574050903,-0.07584455609321594,0.7805362343788147,-0.3582648038864136,-0.20052124559879303,-0.18146489560604095,0.08744294941425323,0.34676674008369446,0.09911970049142838,-0.15790383517742157,0.3016824722290039,-0.7324361205101013,1,train
TCGA-QC-A7B5-01A,0.21501561999320984,-0.35749003291130066,-0.6031906008720398,0.09483401477336884,0.09903768450021744,-0.040803201496601105,-0.28053832054138184,0.18351605534553528,-0.08761870861053467,0.03869984671473503,0.08355019986629486,-0.06236305460333824,-0.4100818336009979,0.4116080105304718,0.5742892026901245,2,train
TCGA-DX-A3U7-01A,-0.48466870188713074,-0.3612758219242096,-0.7644506096839905,-0.6841521859169006,-0.8339611291885376,-0.3199603855609894,0.027365896850824356,0.8732349276542664,-0.5732752084732056,-0.17130784690380096,-0.09926626086235046,-0.6552463173866272,-0.08807773888111115,0.4924769997596741,-0.4829142391681671,1,train
TCGA-KD-A5QU-01A,-0.49560973048210144,-0.4017874598503113,1.5910804271697998,0.08770444244146347,-0.8125682473182678,0.6952418088912964,-0.5851432085037231,0.19450218975543976,-1.4995197057724,0.7246227860450745,0.2289697676897049,-0.47724902629852295,-0.09392015635967255,0.17670974135398865,-0.5150294899940491,1,train
TCGA-DX-A1KZ-01A,-0.013341806828975677,-0.2609216570854187,-0.6059972643852234,-0.03919975459575653,0.3673750162124634,-0.37961283326148987,0.12785591185092926,0.604398250579834,-0.04648852348327637,-0.32386142015457153,-0.34097233414649963,0.5858706831932068,-0.07863472402095795,0.4579818844795227,0.003921608440577984,0,train
TCGA-DX-A8BH-01A,-0.04825921729207039,-0.3387156128883362,0.010119115933775902,0.3189832270145416,-0.031928662210702896,-0.22882875800132751,0.1970297247171402,-0.09453614056110382,-0.011070583015680313,-0.17906656861305237,-0.13445040583610535,0.09122678637504578,-0.21675623953342438,0.21117670834064484,0.7781795859336853,2,train
TCGA-3B-A9HL-01A,0.06645906716585159,0.08493780344724655,-0.34712204337120056,0.04131240397691727,0.33684709668159485,-0.527915358543396,0.2528834640979767,0.1499863713979721,-0.35325270891189575,-0.18419888615608215,-0.03318485990166664,0.6600639820098877,0.031107617542147636,0.47897112369537354,-0.3149315118789673,0,train
TCGA-DX-A1KY-01A,0.5571810603141785,0.47854629158973694,0.0009065581252798438,-0.9042773842811584,0.6330698132514954,-0.39951032400131226,-0.21083568036556244,0.30923381447792053,-0.6992265582084656,0.26278144121170044,0.2990531325340271,0.231522336602211,-0.21753284335136414,-0.1419277787208557,-0.7729271650314331,0,train
TCGA-DX-A2IZ-01A,-0.060098908841609955,0.3949761390686035,0.014884771779179573,-0.9144402146339417,0.42543408274650574,-0.17908315360546112,0.11656792461872101,0.2829894423484802,-0.04963740333914757,-0.10067460685968399,0.21900291740894318,0.2771656811237335,-0.4192843437194824,-0.10227964073419571,-0.5349398851394653,0,train
TCGA-DX-A1L2-01A,0.1957862377166748,-0.41971924901008606,-0.5632838606834412,0.3413255512714386,0.3129443824291229,-0.4089816212654114,-0.03612782806158066,0.13433921337127686,-0.5726181268692017,0.03644751384854317,0.08590809255838394,0.08917674422264099,0.12524408102035522,-0.15282852947711945,0.09192601591348648,0,train
TCGA-VT-A80G-01A,0.34110021591186523,-0.5084550380706787,0.07932545989751816,-0.10249055176973343,0.1762651652097702,-0.0654902458190918,-0.4868254065513611,-0.026666603982448578,-0.5816148519515991,0.18228745460510254,0.3166203796863556,-0.3161008954048157,-0.355825811624527,0.9297475814819336,0.3873719573020935,2,train
TCGA-3B-A9HP-01A,0.030527208000421524,0.36218661069869995,0.4390237033367157,-0.001596037414856255,-0.21170461177825928,0.13230663537979126,0.4871070086956024,-0.2244134098291397,0.4939114451408386,-0.2712036669254303,-0.21216128766536713,0.05067170038819313,0.31105756759643555,-0.43799999356269836,-0.2982181906700134,1,train
TCGA-DX-A48U-01A,-0.4688553810119629,0.04773440957069397,0.19889412820339203,0.1573619693517685,-0.33826979994773865,-0.6321253180503845,-0.6293023824691772,-0.27681025862693787,0.572538435459137,0.06856543570756912,-0.45911741256713867,-0.35962551832199097,0.19105780124664307,-0.24924184381961823,-0.6080257892608643,1,train
TCGA-MJ-A68H-01A,0.4250229001045227,-0.0321708619594574,-0.5641058683395386,-0.3955143988132477,-0.3083336353302002,0.29458990693092346,0.34535089135169983,0.30949872732162476,0.28637048602104187,0.2844632565975189,-0.016195569187402725,0.42357078194618225,0.006011393386870623,-0.44395360350608826,-0.4801260828971863,1,train
TCGA-3B-A9HX-01A,-0.03081453964114189,-0.20124304294586182,-0.1215226948261261,0.3066256046295166,-0.37678244709968567,0.5511718988418579,0.054934900254011154,0.37084639072418213,0.27207693457603455,-0.07569579035043716,0.42850714921951294,-0.21956118941307068,-0.05770811066031456,0.6462287306785583,0.094111867249012,1,train
TCGA-K1-A3PN-01A,-0.025609496980905533,0.36829304695129395,0.21628236770629883,-0.49886032938957214,-0.5673325657844543,0.07903935015201569,-0.2879318296909332,-0.00648801214993,0.6229420304298401,-0.1390770524740219,-0.19215284287929535,-0.48646536469459534,0.36585482954978943,0.5985530018806458,-0.4789019227027893,1,train
TCGA-QC-AA9N-01A,-0.43306809663772583,1.0184296369552612,0.0848086029291153,-0.0915549248456955,-0.12058016657829285,0.17843659222126007,1.7449462413787842,-1.8718596696853638,-0.2984718382358551,1.0896964073181152,-0.0978492870926857,0.802562415599823,0.28253287076950073,0.22268931567668915,0.03542783856391907,2,train
TCGA-WP-A9GB-01A,0.5767093896865845,-0.40696585178375244,-0.6521257162094116,0.3028710186481476,-0.5526296496391296,0.9954095482826233,-0.18160885572433472,0.10230588912963867,0.04983111843466759,0.22228674590587616,0.2545204758644104,0.12414316087961197,-0.5855741500854492,-0.6068791747093201,-0.8677553534507751,1,train
TCGA-IS-A3KA-01A,0.09199529886245728,-0.37577012181282043,-0.25670504570007324,-0.13493536412715912,-0.4457707107067108,0.45546290278434753,-0.46226367354393005,0.42725130915641785,-0.5638821125030518,-0.19346201419830322,0.017602022737264633,0.4389806389808655,-0.061786774545907974,-0.27937832474708557,0.15262198448181152,1,train
TCGA-DX-AB3A-01A,-0.158716082572937,0.44771644473075867,0.13380634784698486,0.1207030862569809,0.6999115943908691,-0.6166385412216187,-0.49714595079421997,-0.19896309077739716,-0.1813683956861496,-0.2342512160539627,0.1710762083530426,0.38480380177497864,0.09361160546541214,0.11377816647291183,-0.16665992140769958,0,train
TCGA-DX-A6BF-01A,0.18424928188323975,-0.351453959941864,-0.46406450867652893,-0.07051103562116623,0.2916867136955261,0.0028994656167924404,0.016872329637408257,0.40130314230918884,-0.6220252513885498,-0.2855542004108429,-0.12214069068431854,0.3794153928756714,0.45207449793815613,0.1421816051006317,0.2608605921268463,0,train
TCGA-DX-A6BG-01A,-0.27078977227211,0.1164131909608841,0.0904284194111824,0.40627601742744446,0.1319730132818222,-0.10613492131233215,0.05336567014455795,0.27185937762260437,0.07445062696933746,-0.0012887527700513601,-0.10439913719892502,0.15743476152420044,-0.21811385452747345,0.003674696898087859,0.38986653089523315,0,train
TCGA-DX-AB2F-01A,-0.17413532733917236,-0.08822330832481384,-0.7592318058013916,0.04794472083449364,0.3402615487575531,-0.17380841076374054,0.20006902515888214,0.27581608295440674,-0.7232672572135925,-0.28112637996673584,-0.05714535713195801,0.49029457569122314,0.5199279189109802,-0.012899449095129967,-0.20500612258911133,0,train
TCGA-DX-A1L4-01A,-0.42137953639030457,-0.016699830070137978,0.08784691244363785,0.4448956847190857,0.3264668583869934,-0.24119120836257935,0.064053013920784,0.16994228959083557,-0.06610987335443497,-0.023312782868742943,-0.31344014406204224,0.20568203926086426,-0.11265198141336441,0.014818945899605751,0.4083593487739563,0,train
TCGA-K1-A3PO-01A,-0.21577487885951996,0.3182973861694336,0.1360655128955841,0.5488063097000122,0.14203707873821259,-0.23353537917137146,0.14650122821331024,0.4149334132671356,0.17124611139297485,0.025237172842025757,0.03627575933933258,0.15999984741210938,-0.16313736140727997,-0.043009400367736816,-0.002717731986194849,1,train
TCGA-DX-A1KX-01A,0.31402990221977234,-0.5473470091819763,-0.6123100519180298,0.5055413842201233,0.6624217629432678,0.016255050897598267,0.2882891893386841,0.5200088620185852,0.1799725443124771,-0.07309108972549438,0.0027010180056095123,0.35294559597969055,0.304735004901886,-0.012928801588714123,0.15985748171806335,0,train
TCGA-IW-A3M6-01A,0.026584945619106293,-0.23891222476959229,0.7515560984611511,-0.12620115280151367,0.1962897628545761,0.5357093811035156,0.0010340837761759758,0.5056699514389038,0.037578992545604706,0.45064401626586914,0.01784771867096424,-0.30233603715896606,-0.19188706576824188,-0.47771739959716797,-0.09191673249006271,1,train
TCGA-HS-A5N8-01A,-0.4154343605041504,0.0072373454459011555,-0.42950454354286194,0.019219744950532913,0.20866134762763977,0.4487359821796417,0.23618245124816895,0.008447433821856976,0.14780443906784058,-0.10991273820400238,0.6322217583656311,0.29068201780319214,-0.026783732697367668,0.5030556917190552,-0.048248857259750366,1,train
TCGA-VT-AB3D-01A,-0.10899226367473602,0.4323955476284027,1.965336561203003,0.4824512004852295,-0.6472835540771484,-0.36797988414764404,0.3155132234096527,0.5323384404182434,-1.6188653707504272,0.19664788246154785,0.10102381557226181,0.17752563953399658,-0.14147812128067017,-0.15351691842079163,0.5118824243545532,2,train
TCGA-SG-A849-01A,0.16889074444770813,0.3464582860469818,-0.10726438462734222,0.13831734657287598,-0.2893539369106293,-0.093740314245224,0.5547105669975281,-0.08597660809755325,-0.6452982425689697,0.11342521756887436,-0.16705670952796936,-0.2609241008758545,-0.2831368148326874,0.30034154653549194,0.7640796303749084,2,train
TCGA-WK-A8XO-01A,-0.09552547335624695,-0.14831165969371796,0.8128014206886292,-0.23768210411071777,0.26465776562690735,0.40544769167900085,0.9455618262290955,0.18004857003688812,0.5347915291786194,0.056875500828027725,-0.26108208298683167,0.259355753660202,0.12290065735578537,0.2539966404438019,0.20814530551433563,0,train
TCGA-K1-A42X-02A,-0.2986232340335846,0.7116245031356812,-0.006972508504986763,0.27544596791267395,0.06567484140396118,1.2624201774597168,-0.5675133466720581,0.2803679406642914,0.29949551820755005,0.40811872482299805,-0.3365093171596527,0.3094455301761627,-0.5886927843093872,-0.2565189003944397,-0.8130022287368774,1,train
TCGA-FX-A3NJ-01A,-0.18898345530033112,-0.04119233787059784,0.39937952160835266,0.690824568271637,-0.2100372314453125,-0.6177896857261658,0.05538218840956688,-0.04277363047003746,0.5429039001464844,-0.4251590967178345,-0.014395859092473984,-0.21668823063373566,0.17048008739948273,-0.32121542096138,-0.5000890493392944,1,train
TCGA-DX-A3LS-01A,-0.047666002064943314,0.08092506229877472,0.40574488043785095,-0.007869980297982693,0.514679491519928,0.32495585083961487,0.26105883717536926,0.46551933884620667,0.08322485536336899,0.031291328370571136,-0.0974026769399643,-0.13529710471630096,0.20538032054901123,0.16569653153419495,0.13344290852546692,0,train
TCGA-DX-AB2H-01A,-0.25266167521476746,0.32222750782966614,0.2789839208126068,-0.36783793568611145,0.40693196654319763,0.09163080155849457,-0.12964189052581787,0.14305590093135834,-0.42802029848098755,-0.1373300850391388,0.9170069694519043,0.3880752623081207,0.18544518947601318,0.018602730706334114,-0.4164038300514221,0,train
TCGA-DX-A48L-01A,0.46053221821784973,-0.19103990495204926,-0.07086250185966492,-0.27371951937675476,-0.35049471259117126,-0.0809636116027832,-0.13126955926418304,-0.33323121070861816,0.5072303414344788,-0.029043998569250107,0.19582942128181458,-0.8211046457290649,0.3514840602874756,-0.12801262736320496,-0.21019232273101807,1,train
TCGA-DX-A7EN-01A,-0.16557301580905914,0.1216655969619751,-0.06255566328763962,-0.04922890663146973,-0.7523810863494873,-0.1335342824459076,-0.9318947196006775,-0.42828285694122314,0.032156266272068024,0.6414088606834412,0.07885202765464783,-0.4652363359928131,0.5554783344268799,0.6209197640419006,-0.4873499870300293,1,train
TCGA-DX-A3LU-01A,-0.3815915584564209,0.05611320212483406,0.10219626873731613,0.19776208698749542,0.4313894212245941,-0.2937568128108978,0.08239196985960007,0.17892755568027496,-0.16117431223392487,-0.051533546298742294,-0.5134406089782715,0.2754945755004883,-0.024295583367347717,-0.018868358805775642,0.3147672116756439,0,train
TCGA-DX-A48R-01A,0.12659475207328796,-0.5836118459701538,0.6232767701148987,-0.4261195957660675,-0.722936749458313,-0.4395797848701477,-0.4022859036922455,-0.20379430055618286,0.5144895911216736,0.26572346687316895,0.05649414658546448,0.06263090670108795,-0.1766560673713684,-0.31061649322509766,-0.609438955783844,1,train
TCGA-FX-A76Y-01A,-0.3232114613056183,0.3293844759464264,0.4146759510040283,0.6746435761451721,0.021981041878461838,0.6958149671554565,-0.11171257495880127,-0.44742870330810547,0.44002974033355713,-0.4055860936641693,-0.19088709354400635,-0.43721669912338257,-0.09101582318544388,0.018983714282512665,-0.5390579700469971,1,train
TCGA-IE-A4EK-01A,-0.30736732482910156,-0.39627963304519653,0.3150472342967987,0.10727071017026901,-0.23581211268901825,-0.7044641375541687,-0.28369763493537903,-0.18536439538002014,0.6101635694503784,0.06614796072244644,-0.3393579125404358,-0.06728231906890869,0.1784682720899582,-0.39855313301086426,-0.7571927309036255,1,train
TCGA-JV-A5VE-01A,-0.17367933690547943,0.18834228813648224,0.4615972936153412,0.17293700575828552,-0.42442670464515686,0.6917279958724976,0.40020236372947693,-0.2499929815530777,0.002932505216449499,-0.21033598482608795,-0.08100561052560806,0.33706560730934143,-0.12350865453481674,-0.5683057904243469,-0.16679465770721436,1,train
TCGA-HB-A2OT-01A,-0.07773814350366592,-0.30186787247657776,0.4533451497554779,0.4740653932094574,0.19235984981060028,0.39924830198287964,0.28877002000808716,-0.7433891892433167,-0.4512183368206024,-0.24765828251838684,0.1238543838262558,-0.5120851993560791,0.13188330829143524,0.08341772854328156,0.5037669539451599,2,train
TCGA-3B-A9HJ-01A,-0.13682176172733307,0.4702284336090088,0.25792020559310913,0.31469401717185974,0.10016272217035294,-0.2018209546804428,0.3748038411140442,0.7413522601127625,0.15645413100719452,0.029547851532697678,-0.292863667011261,0.22135984897613525,-0.22571124136447906,-0.1678561419248581,0.5555177330970764,0,train
TCGA-DX-A6B9-01A,0.4590059816837311,0.5691355466842651,0.3388262093067169,0.611706018447876,0.2477065771818161,0.18222756683826447,0.018358653411269188,-0.43852895498275757,0.15718930959701538,-0.11736734956502914,-0.19884352385997772,0.2347124069929123,0.1509115844964981,-0.5200482606887817,-0.5556592345237732,1,train
TCGA-IE-A3OV-01A,-0.18781952559947968,0.503180742263794,-0.50868159532547,-0.24180267751216888,-0.793612539768219,-0.4277368485927582,0.27851632237434387,0.3094101846218109,0.15995393693447113,-0.10993567854166031,-0.0697161853313446,-0.5208601951599121,-0.02166006900370121,0.1705957055091858,-0.03194917365908623,1,train
TCGA-QQ-A5VC-01A,0.2879779040813446,-0.48833709955215454,0.056512054055929184,0.1766175627708435,0.02647988870739937,0.3195020258426666,-0.1918141394853592,-0.9788435697555542,0.06121276319026947,-0.011923717334866524,0.15032429993152618,-0.24388152360916138,0.01460674311965704,0.7816816568374634,0.6520106792449951,1,train
TCGA-K1-A42X-01A,-0.27745625376701355,0.7139179110527039,-0.02480233833193779,0.2857661247253418,0.03732071444392204,1.2676494121551514,-0.587490439414978,0.2596905529499054,0.32253193855285645,0.41214898228645325,-0.26662003993988037,0.29627853631973267,-0.6035577058792114,-0.24428021907806396,-0.868747353553772,1,train
TCGA-DX-A3U9-01A,-0.2891765534877777,-0.4576261341571808,0.3333958387374878,0.052191976457834244,-0.7003701329231262,-0.4301930069923401,-0.45891544222831726,-0.5516588091850281,0.177003875374794,-0.1879895031452179,0.271881639957428,-0.0324716754257679,-0.05195201188325882,-0.15673139691352844,-0.18990452587604523,1,train
TCGA-HB-A5W3-01A,-0.09367501735687256,0.40635961294174194,0.5418701767921448,-0.3918687701225281,-0.2152184695005417,0.23436106741428375,0.04795432463288307,-0.12488225102424622,0.7610605359077454,0.35021552443504333,-0.30070698261260986,-0.5413917303085327,0.21586725115776062,-0.1612677127122879,-0.3361108601093292,1,train
TCGA-IW-A3M4-01A,-0.3088999092578888,0.4068937599658966,0.21010562777519226,0.18061143159866333,0.39590826630592346,0.9602654576301575,-0.5378670692443848,0.2531638741493225,0.27743348479270935,0.49873435497283936,-0.2521001100540161,-0.11362586170434952,-0.28667694330215454,0.13609451055526733,-0.6900959014892578,1,train
TCGA-3B-A9I0-01A,-0.10229671746492386,0.6259613633155823,0.21343398094177246,-0.22061742842197418,-0.5780820250511169,-0.553981363773346,0.16766707599163055,-0.38046732544898987,0.5156054496765137,-0.2024446576833725,-0.41361841559410095,-0.5432020425796509,0.04176545888185501,-0.10256210714578629,-0.10704808682203293,1,train
TCGA-DX-A3UC-01A,0.5595285296440125,-0.2774358093738556,0.4067702293395996,0.06982998549938202,-0.30389657616615295,-0.04804398864507675,-0.14547792077064514,0.31881067156791687,0.7549414038658142,0.605743944644928,0.09086552262306213,-0.6078169941902161,0.3368469774723053,-0.3658352196216583,-0.43014398217201233,1,train
TCGA-FX-A2QS-01A,0.12251777201890945,0.5167158842086792,-0.6997694969177246,-1.0571085214614868,0.23036062717437744,0.05472792685031891,0.34769541025161743,0.2788557708263397,-0.2552298307418823,-0.3357366919517517,0.3195972442626953,0.1973547488451004,-0.06474404036998749,0.17283903062343597,-0.044000718742609024,0,train
TCGA-DX-A3LY-01B,0.21053321659564972,-0.29782411456108093,-0.42013829946517944,-0.3111599385738373,0.44952648878097534,-0.30108869075775146,0.2697923481464386,0.7101354598999023,-0.3626936376094818,-0.12890112400054932,-0.2937481105327606,0.2579793632030487,-0.1546734720468521,0.4301939010620117,-0.10919806361198425,0,train
TCGA-DX-A1KU-01A,0.05693195387721062,-0.36847350001335144,-0.3140336573123932,0.07264067232608795,0.3360816538333893,-0.31470298767089844,0.05706058815121651,0.6046044230461121,0.04901660978794098,-0.044297438114881516,0.15635430812835693,0.3375011384487152,-0.1830577701330185,0.4888294041156769,0.11984292417764664,0,train
TCGA-X6-A8C5-01A,0.018116064369678497,0.42964574694633484,0.42892733216285706,0.018404394388198853,-0.5057961344718933,-0.10816068202257156,0.049980323761701584,-0.1453288048505783,0.7776793241500854,0.2815988063812256,-0.19473618268966675,0.2972647547721863,0.4862764775753021,-0.6221600770950317,-0.005402757786214352,1,train
TCGA-IF-A4AJ-01A,0.720359742641449,0.3583000600337982,-0.41259652376174927,-0.305307000875473,-0.6449354290962219,-0.42779725790023804,0.7270860075950623,-0.04956996440887451,0.47257035970687866,-0.0674649253487587,0.05972060561180115,-0.36632147431373596,-0.3531409800052643,-0.636734664440155,-0.10695219039916992,1,train
TCGA-PC-A5DO-01A,0.48552337288856506,0.0733039379119873,0.5798912644386292,-0.4698978066444397,-0.332008421421051,0.034769970923662186,0.5215336680412292,0.29802411794662476,0.06754183769226074,0.21887798607349396,0.0012085988419130445,-0.7807897925376892,0.22090399265289307,-0.19947995245456696,-0.32898086309432983,1,train
TCGA-DX-A3M2-01A,0.18141448497772217,-0.4513803720474243,-0.47350847721099854,0.3558514714241028,0.38944926857948303,-0.24124976992607117,0.16980479657649994,0.47303807735443115,-0.5888513922691345,0.320756196975708,-0.39709824323654175,0.11134126037359238,-0.12803521752357483,0.18543721735477448,0.3877306282520294,0,train
TCGA-DX-A6BH-01A,-0.30131441354751587,0.06666627526283264,0.01671777479350567,-0.09574521332979202,0.3873653709888458,-0.43181371688842773,-0.027055691927671432,0.05068086087703705,-0.11018478125333786,-0.05483230948448181,-0.08068998903036118,0.18213090300559998,-0.013695248402655125,0.05798875540494919,0.011493171565234661,0,train
TCGA-DX-A8BK-01A,0.32191234827041626,0.027637507766485214,-0.8292261362075806,0.48207128047943115,-0.027461618185043335,0.1438433974981308,-0.32794925570487976,0.1732712984085083,-0.7952665686607361,-0.2971469759941101,-0.15802249312400818,0.16256585717201233,0.281141459941864,0.1970629245042801,0.5947684645652771,2,train
TCGA-QQ-A5V9-01A,0.2906912863254547,0.07808759808540344,-0.5316400527954102,0.29565489292144775,0.31450799107551575,-0.38359397649765015,0.3060056269168854,0.06032388657331467,-0.26420697569847107,-0.19105325639247894,-0.11086827516555786,-0.11052708327770233,-0.17816096544265747,-0.004746932536363602,0.40596044063568115,2,train
TCGA-PC-A5DN-01A,-0.0493958443403244,0.4714773893356323,0.09728074818849564,-0.1943516582250595,0.28862467408180237,0.21986311674118042,0.10536456108093262,0.39154666662216187,0.07417698204517365,-0.083165742456913,0.46591606736183167,0.2472730427980423,0.21448799967765808,-0.10812648385763168,-0.16155564785003662,1,train
TCGA-DX-A6BB-01A,-0.25548699498176575,-0.0017828012350946665,-0.25300920009613037,0.20041684806346893,-0.2860738933086395,-0.6474709510803223,-0.08338381350040436,-0.5253925919532776,0.24726562201976776,0.5972910523414612,-0.2938261926174164,0.13158659636974335,0.09808334708213806,-0.6835610270500183,-0.46630001068115234,1,train
TCGA-3B-A9HR-01A,0.5322290062904358,-0.5585790276527405,-0.211661234498024,0.06114834547042847,-0.6689864993095398,-0.16615715622901917,0.29000887274742126,-0.21507132053375244,0.2889920771121979,-0.20738573372364044,0.22840797901153564,-0.3485559821128845,0.42463651299476624,-0.32554471492767334,-0.48437902331352234,1,train
TCGA-WK-A8XX-01A,0.02135358192026615,0.020250238478183746,-0.3406059443950653,-0.2865321636199951,-0.8276241421699524,-0.45160290598869324,0.030621377751231194,0.999906599521637,-0.3378341794013977,0.03105091117322445,-0.16404862701892853,-0.04019717499613762,-0.06309191882610321,0.2363690584897995,-0.4525474011898041,1,train
TCGA-FX-A48G-01A,-0.3577808439731598,0.09268930554389954,0.208688423037529,0.3951795697212219,0.49927768111228943,0.8000156879425049,-0.632377564907074,-0.1359390914440155,0.08890721201896667,0.2480476349592209,-0.39738237857818604,-0.37720945477485657,-0.35315820574760437,-0.36483654379844666,-0.2829641103744507,1,train
TCGA-QQ-A5VA-01A,0.5396254062652588,0.24357467889785767,0.428839772939682,0.1038474589586258,0.22174853086471558,0.2938336133956909,0.4317811131477356,1.3073583841323853,0.3068212568759918,0.22845856845378876,0.38422197103500366,-0.23717571794986725,0.018347036093473434,-0.1144876480102539,0.382804274559021,0,train
TCGA-DX-A1L1-01A,0.17930857837200165,-0.3262033760547638,0.8822093605995178,-0.18957585096359253,0.2634677588939667,-0.16329006850719452,0.752922534942627,0.9131082892417908,-0.06437735259532928,0.2766250669956207,-0.12141484022140503,0.09784776717424393,-0.3093191385269165,0.07746156305074692,0.3184455633163452,0,train
TCGA-DX-A2J0-01A,-0.12063691765069962,0.7864016890525818,0.22007092833518982,-0.21365053951740265,0.546428382396698,0.10674992203712463,-0.299032062292099,0.23976196348667145,-0.03328564390540123,-0.13276466727256775,0.26986849308013916,-0.34308868646621704,0.310651034116745,0.3309597969055176,0.1278824657201767,0,train
TCGA-FX-A3NK-01A,-0.2106630504131317,0.3608086109161377,0.1315787434577942,0.0527680367231369,0.3632093369960785,-0.427946001291275,0.10377033799886703,0.34733903408050537,0.009632156230509281,-0.06436547636985779,0.11139698326587677,0.20617222785949707,-0.05837411805987358,-0.04152538627386093,0.022015327587723732,0,train
TCGA-PC-A5DL-01A,0.12314996123313904,0.11262434720993042,-0.32056429982185364,0.5264678001403809,-0.4961647093296051,-0.5894370675086975,0.275844931602478,0.30365148186683655,0.5921894311904907,0.10110767930746078,-0.07082973420619965,0.16956034302711487,0.06936764717102051,-0.142091765999794,-0.4898991584777832,1,train
TCGA-DX-A3UA-01A,-0.647588312625885,0.1260267049074173,-0.2208981215953827,-0.26884692907333374,0.2429448962211609,0.18047131597995758,-0.19249661266803741,-0.6126874089241028,-0.03566805645823479,0.44299960136413574,0.4988603889942169,-0.22951368987560272,0.10465387254953384,-0.47745755314826965,0.47825154662132263,1,train
TCGA-DX-A8BL-01A,0.7036049365997314,-0.23967976868152618,-0.1940748244524002,0.48890379071235657,-0.08690115064382553,-0.4304368197917938,-0.10838574171066284,0.45215076208114624,-0.20681942999362946,-0.22026999294757843,0.0681501254439354,0.2730156481266022,-0.13775137066841125,0.698703408241272,0.7074892520904541,2,train
TCGA-3B-A9HT-01A,0.1345238983631134,0.19251380860805511,-0.37927544116973877,0.30355405807495117,-0.12045617401599884,-0.08619482815265656,0.29709145426750183,0.7387974858283997,0.16380637884140015,-0.03656801953911781,-0.1344100832939148,0.3353120684623718,-0.37035465240478516,0.036735650151968,0.5549864768981934,1,train
TCGA-X6-A8C2-01A,0.2832590341567993,-0.2872766852378845,-0.31003838777542114,0.08311433345079422,-0.3867662250995636,-0.21179580688476562,-0.6937892436981201,-0.20537109673023224,-0.8242282867431641,-0.8632281422615051,0.3215666115283966,0.07040169090032578,-0.26773765683174133,0.2631710469722748,0.49267587065696716,2,train
TCGA-DX-A3LT-01A,-0.6337541341781616,0.09238999336957932,0.44715338945388794,-0.10108118504285812,0.44408705830574036,-0.26151180267333984,-0.48228585720062256,-0.39715057611465454,0.11807238310575485,-0.40356817841529846,-0.16714073717594147,-0.23551978170871735,-0.06898541748523712,0.7075587511062622,0.5525228381156921,0,train
TCGA-DX-A7EI-01A,0.23576049506664276,0.3327835500240326,-0.12412934005260468,-0.1203087866306305,0.18559110164642334,0.2559589147567749,0.30234208703041077,0.6985208988189697,0.3177277743816376,-0.3611029088497162,0.6744016408920288,0.7490884065628052,0.03257666528224945,-0.04236984625458717,-0.2444850504398346,0,train
TCGA-IE-A6BZ-01A,0.3865179121494293,-0.733575701713562,-0.4758016765117645,0.3822825849056244,0.38787975907325745,0.015845173969864845,-0.154978409409523,-0.2772611975669861,-0.5435124635696411,0.23027750849723816,0.15137778222560883,-0.31663572788238525,0.32224875688552856,0.2247508317232132,0.23762379586696625,2,train
TCGA-WK-A8XY-01A,0.2208937108516693,-0.39963626861572266,0.6617813110351562,-0.7945338487625122,-0.16976004838943481,0.11320069432258606,-0.05543927103281021,0.11927083134651184,0.8048759698867798,0.1429499387741089,-0.12325053662061691,-0.538662314414978,0.20049387216567993,-0.17701968550682068,-0.6459569334983826,1,train
TCGA-MO-A47R-01A,0.47613823413848877,0.16672545671463013,-0.6658156514167786,-0.570142388343811,0.36402738094329834,0.16158153116703033,-0.08990627527236938,0.02554810419678688,0.14973244071006775,0.28594642877578735,0.4897625148296356,0.0710393413901329,-0.23617474734783173,-0.20789048075675964,-0.026574596762657166,1,train
TCGA-KF-A41W-01A,0.1204649955034256,0.16365130245685577,-0.2682839035987854,0.13127382099628448,-0.2750469446182251,0.5706740021705627,0.5416926741600037,-0.13423699140548706,-0.6404321789741516,0.08386493474245071,0.413041353225708,-0.29375988245010376,-0.1400141417980194,0.2447979897260666,0.158622607588768,1,train
TCGA-DX-A48J-01A,-0.08452297747135162,-0.0937647670507431,0.15310660004615784,0.6044755578041077,-0.11022818088531494,-0.6153109669685364,-0.1848018616437912,0.2471827268600464,0.4800182580947876,0.46165189146995544,-0.022335806861519814,-0.30699315667152405,0.09675692766904831,-0.5280942320823669,-0.5371413826942444,1,train
TCGA-DX-A8BZ-01A,-0.5212361812591553,-0.5162405967712402,0.19441446661949158,-0.00306282052770257,0.21334709227085114,0.3119179904460907,-0.16516081988811493,-0.7087344527244568,-0.08674684166908264,-0.6419050693511963,-0.44596728682518005,0.27558237314224243,0.3233011066913605,0.459788978099823,0.5279869437217712,1,train
TCGA-DX-A1KW-01A,0.10302968323230743,0.13137945532798767,-0.726055383682251,-0.41956737637519836,0.7166181206703186,-0.43762466311454773,0.15689745545387268,0.04912039265036583,-0.22342516481876373,0.023451317101716995,-0.05821838229894638,0.2778170704841614,-0.1369432806968689,0.17011027038097382,-0.2593565881252289,0,train
TCGA-FX-A3RE-01A,0.18100427091121674,0.09481550008058548,0.1460360735654831,-0.18402846157550812,0.5991188287734985,0.5049956440925598,0.016751321032643318,-0.21023033559322357,0.10210813581943512,0.7086108922958374,0.3636656403541565,-0.3259599208831787,-0.10173813998699188,-0.489221453666687,-0.23574838042259216,1,train
TCGA-DX-A3U5-01A,-0.36717984080314636,-0.1433810144662857,0.08761712908744812,-0.2550595998764038,0.35830292105674744,-0.40376096963882446,-0.19387926161289215,0.2535231113433838,-0.6700475811958313,0.39807605743408203,-0.31729599833488464,0.22161318361759186,-0.0005121834692545235,-0.055282093584537506,0.02030477486550808,0,train
TCGA-DX-A8BM-01A,-0.18609946966171265,0.04311836510896683,-0.7531814575195312,0.5528717637062073,0.08258150517940521,-0.4731309413909912,-0.19796153903007507,-0.3480064868927002,-0.5111988186836243,0.05579566955566406,0.2505967915058136,0.5833971500396729,0.07910086214542389,0.8126161098480225,0.011728807352483273,2,train
TCGA-QQ-A5VB-01A,0.45769959688186646,-0.2301989048719406,-0.5435729026794434,-0.05554957315325737,-0.2298358976840973,0.304804265499115,0.45390552282333374,-0.14990094304084778,-0.05015139281749725,-0.3502369225025177,0.05495854839682579,0.0659642368555069,-0.01574287749826908,0.01609785109758377,0.8150468468666077,1,train
TCGA-X6-A7WB-01A,0.2093481719493866,-0.17734579741954803,0.48427045345306396,-0.18954548239707947,-0.11501260846853256,0.3845447301864624,0.04378098249435425,0.07923483103513718,-0.05582408979535103,-0.12378901988267899,0.013617360964417458,-0.4576716721057892,-0.46373245120048523,-0.26225411891937256,-0.7886192798614502,1,train
TCGA-SI-AA8B-01A,-0.10060157626867294,-0.1493658572435379,-0.6103321313858032,-0.10155241936445236,-0.3384215831756592,0.21615715324878693,-0.5743672847747803,-0.954412043094635,-0.3634376525878906,-0.6269508004188538,0.19805961847305298,0.1897265613079071,0.06217261403799057,0.31644701957702637,0.6424345970153809,2,train
TCGA-KD-A5QS-01A,0.3027493357658386,-0.2982082664966583,-0.6640471816062927,0.1049729734659195,-0.22887390851974487,0.32532522082328796,-0.8816980123519897,-0.277411550283432,-0.3159542977809906,0.11766228079795837,0.16368237137794495,0.23317642509937286,0.0009920598240569234,0.003512090304866433,0.29529333114624023,1,train
TCGA-DX-A240-01A,-0.3926509618759155,-0.1800329089164734,-0.09363138675689697,0.05527764558792114,0.3716453015804291,-0.004252726677805185,-0.1705031394958496,-0.24878142774105072,-0.1499602347612381,-0.04104383662343025,-0.17312757670879364,0.2096731811761856,-0.20662115514278412,0.11816351115703583,-0.1379408836364746,0,train
TCGA-DX-A23T-01A,-0.027240177616477013,0.37651464343070984,0.00432132463902235,0.5327492952346802,0.18352289497852325,0.24024443328380585,0.5073909759521484,0.10074843466281891,-0.34044256806373596,-0.8654385805130005,-0.35371866822242737,-0.016614627093076706,0.31505534052848816,0.18700632452964783,0.369731068611145,0,train
TCGA-K1-A42W-01A,0.1668727695941925,-0.1395152360200882,0.05003691092133522,-0.15908381342887878,-0.1889391988515854,-0.05056679993867874,0.37864845991134644,0.42733651399612427,0.28079554438591003,0.1895853728055954,-0.16939595341682434,0.08206652104854584,0.37889036536216736,-0.04159396141767502,-0.502113938331604,1,train
TCGA-DX-A3UB-01A,-0.28125619888305664,-0.0423283688724041,-0.028689473867416382,0.10972444713115692,0.21548917889595032,-0.13453730940818787,-0.0023831133730709553,0.02449752949178219,-0.018339727073907852,0.010881893336772919,-0.36077776551246643,0.14980320632457733,-0.2478390634059906,0.06271085888147354,-0.371330201625824,1,train
TCGA-PC-A5DK-01A,-0.14757010340690613,0.892332911491394,0.06384709477424622,0.38302329182624817,-0.2813609540462494,-0.5276175737380981,0.01479013729840517,0.1518447995185852,0.4707878828048706,0.6001231670379639,-0.17320333421230316,-0.40161940455436707,0.0702575147151947,-0.5161181092262268,-0.2484736293554306,1,train
TCGA-X6-A7WD-01A,-0.1671033650636673,0.32473981380462646,0.40087369084358215,-0.7703531384468079,-0.7495040893554688,0.0166001133620739,-0.395559161901474,-0.35932657122612,0.3102916479110718,0.28903287649154663,-0.032779794186353683,-0.2676291763782501,0.16559989750385284,-0.20286233723163605,-0.15862460434436798,1,train
TCGA-DX-A3M1-01A,0.20187260210514069,-0.27907636761665344,-0.34425169229507446,0.027471141889691353,0.3772555887699127,-0.4954211413860321,-0.0930466428399086,0.4549500644207001,-0.3892109990119934,-0.23643486201763153,0.5927058458328247,0.1784244030714035,0.007124460767954588,0.5353771448135376,0.040371716022491455,0,train
TCGA-DX-AB36-01A,-0.44509655237197876,-0.25336170196533203,-0.10483381897211075,0.23368597030639648,0.31006935238838196,-0.26148515939712524,-0.24287277460098267,-0.3352324366569519,-0.12635786831378937,-0.024293843656778336,-0.05020613595843315,0.13910669088363647,-0.13374538719654083,0.19698962569236755,0.12823155522346497,0,train
TCGA-DX-A1L3-01A,-0.2677617073059082,-0.024101659655570984,0.07130084931850433,-0.11106714606285095,0.3844176232814789,0.18478192389011383,0.04367690905928612,0.09400764107704163,-0.17538440227508545,-0.03395003825426102,-0.4312710165977478,0.23886951804161072,0.3740503489971161,0.004957178141921759,0.29997509717941284,0,train
TCGA-WK-A8Y0-01A,0.43608251214027405,-0.13697244226932526,-0.5710363388061523,-0.0028394944965839386,-0.37128880620002747,0.2390483319759369,-0.3416530191898346,0.5312370657920837,-0.3821241557598114,-0.4992194175720215,0.10678931325674057,0.02276722341775894,0.08252403140068054,-0.21550323069095612,0.716008722782135,2,train
TCGA-K1-A3PN-02A,0.08726338297128677,0.20686276257038116,0.20943666994571686,-0.6114712953567505,-0.48485681414604187,0.08808862417936325,-0.3720514476299286,-0.3293747901916504,0.4810585677623749,-0.39424988627433777,-0.26302623748779297,-0.7705571055412292,0.27538371086120605,0.03459293022751808,-0.3897158205509186,1,train
TCGA-DX-A6B8-01A,-0.2738302946090698,-0.5718173384666443,0.09849832952022552,0.26383113861083984,-0.0060518644750118256,-0.22814729809761047,-0.36855319142341614,-1.3596141338348389,-0.4489981532096863,0.05246993154287338,0.44912126660346985,-0.34818172454833984,-0.186609148979187,0.08919842541217804,0.5630452632904053,1,train
TCGA-JV-A75J-01A,-0.9120169878005981,0.3214034140110016,0.005211884621530771,-0.5326923727989197,0.47670650482177734,0.4482816457748413,0.4240192174911499,-0.6125063300132751,-0.015892857685685158,-0.5427874326705933,0.9918528199195862,0.022282451391220093,-0.01647457666695118,-0.48273125290870667,-0.2754523754119873,1,train
TCGA-IS-A3K7-01A,-0.4518171548843384,-0.2286463975906372,0.5866847634315491,-0.17114095389842987,0.2347235232591629,0.5863834619522095,0.19457471370697021,-0.41911235451698303,0.39162448048591614,0.18956005573272705,-0.16947732865810394,0.3269079625606537,0.014729929156601429,-0.5070260763168335,0.49964144825935364,1,train
TCGA-K1-A6RV-01A,-0.06859572231769562,-0.5531522035598755,-0.8559317588806152,0.18257778882980347,-0.22033314406871796,-0.21611388027668,-0.4569004774093628,-0.5064606070518494,-0.5133400559425354,0.04909501224756241,0.09625019878149033,0.3908762037754059,-0.22804391384124756,0.19058555364608765,0.7057764530181885,1,train
TCGA-DX-A2J4-01A,-0.3495742976665497,0.2128385603427887,0.14611639082431793,0.46838057041168213,0.34438619017601013,-0.2849370837211609,0.1564437448978424,0.3371545374393463,-0.0191621296107769,-0.03681422770023346,-0.2840184271335602,0.2526363730430603,-0.07213781774044037,-0.0627598911523819,0.26030752062797546,0,train
TCGA-IW-A3M5-01A,-0.20420104265213013,-0.04235910624265671,-0.4446180462837219,0.09956149756908417,0.22334180772304535,0.3433961570262909,-0.04015598073601723,-0.32704490423202515,0.062220532447099686,-0.27569860219955444,0.6191218495368958,0.6607689261436462,0.07038024812936783,0.30231356620788574,0.07519928365945816,1,train
TCGA-DX-A7EL-01A,0.27373769879341125,0.5066806077957153,0.8594998121261597,-0.22522126138210297,-0.3504277765750885,0.08652463555335999,-0.17202456295490265,0.734027087688446,1.031666874885559,0.3662695586681366,-0.25561293959617615,0.1658470779657364,0.3189937174320221,0.12482892721891403,-0.017273705452680588,1,train
TCGA-HS-A5N7-01A,0.6068446040153503,0.340387225151062,0.327535480260849,-0.04575849324464798,-0.22370219230651855,0.025050397962331772,0.3349078297615051,-0.13572700321674347,0.4892064929008484,0.1913774609565735,0.21381665766239166,-0.7687187194824219,0.24893757700920105,-0.11948780715465546,-0.13392221927642822,1,train
TCGA-X9-A973-01A,-0.35907140374183655,-0.09539540857076645,-0.15948891639709473,-0.012702499516308308,0.2361905574798584,-0.405062735080719,0.10009929537773132,-0.012418017722666264,-0.1350770741701126,-0.07800479233264923,0.1107691302895546,0.7054314017295837,-0.11620175838470459,-0.2758907675743103,0.04790874198079109,2,train
TCGA-DX-AB37-01A,-0.0975956842303276,0.2823350429534912,-0.04878774285316467,0.18488925695419312,0.26171308755874634,0.12007077038288116,0.014955336228013039,0.20496900379657745,0.18004761636257172,-0.028439367190003395,-0.2359141707420349,0.21762590110301971,0.3324224352836609,-0.07092304527759552,0.6054149866104126,0,train
TCGA-DX-A7ES-01A,-0.10432957857847214,0.40642809867858887,0.20913384854793549,0.21026279032230377,0.19811274111270905,0.1806534230709076,0.2538553774356842,0.5783417820930481,0.08735877275466919,-0.01245558075606823,-0.1572319120168686,0.24030591547489166,0.29448601603507996,-0.1400124877691269,0.26869168877601624,0,train
TCGA-3B-A9HU-01A,0.18160012364387512,0.6648078560829163,0.4180683195590973,0.15641681849956512,-0.23086769878864288,0.058456357568502426,-0.1629265546798706,0.734417736530304,0.6259492635726929,0.42213672399520874,-0.11699943989515305,-0.8048508763313293,0.30281689763069153,-0.43965333700180054,0.062229204922914505,1,train
TCGA-Z4-AAPG-01A,0.15117982029914856,-0.5663632750511169,-0.4018784463405609,-0.6215272545814514,0.1251755803823471,0.24860475957393646,-0.005147933028638363,-0.4893956184387207,-0.10630350559949875,-0.5583827495574951,0.032493241131305695,-0.05179945379495621,-0.059142664074897766,0.31208983063697815,0.7213603854179382,2,train
TCGA-QC-A6FX-01A,0.4212668836116791,-0.14303630590438843,0.7212844491004944,0.08850406855344772,0.33836227655410767,-0.34355685114860535,0.13759034872055054,-0.6862366795539856,-0.3920517563819885,-0.19541271030902863,-0.3410431146621704,-0.310651570558548,-0.20608271658420563,0.048774510622024536,0.43574240803718567,2,train
TCGA-IE-A4EI-01A,0.4405577480792999,-0.17846371233463287,0.04129928722977638,-0.3648824393749237,-0.31546589732170105,-0.0034986117389053106,0.6569238305091858,-0.20815524458885193,0.34131693840026855,0.2398776113986969,-0.09811150282621384,-0.3665917217731476,0.2817688286304474,-0.4251462519168854,-0.6659976840019226,1,train
TCGA-3B-A9HV-01A,0.0035290035884827375,-0.07485133409500122,-0.019682440906763077,0.0649101659655571,-0.38401639461517334,0.8632974028587341,-0.35485711693763733,-0.7483879923820496,-0.15982449054718018,0.19063708186149597,0.44237643480300903,0.10678701102733612,-0.4328392744064331,-0.42255541682243347,-0.6054145693778992,1,train
TCGA-X9-A971-01A,0.44285526871681213,-0.10249680280685425,0.03045046515762806,-0.8969399333000183,-0.24639908969402313,-0.002307394752278924,-0.0030468644108623266,-0.06259018927812576,0.2436865270137787,-0.09408250451087952,0.06766913831233978,-0.6200768947601318,-0.07634451240301132,-0.306850403547287,-0.24984954297542572,1,train
TCGA-DX-A7ET-01A,0.5623632073402405,0.3277938961982727,0.5224997401237488,0.19345644116401672,-0.1071092039346695,-0.2530052959918976,-0.024055782705545425,-0.5525113344192505,-0.39631882309913635,-0.3302138149738312,-0.5165621042251587,0.4916234016418457,-0.2230536937713623,0.4205121397972107,0.6344196200370789,2,train
TCGA-3R-A8YX-01A,0.5587759613990784,-0.5691109299659729,-1.3947330713272095,-0.5784610509872437,0.1120557188987732,-0.17243586480617523,-0.0193407591432333,0.4088580012321472,-0.2046475112438202,-0.22356325387954712,-0.31303051114082336,0.4725075662136078,-0.36774736642837524,0.5996562242507935,0.34634989500045776,0,train
TCGA-LI-A9QH-01A,0.6223750114440918,0.010299649089574814,-1.0019456148147583,0.5253739356994629,0.12417285889387131,-0.3200583755970001,-0.6172328591346741,-0.8541874885559082,-0.5114220380783081,-0.14991016685962677,0.4131855368614197,0.1147368848323822,0.4355931580066681,0.07616148889064789,0.4612743556499481,2,train
TCGA-MB-A5Y8-01A,-0.2951594293117523,0.09204480051994324,0.3272460997104645,-0.22843113541603088,0.256732702255249,0.40491777658462524,-0.07998161762952805,-1.161292552947998,-0.02208523638546467,-0.6792487502098083,-0.23512613773345947,-0.6094858646392822,0.06817462295293808,0.3141833543777466,0.6627631187438965,2,train
TCGA-DX-A48P-01A,-0.3086360991001129,0.5413550138473511,0.22422604262828827,0.22259992361068726,-0.2856433093547821,-0.03775015100836754,-0.1380230337381363,-0.2672652304172516,0.5427160859107971,0.3485678732395172,-0.35296183824539185,-0.2509813606739044,0.5478003621101379,-0.38622695207595825,-0.2541053295135498,1,train
TCGA-IS-A3K6-01A,-0.22437191009521484,-0.1857331246137619,0.6733111143112183,-0.12829089164733887,-0.1919698864221573,0.641586184501648,0.16518592834472656,0.0324852280318737,-0.02444075234234333,-0.47694066166877747,-0.35870179533958435,0.1937362104654312,-0.18683287501335144,-0.4831095039844513,-0.3461717665195465,1,train
TCGA-DX-A8BX-01A,0.015432908199727535,-0.507402777671814,-0.2290559560060501,0.008803440257906914,0.5458425879478455,-0.502627432346344,0.09497737139463425,0.0025416186545044184,-0.3662708103656769,0.36184340715408325,0.11599912494421005,0.19485177099704742,-0.07453841716051102,-0.0827060267329216,0.15359508991241455,2,train
TCGA-3B-A9HY-01A,0.14945216476917267,0.033822525292634964,0.5460382699966431,0.07008425146341324,-0.35207852721214294,-0.2651269733905792,0.5204006433486938,-0.260151743888855,0.8011465072631836,-0.0706576332449913,0.28400203585624695,-0.5971537232398987,-0.2851002514362335,-0.008855290710926056,-0.26244357228279114,1,train
TCGA-DX-AB2X-01A,0.2907482087612152,-0.6029478907585144,-0.28313297033309937,-0.4117778539657593,0.33697739243507385,0.5368213653564453,0.10606908053159714,-0.22147750854492188,-0.0567345917224884,0.05323995649814606,-0.369579941034317,-0.2690638601779938,-0.02588551864027977,0.7920923829078674,0.322395384311676,2,train
TCGA-X6-A8C4-01A,0.4154231548309326,-0.08794450014829636,-1.0291707515716553,-0.4067748486995697,-0.03433678671717644,0.335456520318985,-0.4340421259403229,-1.1162450313568115,-0.14578448235988617,0.05766899138689041,-0.09878344088792801,-0.23645249009132385,-0.17198753356933594,0.8721839785575867,0.7599529027938843,2,train
TCGA-SG-A6Z4-01A,0.07091757655143738,-0.23089416325092316,-0.9048600792884827,0.46199992299079895,-0.29566437005996704,-0.41206875443458557,-0.5826556086540222,-0.2906597852706909,-0.5629824995994568,-0.4410814046859741,0.583444356918335,0.18392008543014526,-0.11439534276723862,-0.07843254506587982,0.5058822631835938,2,train
TCGA-DX-A2J1-01A,-0.4181695580482483,0.006147964857518673,0.08868285268545151,0.33625534176826477,0.3771258592605591,-0.2745317220687866,0.09733855724334717,0.15247909724712372,-0.12996365129947662,-0.036113861948251724,-0.48426705598831177,0.2518875300884247,-0.04916321486234665,-0.006934568285942078,0.36590930819511414,0,train
TCGA-DX-A23U-01A,-0.4373528063297272,-0.35673999786376953,-0.12018193304538727,0.24871841073036194,0.29018673300743103,-0.18796519935131073,-0.3980058431625366,-0.32784488797187805,-0.16206058859825134,-0.0699593797326088,-0.1484060138463974,0.1316549926996231,-0.10756052285432816,0.21689575910568237,0.26972588896751404,0,train
TCGA-DX-A48O-01A,-0.1382659375667572,-0.2510060667991638,0.52776038646698,-0.07747085392475128,-0.19716152548789978,0.04182729870080948,-0.08733325451612473,0.15769536793231964,0.7004245519638062,0.1470983475446701,-0.33163127303123474,-0.05281394347548485,0.41862326860427856,-0.5057462453842163,-0.5082244277000427,1,train
TCGA-DX-A7EF-01A,0.18373526632785797,-0.8927286863327026,-0.8042682409286499,-0.00144341797567904,-0.009397407062351704,0.1661495715379715,-0.3577609360218048,-0.037658728659152985,0.08499513566493988,-0.2016972303390503,0.22991006076335907,0.42617154121398926,0.13101685047149658,0.8528967499732971,0.4244043231010437,2,train
TCGA-X6-A7WA-01A,0.36807361245155334,0.07930584996938705,0.03148704394698143,-0.2565915584564209,-0.3589763641357422,-0.07599068433046341,0.12951745092868805,0.17980173230171204,0.27434390783309937,-0.052441198378801346,-0.07852346450090408,-0.5245937705039978,0.3246844410896301,-0.4707847833633423,-0.26024141907691956,1,train
TCGA-3B-A9HZ-01A,-0.06227833032608032,0.3277670443058014,0.5396830439567566,-0.1907230168581009,-0.3856894373893738,-0.3795902729034424,-0.15529130399227142,0.28772100806236267,0.7560611963272095,-0.006665317807346582,-0.29358598589897156,-0.7297573089599609,-0.1685696244239807,-0.14604038000106812,0.020688822492957115,1,train
TCGA-IE-A4EH-01A,-0.806324303150177,-0.32022625207901,0.34225836396217346,-0.08381219953298569,-0.3597742021083832,0.9133239388465881,-0.26783210039138794,-0.11479458212852478,0.07749020308256149,0.10072650760412216,-0.21136575937271118,-0.00039408617885783315,-0.1950349658727646,-0.42435789108276367,-0.5843223333358765,1,train
TCGA-QQ-A8VF-01A,-0.023756779730319977,-0.1996067315340042,0.13281919062137604,-0.12051814794540405,0.0020617498084902763,-0.1596536487340927,0.35639312863349915,0.36531758308410645,0.19583097100257874,0.14335408806800842,0.01664741151034832,0.21566003561019897,-0.3880443572998047,-0.03627068176865578,0.5108481049537659,1,train
TCGA-QQ-A5VD-01A,-0.2017241269350052,0.19907240569591522,0.42366600036621094,0.09958796948194504,-0.08062747865915298,-0.3161403238773346,0.5421286821365356,-0.2845420837402344,0.4562894403934479,-0.26517653465270996,0.010168034583330154,-0.00742335943505168,-0.19417281448841095,-0.3733064830303192,0.009370987303555012,1,train
TCGA-DX-A3UF-01A,0.24146921932697296,0.04592364653944969,0.6913945078849792,-0.570162296295166,-0.07993260771036148,0.19894346594810486,0.43357816338539124,0.3197215795516968,0.18710699677467346,0.7600326538085938,-0.013291855342686176,-0.4391155540943146,0.12563706934452057,-0.3922959268093109,-0.3940872550010681,1,train
TCGA-DX-AB2J-01A,-0.20537522435188293,0.3242192566394806,0.06800483167171478,-0.24862396717071533,0.599383533000946,0.38347843289375305,0.06658628582954407,0.2158653736114502,-0.10635437071323395,-0.15364989638328552,0.1968393325805664,0.38167309761047363,0.08810470253229141,-0.14120805263519287,-0.6517391204833984,2,train
TCGA-DX-A48K-01A,-0.1920255571603775,-0.3666364550590515,0.4133627712726593,0.07957915961742401,-0.010894495993852615,-0.17815649509429932,0.14538270235061646,-0.8770036101341248,0.4317380487918854,-0.1866491287946701,0.3240596055984497,-0.4009416997432709,-0.2575717866420746,0.11422418057918549,0.5560823082923889,1,train
TCGA-3B-A9HI-01A,0.18905900418758392,-0.16388116776943207,-0.16921678185462952,0.515991747379303,-0.12490023672580719,-0.5785251259803772,-0.07706357538700104,0.032285843044519424,-0.14403136074543,-0.4979833662509918,0.07641057670116425,0.7264309525489807,-0.019226474687457085,-0.5574615001678467,0.5173034071922302,0,train
TCGA-X6-A7WC-01A,781.2608656602101,-727.562791607333,-1061.4679447228293,-0.5214462768398391,167.69998258948536,-254.24094847057424,151.36074042586287,208.73262854134123,-404.6082191016748,-304.87175032176657,664.5378504522686,386.66181268513856,-415.85092004127756,526.2960530247777,1151.52972486456,1,test
TCGA-DX-A23R-01A,-479.1493045671835,209.92388823521432,317.15305459829284,396.37390381016,718.2514760822284,76.67222544252617,-492.0698969074537,-380.65832649384737,23.214347762629682,-175.3013154551039,1279.1817042770779,205.76516262981707,404.14018717260996,180.43549507160535,90.98535626892327,0,test
TCGA-DX-A23V-01A,-324.35934751821856,150.0579630053509,130.95338299756875,300.08182658275473,776.3168985148077,45.9581430660506,153.71285762175748,233.67533777869676,-162.45711978249247,-39.25047663918104,-466.7559198955061,190.3105599784797,513.6071151107299,-2.3551643322128086,167.52869528808046,0,test
TCGA-DX-A3U8-01A,-181.9476993825788,-133.82856063721871,-158.79666161406206,-102.09715775328827,113.61294265545739,-48.45412383891508,19.960143643959338,582.8194114622348,-21.686526004268313,-163.60957468885877,-395.7611341596451,172.37911686734276,-361.2929398950477,267.4985650884286,727.9588002802394,1,test
TCGA-DX-A1L0-01A,223.06052043632224,-95.84982991874797,-378.733184690092,-385.34769978384907,570.6514250641166,-410.12939812405983,-29.998465556192077,376.44873274185943,-586.7667168376598,-233.0304236025933,472.51183680105214,211.24708125752193,-246.50450711015478,345.68972488296134,-133.92580265245732,0,test
TCGA-DX-AATS-01A,858.5112394095121,-928.6846473128493,-1402.992319275947,500.1545309941964,505.3527395397964,-440.2760904845838,-272.085624546827,284.2542558851411,-214.44642419284068,-738.3073336758592,837.3950406061696,585.0814397695101,-240.185342436959,653.6042816757184,922.5448188899642,2,test
TCGA-MB-A8JK-01A,277.4035504577086,-413.48285152927764,-894.9489316377902,914.5820095610079,-25.7783593060314,-534.8065182855033,10.605006137310646,457.3620046608935,-150.80101048113121,-855.0617150611744,-8.93333063891267,451.29358461192857,-164.04769214934615,241.55693151475484,419.1636999503621,2,test
TCGA-DX-A3U6-01A,-336.2353369745712,391.39683661800467,332.748946620671,438.5364482828186,371.92280584677763,231.94528924780158,256.7970650179479,507.4375626481097,-92.72148484228796,-59.882086078986596,-589.2022721719271,165.77324954299442,308.55311395015855,19.558107672683906,841.0530570350321,0,test
TCGA-DX-A3UD-01A,797.3232653587935,-195.9320539639947,-1065.6794355222532,-258.13034659774615,-1214.1694117335062,-427.33791680520704,-153.43233984511622,820.3634635749686,-129.41610305400002,-324.0021186284016,-368.46705015259937,-46.433912375359604,-74.73606692027592,539.7467053107771,-767.3656329829431,1,test
TCGA-MB-A8JL-01A,-138.24565245401504,475.8037457235577,243.58991584047655,-1251.7120356685618,474.2298188756524,334.3154760331651,525.8684387925899,-184.13885768362562,39.405085249673235,271.74951153755245,448.22028759152994,91.05849449735956,-239.91507473519528,-114.60407036228953,18.12743150202988,1,test
TCGA-X2-A95T-01A,-541.0979794188737,322.25099967929384,482.9876287428221,596.5301292049961,-644.0233196149139,489.9734928886688,-245.4385806910951,-154.6053162676415,244.36406142669114,-101.77058961799491,-21.271928824486356,-184.46803006589755,-187.12099429730338,-202.37314045795935,-1158.3860725447755,1,test
TCGA-VT-A80J-01A,-804.2583060792713,379.2272025961342,1773.793939151183,-540.5806883629247,242.9920837868548,408.5050915747568,-69.01941326477828,-533.4565498123346,231.7602755195762,1158.3653936597368,-265.17333738451833,-606.9034743382612,90.82664405549588,-711.8264565959731,781.3676671304482,2,test
TCGA-JV-A5VF-01A,655.7591682648791,-626.1840216776327,-1021.5522293079366,-344.25384904242395,244.55814582903,553.1048433567706,-33.31230637274956,353.2240450742952,-546.5330226900065,-646.6559567665926,757.4698062843723,357.99073226357405,-208.95773865445315,420.8854004302623,341.6121168213768,1,test
TCGA-DX-A6B7-01A,-593.7292995181425,419.0204169237173,897.7779426450419,170.9269025886509,-460.0321729786263,-525.97917115583,-241.43430527383256,-664.0740403031028,705.3895679432662,637.7577032282529,-701.6694371030702,-493.1718802746943,150.49268243258777,-726.018170933636,-1150.2664020155369,1,test
TCGA-SG-A6Z7-01A,466.83660888894315,24.262515168253156,-1250.5659774964154,-334.6283256317546,514.5809067972423,269.31891160410976,269.3771781367089,555.7264263632502,10.16104741568042,-721.4703944121214,1582.4966164630598,744.7919359563094,-26.039066065971536,634.1061744720186,-319.09038358657455,0,test
TCGA-DX-A8BO-01A,-444.03474422912274,297.49659863356237,1149.124435089397,107.31006498810393,473.9106190096695,189.16553545843362,224.77402536012642,-656.4290464399522,-50.274495636384266,302.97176119739333,-623.1651655200345,-503.8108255824407,183.81516108388715,-191.3196317285125,738.4207787472791,2,test
TCGA-DX-A6BE-01A,-414.95195298517393,231.1039314257914,38.34476564612456,549.2032488534347,530.7973589511238,-409.1358436930021,279.2833609630032,387.0770615340566,-13.963891909677082,-72.7088242752554,-498.837199136425,198.3588402791038,-232.37866102857845,30.58567165815552,463.55170151712883,0,test
TCGA-HB-A43Z-01A,467.6763828195658,95.8303451224236,-426.83369006837,-773.0472413445959,-304.19603015028946,256.86351462153453,305.68877701597273,92.35761253889955,384.53021132617596,22.186247385894983,481.043266882406,-62.14808700346551,-386.8763306943097,-640.0517356791676,-1306.6086645151393,1,test
TCGA-DX-A48N-01A,773.487659375563,-286.10208968799975,-1886.3650415742284,-41.856280169220234,411.9117974837406,-605.2978793941694,193.77540989792763,967.1871488960725,-294.4966914038825,-688.8236598095253,403.3776457389929,1045.1250949557964,-252.6093043918554,573.7468996979494,-358.39306229080177,0,test
TCGA-MB-A5YA-01A,-404.59049573025504,232.04072820878582,646.977031455728,-92.93564674738222,-522.750278675856,-545.0516834563895,197.86533549517753,-564.3077928280471,452.1080519210768,120.84043515621126,-729.827640676377,-428.64368052921503,174.88942544340875,-409.41595644561386,-545.7331046761707,1,test
TCGA-DX-A6Z2-01A,-624.3005733554868,830.0484107884835,1054.6119365890463,117.65294105774313,-692.5884388132349,137.862111441346,-168.1512691872492,-453.1968751631416,697.7026947028238,421.64502902342383,-403.7825231770303,-763.8293130949351,625.678134872874,-568.0337563592826,-340.2167100886115,1,test
TCGA-DX-A3UE-01A,-74.18575007285483,-4.53841565479964,474.03950418797876,-485.674862005284,-805.9238991690264,-42.336734557323865,-66.22816778086401,-314.85643635561695,566.7709570347887,-22.304404675398683,-234.869564559696,-569.929542549498,632.1221182107192,-477.6111791873753,-949.1327820024871,1,test
TCGA-3B-A9I3-01A,-1324.047692472048,781.4852523015974,1999.411630560464,-72.05811805380667,-182.93459690267832,-72.79020850902272,-414.05092722945506,-556.3144212591191,885.3515500143013,1490.809036219246,60.11241621787631,-924.2252998438062,-274.3302014264387,-875.6274985423765,-390.9111420762358,1,test
TCGA-3B-A9HO-01A,628.2621907028685,-494.8710749613055,-1714.650497738901,354.5490128550032,499.43845374634657,-565.9426888922677,555.6946276844058,1303.599085146026,-416.63861004346217,-723.6164562907684,-867.1051530750398,1020.5582845387136,-204.20748926182873,616.170569105848,739.4443792577262,0,test
TCGA-DX-A23Y-01A,519.0411473867106,-291.1059263049768,-956.2198637203592,-398.33914193372283,234.79090558155266,-381.17308161554837,478.4878920540046,919.1284677669579,-521.510889128252,-264.5637217710384,-454.3833831737343,565.8873424865752,-333.90742621220994,413.91305769214387,525.6323789210636,0,test
TCGA-DX-A7EM-01A,482.7573780193891,241.9888805012047,-413.10900279726746,-437.49978217510625,-1098.3300683525595,-460.364258356525,311.7733201881567,437.4200678239085,488.0078046976517,-91.64980071854905,-49.122046645924264,-306.2384952964549,-148.8521571646273,53.05556041080913,-887.7933663378676,1,test
TCGA-DX-A6BA-01A,592.932727917932,95.85728753255948,-668.2126562366665,-915.8425147331203,-594.5173948831774,94.97048195255282,365.92529902514315,434.2814862432943,701.3065650968882,-12.849142798539267,-302.01559843911144,-148.50179194839743,352.2306804858512,-122.0779794606663,-1068.4193063208393,1,test
TCGA-DX-AB35-01A,357.24942221306156,-470.3227124501606,-984.1320623600012,981.5570053636233,667.4690128312171,-707.2122693764045,112.51945356555113,658.7510492232681,-743.9986350034811,-497.14805909024363,39.44978160227523,797.2346234757791,120.88805803866165,753.9048871506792,35.24331601727679,0,test
TCGA-VT-A80J-02A,470.53763959162114,-285.6918252821973,-91.297203143064,-941.9841639372686,195.0492528935982,287.1185501851682,691.7187595192203,-151.2730834691466,-187.08021036642435,242.00767070988323,-261.33952239476315,231.38923065653913,-44.45793720145357,205.36358174060481,850.2735698317242,2,test
TCGA-N1-A6IA-01A,661.1337165605628,-199.40916555589786,-797.3495922735937,-139.92175209823583,-164.19257223507213,551.0054066010697,199.5141226241775,26.328811907199526,-635.6712279960996,-265.8330184787926,318.60103366698644,287.05344805454297,-102.60705083783931,143.72364240733882,142.33541336124696,1,test
TCGA-WK-A8XS-01A,796.6873045558278,-255.09657516653684,-776.1674815108264,-465.55047827761314,-720.2272459800905,191.80366061845004,449.1529106219668,344.8383576918116,226.23613030526053,-133.9816455704285,277.6627091098618,166.36715470777236,174.4428559022159,36.09901023520276,-956.8603481516708,1,test
TCGA-Z4-A9VC-01A,-292.8375440748587,181.62057377688996,5.750844809239417,671.0104776178015,404.15719588982074,-379.0652928534426,-297.05466647885385,-54.13625578533394,-28.20893741335101,-47.644805843050584,668.123948642246,196.67427305104752,-161.96169638136752,90.2316574776158,106.86250053277995,0,test
TCGA-3B-A9HQ-01A,-341.3164824671879,905.9349495589249,1040.3643795112487,-40.97970727714195,-789.930602412719,152.5597921883106,102.43465320696497,-333.5290926732321,715.862230152586,260.72171527263464,-484.30695780004197,-982.2171915748519,597.5715569067721,-379.74129406912766,-552.8224142991511,1,test
TCGA-3B-A9I1-01A,506.6989031195364,-183.01638360059076,-633.2918622223945,-70.65718265584073,-490.38194313080504,620.8344207014735,149.10194992116132,663.0976717179395,-159.65503945854815,-227.92720991387225,-218.15244946789008,268.4249086167718,-170.7049759253291,155.83999099997808,-1166.348018316903,1,test
TCGA-DX-A8BN-01A,693.672047398124,-626.120356333592,-1621.4617307980568,997.5280462370187,341.60498171730325,-92.69692396732104,-222.71889855375693,597.137270685746,-783.9575636010645,-643.0248204232045,-51.89565519873781,1058.0538779218416,536.1051114559078,641.6428254231163,604.0381244809231,2,test
TCGA-MB-A5Y9-01A,-19.970251418254794,-126.3298793374236,164.92419145900962,183.8788193577127,607.4301419582067,-69.09779299505769,294.8157623597738,249.3564787321756,-356.2969959621771,-55.43414603480078,-839.286299789513,-199.30297683054368,-283.5959662818614,368.2687590528123,1156.1607377820658,2,test
TCGA-KD-A5QT-01A,-215.37313830315725,344.64604165628367,683.2061241081252,-407.30540807774975,-371.83047701455484,793.3182901446868,-30.16790060900284,-15.84972268361913,455.9219724333262,198.53159825876494,-279.34179531807473,-234.90273332674346,-242.71446835127145,-288.94720453598194,-1398.8362622726615,1,test
