,Factor_1,Factor_2,Factor_3,Factor_4,Factor_5,Factor_6,Factor_7,Factor_8,Factor_9,Factor_10,Factor_11,Factor_12,Factor_13,Factor_14,Factor_15,Label,Split
TCGA-FX-A2QS-01A,-0.96003145,-0.27682185,-0.25491118,-0.5720879,0.1108757,0.082409486,0.014675397,0.55304784,-0.2847253,-0.02626823,-0.31358954,0.9181773,0.018057315,-0.057091102,-0.18303272,0,train
TCGA-FX-A76Y-01A,-0.111179315,0.056348104,0.015787983,0.49606192,0.0167679,-0.3505796,0.36325705,-0.40039766,-0.028403107,0.3562134,-0.10198569,-0.8589527,0.057422705,-0.4492376,-0.21633632,1,train
TCGA-DX-A8BO-01A,-0.33360222,-0.24914874,-0.21375573,-0.15299441,-0.17272429,-0.061710175,-0.034231685,-0.6947961,0.42269468,-0.44386458,-0.3709083,-0.3735883,-0.299075,0.18689786,0.41840652,2,train
TCGA-DX-A48R-01A,0.97243756,-0.12367124,0.329451,-0.3332386,-0.29296577,0.42851096,0.08177076,-0.35245997,0.38690066,0.75714636,-0.16469319,0.22586691,-0.10903479,-0.46374652,-0.12251882,1,train
TCGA-DX-A6BB-01A,0.6262356,0.43638656,0.18012138,-0.15719134,-0.74277145,0.38205114,0.22096181,0.007666358,0.019155623,0.20882502,-0.20772715,-0.569696,0.31008074,-0.12961644,-0.23159751,1,train
TCGA-DX-A3LW-01A,0.3524081,-0.122187905,-0.023346892,-0.015063414,0.0884312,0.5485225,-0.01279299,-0.0430317,-0.020399163,-0.722483,-0.14979875,0.1025915,0.84940153,0.08312922,-0.27896503,0,train
TCGA-QC-AA9N-01A,-1.628243,1.8109933,-0.38602966,-0.394728,-1.038119,1.0949738,0.3960953,-1.1773844,-0.27702877,-0.5165571,-0.039318647,-0.6261631,0.490014,0.24642284,0.18080728,2,train
TCGA-WK-A8XO-01A,-0.6941926,0.4281406,0.28496397,-0.37886998,-0.11181647,-0.20352057,0.08464072,0.09783806,0.48224133,-0.022285547,-0.5098086,-0.25643116,-0.177748,0.3730233,0.31258184,0,train
TCGA-3B-A9HL-01A,-0.1970802,0.047807787,0.13737136,-0.24160278,0.13340552,0.046726163,0.18024026,0.43890178,-0.9814256,-0.70258844,-0.47335535,0.098852776,0.14889845,-0.107485116,-0.39903232,0,train
TCGA-DX-A3U5-01A,0.44125494,0.06101863,0.2968368,-0.5693345,0.27867997,-0.024103198,-0.097839236,-0.3303341,0.47945046,-0.7894854,-0.25991917,0.047996286,0.20198324,-0.23723625,0.07296584,0,train
TCGA-DX-A1L0-01A,0.118866734,-0.20603928,0.42618117,-0.3467658,0.45578524,0.06332417,-0.045372095,-0.16648431,-0.51332873,-0.64334273,-0.3906714,0.6986271,0.1336198,-0.28950658,-0.38791764,0,train
TCGA-DX-A8BH-01A,0.12869495,0.13454877,0.004261045,0.13823003,-0.08210866,-0.15630078,-0.060231425,0.2573253,-0.31752172,-0.35269123,-0.33030272,-0.26966062,-0.18077356,0.33334205,0.7429957,2,train
TCGA-PC-A5DL-01A,0.5291582,0.16760422,0.15565723,0.018980827,-0.4741722,-0.050531365,0.19155142,0.50668263,-0.5033255,0.42895326,0.1666096,-0.5605531,0.13970408,0.33807182,-0.48614419,1,train
TCGA-FX-A48G-01A,0.037254505,-0.21290457,-0.40233517,0.18035471,0.55598634,-0.007413382,-0.14526194,-0.3718833,0.6461825,0.20476076,0.2496492,-0.7688633,0.37293756,-0.4314006,0.12818763,1,train
TCGA-IF-A4AJ-01A,-0.15380968,-0.26502976,-0.16665797,-0.5140414,-0.5350402,0.29107285,0.56807554,0.23827212,-0.6436284,0.58958393,0.43461248,0.1419417,-0.251386,0.06131456,-0.08027271,1,train
TCGA-DX-A7EM-01A,0.29547116,0.06423721,-0.0060134004,-0.29936722,-0.37014085,0.13615319,0.11355162,0.3951525,-0.49907652,0.7482209,0.23506548,0.09265458,-0.3197418,0.3357075,-0.2944651,1,train
TCGA-DX-A48J-01A,0.9467556,-0.09000081,0.03458362,0.03509028,-0.3532492,0.047756054,0.2151577,-0.12561215,0.021471959,0.2546039,-0.022678185,-0.5548611,0.3066476,0.11763811,-0.46273172,1,train
TCGA-SG-A849-01A,-0.28635654,0.5550976,0.33499414,-0.06400712,0.06539365,-0.004085105,0.043120895,-0.18817283,-0.4990651,-0.18009487,-0.11559947,-0.13043447,-0.31003624,0.50254166,0.71672803,2,train
TCGA-K1-A42X-02A,-0.22639985,0.15908675,0.12094225,0.0824878,0.5658183,-0.6196834,0.044799358,-0.16782153,0.66120034,0.69606787,0.42156827,-0.82660204,0.63198155,-0.4961797,-0.2558684,1,train
TCGA-DX-A3UB-01A,0.15055591,-0.0732461,-0.031269036,-0.19742228,0.119231604,-0.26267192,-0.014268117,-0.15878151,-0.21903498,0.105019234,-0.007931033,-0.45706108,0.22091687,-0.10616921,0.068506435,1,train
TCGA-DX-A2J0-01A,-0.32689947,-0.1268409,0.0078082434,0.001086415,0.1115635,0.02871435,-0.021072937,0.052701134,0.23027554,-0.39961225,0.0050793,0.37655967,0.1786336,0.38375798,-0.3076207,0,train
TCGA-DX-A23V-01A,-0.2712558,-0.27851778,-0.46046948,-0.13975891,0.2653825,-0.3377776,-0.0036059595,-0.2757546,0.310725,-0.730313,-0.20023602,-0.20835188,-0.039991528,0.16512582,-0.3524698,0,train
TCGA-DX-A240-01A,0.0115463715,-0.038364038,-0.05786259,-0.02588147,0.11048183,-0.1885121,-0.099701874,-0.124207094,-0.084633075,-0.24223515,-0.040529154,-0.23586284,0.3047072,-0.3630061,0.2413613,0,train
TCGA-DX-A23T-01A,-0.5701432,-0.16378026,-0.15280764,0.32232222,0.40703958,-0.608156,-0.058874507,-0.17667808,-0.49358928,-0.37626886,0.15949833,-0.40651456,-0.43314928,0.6258343,-0.03501202,0,train
TCGA-3B-A9HI-01A,0.36654985,0.1025406,-0.2152625,0.29521552,0.028006552,-0.16278861,0.006869721,0.49876687,-0.56577826,-0.5572668,-0.1895238,-0.11376026,0.041934565,0.2769333,0.13197504,0,train
TCGA-DX-A6Z2-01A,0.25585285,0.1957422,0.110096626,0.028752875,-0.6140014,0.27491653,0.2241515,-0.10143562,0.7146862,0.3310366,0.023266938,-0.40165624,-0.15104342,0.49523103,-0.20767131,1,train
TCGA-DX-A7EI-01A,-0.6747335,0.026154706,0.17690483,0.15757175,0.30345017,-0.20487568,-0.15256666,0.7398513,-0.12957056,0.52775097,-0.2876101,0.4482039,0.44623572,0.42439935,-0.24132462,0,train
TCGA-K1-A3PN-02A,0.17348205,-0.19435893,0.09840929,-0.22968517,-0.43796557,0.20383419,-0.062508784,0.14378378,0.43570846,0.5831971,0.2335465,0.2693863,-0.6028469,-0.20633343,-0.34703127,1,train
TCGA-K1-A3PN-01A,0.16746855,-0.19153337,0.08583365,-0.1642441,-0.3545569,0.12430411,-0.00038370548,0.11045306,0.37217095,0.6782204,0.20175318,0.16991706,-0.5213167,0.045487642,-0.41767356,1,train
TCGA-SG-A6Z4-01A,0.48805657,-0.35170245,0.011617303,0.7440837,-0.01011165,0.025289487,-0.20889832,0.222529,-0.70600355,-0.27358848,-0.35156056,0.43874842,0.032604013,-0.054694284,0.2979017,2,train
TCGA-DX-A8BN-01A,-0.11401712,-0.10874481,0.031024061,0.4678841,0.36555687,0.11873271,-0.32386118,0.8829341,-0.31199014,-0.98680127,-0.024964962,-0.11965584,-0.3114984,-0.2766036,-0.22239818,2,train
TCGA-DX-A1KY-01A,-0.32815483,0.22000514,0.18487306,-0.7140403,0.34777334,0.41456762,-0.03826159,0.2255971,-0.15036833,-0.10005662,0.21927126,0.8202465,0.4137889,-0.36441803,-0.38718447,0,train
TCGA-KD-A5QU-01A,1.0437301,1.4064703,0.2242603,0.3184685,1.0270326,0.25862145,-0.36440802,-1.4247892,1.106993,0.46797648,-0.11898711,0.4382746,-0.44141433,-0.567284,-0.113355085,1,train
TCGA-JV-A5VF-01A,-0.49339172,-0.29634166,-0.3091724,0.3459504,0.44633818,-0.22892922,-0.42512155,0.33451515,-0.19810581,0.24760608,0.22368143,0.70255613,-0.12819402,-0.39543912,0.24371514,1,train
TCGA-DX-A1L3-01A,-0.27822247,-0.018163241,0.04789785,-0.15743592,0.15536483,-0.300723,-0.04682074,0.081334986,0.47432783,-0.7688103,0.06310267,-0.16288826,-0.2268544,0.02344589,0.056552548,0,train
TCGA-DX-A2IZ-01A,-0.43857676,-0.20965305,-0.6430979,-0.76965874,0.2465043,0.051889073,-0.12883388,-0.08668478,-0.12137089,0.28642958,-0.116179325,0.52760106,0.5493223,-0.20553462,-0.033920653,0,train
TCGA-MB-A5YA-01A,0.37016836,0.14096591,-0.0993794,-0.28091678,-0.7090512,0.30774346,0.1305011,-0.20403649,-0.2847066,0.13274561,0.22144659,-0.39930922,-0.19897994,0.0523083,-0.12499227,1,train
TCGA-X2-A95T-01A,0.10410771,-0.115719594,-0.57953435,0.36638778,0.5235922,-0.41350365,0.03031263,-0.76525277,-0.2884937,0.51607066,-0.266102,-0.48114845,-0.12188938,-0.49731934,-0.39140716,1,train
TCGA-DX-A3M1-01A,0.1173844,-0.14716902,0.13081755,0.19272396,0.17470936,0.024376208,-0.17263542,0.5749555,-0.743022,-0.4136558,-0.16442019,0.69578975,0.22663486,0.07491643,-0.19369264,0,train
TCGA-MJ-A68H-01A,-0.40309808,0.27635002,0.26346338,-0.32033458,-0.16230743,-0.04943581,-0.051933214,0.7755704,0.2879882,0.54247683,0.5540202,0.0502209,0.01416944,-0.13341412,-0.32878208,1,train
TCGA-K1-A3PO-01A,0.20300841,-0.14698684,-0.065355346,0.14743134,0.17876372,-0.20504925,0.076270714,-0.22870821,-0.41920802,0.1721238,-0.07086633,-0.42828232,0.4225377,0.55805516,-0.044779193,1,train
TCGA-FX-A3NJ-01A,0.7577566,-0.22627397,-0.029881196,0.25177112,-0.276628,-0.05479444,0.17443007,-0.2919842,-0.50716573,0.2499349,0.042557493,-0.5478204,0.115911804,0.26008406,-0.53647447,1,train
TCGA-3B-A9HX-01A,-0.048502896,0.24335082,0.2752145,0.52367675,0.12062703,-0.19291408,-0.07295593,0.71305174,-0.036088217,0.39472112,0.17989318,0.06640198,-0.15356797,0.1464823,0.016744692,1,train
TCGA-QC-A6FX-01A,-0.0096085,0.32596377,0.36892393,-0.11248381,-0.09460103,0.10518174,0.038255792,-0.53794485,-0.36822295,-0.66585314,0.7512663,-0.15718997,-0.25036928,-0.11622486,0.53548,2,train
TCGA-DX-AB2F-01A,-0.30872616,-0.030327313,-0.39028066,-0.0066983625,0.044224486,-0.63755214,-0.012135036,0.37437668,-0.32522425,-0.93550795,-0.30729693,0.28104654,-0.027387304,-0.2126431,-0.6512105,0,train
TCGA-PC-A5DN-01A,-0.45531976,-0.09567821,-0.005964369,0.03662418,0.22688515,-0.035799306,-0.049970694,0.021009756,0.21996318,0.1794598,-0.046655327,0.33326504,0.337658,0.318906,-0.3074885,1,train
TCGA-K1-A6RV-01A,0.2757451,0.15268864,0.25275964,0.4717696,-0.19174618,0.03842105,-0.6651219,0.19683892,-0.24137592,-0.25876513,0.3022175,0.07224601,0.14331193,-0.08266357,0.7844909,1,train
TCGA-DX-A6B8-01A,0.38817233,-0.052844953,-0.48995724,0.55456275,-0.38231316,0.5620029,-0.11725383,-0.9946191,-0.15509288,-0.3737459,0.29652512,0.22036988,0.13725783,-0.37087062,0.8072316,1,train
TCGA-DX-A48U-01A,1.0881261,-0.10941949,0.07514085,-0.094220266,-0.55619395,0.1270528,0.16768089,-0.08035307,0.15022941,0.30550566,0.051813003,-0.5345043,0.009107089,-0.22902122,-0.41319892,1,train
TCGA-DX-A48K-01A,0.09502226,0.06111701,-0.053538803,0.15453027,-0.57416046,0.4205989,-0.05811439,-0.3352584,-0.18019417,-0.17857741,-0.016729562,-0.006624437,0.18863961,0.0051263105,0.6112223,1,train
TCGA-MO-A47R-01A,-0.55966204,-0.032822106,0.0921837,-0.15141326,-0.25533497,0.19531901,-0.24749723,0.59723556,0.12449978,0.09340195,0.2987454,0.48047894,0.5306656,-0.21227618,-0.049468648,1,train
TCGA-IE-A4EK-01A,1.006298,0.010609648,0.38032493,-0.20918673,-0.5351338,0.13541552,0.17306569,0.06485596,0.13967718,0.293176,0.15841205,-0.46327278,0.0678672,-0.25368172,-0.4124556,1,train
TCGA-3B-A9I0-01A,0.38610473,-0.007722195,0.048937432,-0.4227221,-0.7470613,0.35065216,0.17864518,-0.26321876,-0.23206736,0.40909457,0.17383653,-0.28556043,-0.3309427,0.25847337,-0.13795854,1,train
TCGA-HB-A5W3-01A,-0.008541668,0.24002938,0.15107353,-0.40055445,-0.5217482,0.2421095,0.16251017,-0.027671445,0.83098525,0.52195746,0.0432564,-0.2371641,-0.15555267,0.06460869,-0.23675042,1,train
TCGA-DX-A2J4-01A,0.11844661,-0.09990207,-0.041951954,0.0030843192,0.24421023,-0.36130205,0.072322555,-0.19169393,-0.2834922,-0.3059951,-0.056684952,-0.54185355,0.284622,0.577319,0.15593027,0,train
TCGA-DX-AB2H-01A,-0.3577084,-0.16114362,-0.5296012,0.1541439,0.5015376,0.23045655,-0.116653375,-0.5361074,0.08373857,0.0956296,-0.14050125,0.8861627,0.58815753,-0.03420458,-0.38261813,0,train
TCGA-DX-AB37-01A,-0.24371885,-0.17055163,-0.02126529,0.11033299,-0.021133643,-0.26319084,-0.0425087,0.18524677,0.35288015,-0.5301662,-0.32631543,-0.2899591,-0.065370165,0.569188,0.10933887,0,train
TCGA-IE-A4EI-01A,-0.21478614,0.29689354,0.3201126,-0.43633875,-0.6110707,0.3143383,0.06820148,0.12006611,0.30588144,0.5153331,-0.065266505,0.0041517355,-0.43481058,-0.23679456,-0.37613997,1,train
TCGA-QQ-A5VD-01A,-0.017116616,0.06833641,-0.016482463,-0.18477051,-0.3459217,0.21720028,0.08077902,-0.36639234,-0.3220032,0.30863386,-0.028432665,-0.26485002,0.2558222,0.38200915,0.12383671,1,train
TCGA-MB-A8JL-01A,-0.9376207,0.19113056,0.036238573,-0.4265469,0.055548012,0.120281585,-0.075992934,-0.15161845,0.2750361,0.19318447,-0.08756266,0.3060976,0.3738046,0.25884068,0.24008766,1,train
TCGA-DX-A1KX-01A,-0.48310518,-0.10633246,0.18819985,0.26445547,0.14752239,-0.3708818,-0.15196376,1.1295935,-0.36878723,-0.7325399,0.07520777,-0.35316184,-0.017725995,0.19191562,-0.19128364,0,train
TCGA-DX-A23R-01A,-0.14892775,-0.185663,-0.08789886,0.7383414,-0.013165962,0.2947306,-0.11275669,-0.17701252,-0.08702259,-0.19263849,-0.14486751,0.5598283,0.70987034,0.22066838,-0.4153904,0,train
TCGA-IE-A6BZ-01A,-0.069782,-0.22060257,-0.18507358,0.36545715,-0.010109079,-0.034459006,0.24859929,0.22800651,-0.11590001,-1.0609393,-0.14476432,0.24644135,-0.30767283,-0.42510435,-0.034111317,2,train
TCGA-WK-A8Y0-01A,0.02033245,-0.107624434,0.15547572,0.43191966,0.37201643,-0.45207715,-0.2409852,0.9702511,0.14972284,0.0073086824,0.26686272,0.4239081,-0.6108006,0.14082584,0.37308857,2,train
TCGA-3B-A9HY-01A,0.19189924,0.0029148373,-0.0018139128,-0.16823848,-0.5951178,0.397728,0.108059116,-0.34097672,-0.33614412,0.6453498,0.043149818,-0.11378771,0.0901524,0.19328709,-0.03481547,1,train
TCGA-DX-A3U9-01A,1.0681056,-0.16041666,-0.4760521,0.14499459,-0.29829875,0.4636949,0.09178895,-0.46716315,0.27554598,0.3365129,-0.24938895,0.22321826,0.09531624,-0.2082742,-0.0019210769,1,train
TCGA-DX-A6B7-01A,0.64716035,0.19610046,0.05680712,-0.2545586,-0.70098186,0.2982957,0.19466558,-0.30520386,0.09223914,0.2042532,-0.013899733,-0.6614006,0.20236179,-0.22384827,-0.2763096,1,train
TCGA-WK-A8XX-01A,0.69601417,0.1463512,0.23371276,-0.36151606,0.30490994,-0.21211523,0.039728202,0.5856686,-0.33894032,0.5454628,0.65704256,0.27165046,-0.53866756,0.068513244,-0.38963884,1,train
TCGA-3B-A9I1-01A,-0.121498935,0.39463085,-0.02139906,-0.0017116381,0.66932356,-0.49065715,-0.0012675163,0.2805206,-0.005855322,0.47594225,0.3754081,-0.09847576,-0.27629265,-0.6235502,-0.42368725,1,train
TCGA-DX-A1L1-01A,-0.035668723,-0.020746967,-0.5604313,-0.70000845,0.5239384,-0.25643122,0.18275651,-0.2721957,0.09516014,-0.3119179,-0.115146294,0.044973258,-0.16984317,0.45294347,0.3039946,0,train
TCGA-DX-A1L2-01A,0.18506415,-0.15961361,0.14944342,0.08635387,0.07636581,-0.11641496,-0.080494665,0.23161684,-0.39437747,-0.8419174,-0.12218552,0.11338796,-0.0016322536,-0.14827499,-0.22966772,0,train
TCGA-DX-A6BG-01A,0.13709539,-0.091702804,-0.045560293,0.10657249,0.17320031,-0.29634842,-0.0040098396,-0.13701549,-0.12773766,-0.09664229,-0.05000843,-0.4421077,0.22519536,0.43845552,0.41756988,0,train
TCGA-SG-A6Z7-01A,-0.80451703,-0.03244474,-0.28156057,0.48503426,0.2560948,0.04146166,-0.2511127,0.676707,-0.50907826,0.46230197,-0.08581293,0.89082086,0.7382737,0.17417835,-0.38908428,0,train
TCGA-IS-A3K7-01A,-0.35525516,-0.04642285,-0.10918433,-0.06592045,-0.23671713,-0.26289067,-0.067410976,-0.72459114,1.078542,0.011177653,-0.6114542,-0.18414178,0.141233,-0.11606013,0.6615471,1,train
TCGA-DX-A6BA-01A,-0.19867404,-0.052128397,-0.30753532,-0.4179841,-0.5735941,0.123137064,-0.048748653,0.78635687,0.36383107,0.5882373,-0.35511503,0.1339344,-0.3130847,0.083100274,-0.45121124,1,train
TCGA-MB-A8JK-01A,0.36618844,-0.2808783,-0.078717664,0.2501956,0.02651488,-0.3941663,-0.32915765,0.512458,-0.6437955,-0.26892355,-0.20902543,-0.17964737,-0.074508734,0.21918663,0.006004423,2,train
TCGA-DX-A7EN-01A,0.91461056,0.08890591,0.083913326,0.3059652,-0.45238385,0.50700164,0.25744757,-0.08426238,0.6288234,0.34492263,0.051097855,0.2755423,-0.30671698,-0.29775804,-0.54115695,1,train
TCGA-VT-A80G-01A,0.24244149,-0.08177857,0.6407238,0.20745994,0.28338197,0.11189242,-0.2437476,-0.052316625,-0.18392141,-0.19809446,0.08843681,0.6404517,-0.10495891,-0.28881574,0.6512187,2,train
TCGA-DX-A6BE-01A,0.05260973,-0.1006164,-0.015317945,-0.20309223,0.23949167,-0.34082752,0.09139304,-0.1385159,-0.22486703,-0.2981877,-0.03215292,-0.43020347,0.26220596,0.55180156,0.15521921,0,train
TCGA-DX-A3LT-01A,0.254088,-0.41022635,0.2496626,0.0485081,-0.10705533,0.03926969,-0.118039675,-0.36591655,-0.062078714,-0.41137627,-0.199674,0.0382188,0.08098663,0.13916114,0.57696676,0,train
TCGA-DX-A8BM-01A,0.1365271,-0.013275544,-0.05611949,0.47942418,-0.09855258,0.0869027,-0.11178928,-0.033048093,-0.98138136,-0.67973465,-0.14456336,-0.014696283,0.28766027,-0.08582941,-0.10570613,2,train
TCGA-3B-A9HQ-01A,0.0048784316,0.05230803,0.073631406,-0.046479225,-0.5494042,0.18670593,0.17995742,-0.18942647,0.23258235,0.52837163,0.13249531,-0.30556872,-0.46444526,0.6214228,-0.36895457,1,train
TCGA-3B-A9I3-01A,1.3934382,-0.7494941,-1.8510139,-0.64481515,-0.07834295,0.54862094,0.4583198,-1.8768271,2.483318,0.21564282,1.7296205,-0.34737077,1.464892,0.539913,0.30150884,1,train
TCGA-DX-A3UC-01A,0.57467335,-0.09249108,0.12917462,-0.026060415,-0.48777115,0.23502278,0.11177789,0.16973324,0.7805097,0.5925085,0.12204076,-0.02294324,-0.24941751,0.08184291,-0.47836298,1,train
TCGA-DX-A3U8-01A,0.12945312,-0.22140314,0.008606413,-0.23816122,0.2867062,-0.36223003,-0.075667,0.15350467,0.13626778,0.04233781,0.048959695,-0.105047755,-0.023965575,0.22299722,0.57320386,1,train
TCGA-HS-A5N7-01A,-0.14689474,-0.029810732,0.14568827,-0.052001603,-0.5385245,0.36607394,0.078339614,-0.27008802,0.21861957,0.5201087,0.71804625,0.0883785,-0.24485128,0.41396266,-0.31875923,1,train
TCGA-DX-A3LS-01A,-0.38084275,-0.2868613,-0.45438853,-0.1195999,0.2729759,-0.301032,-0.09917144,-0.22945327,0.435342,-0.19521745,-0.3100251,-0.07761483,-0.12110867,0.24605867,0.039272502,0,train
TCGA-IW-A3M4-01A,-0.1565544,0.16835675,0.043336704,0.056232873,0.36557806,-0.40415624,0.0046560783,-0.024366468,0.68343914,0.46860516,-0.1710367,-0.5750708,0.47559378,-0.434188,-0.23305307,1,train
TCGA-QQ-A5VA-01A,-0.3019959,0.01320348,0.2535778,-0.06356472,0.3997005,-0.38182014,0.011249065,0.5296342,0.47076598,0.2653247,-0.5854268,0.1366714,-0.06979475,0.84939796,0.09447044,0,train
TCGA-DX-A8BX-01A,0.12459257,-0.08055773,-0.088714525,-0.2231249,-0.09017683,0.08371171,-0.06743802,-0.02107103,-0.20490788,-0.7688119,-0.36288208,0.17918882,0.2990178,-0.20399192,0.11714456,2,train
TCGA-X6-A7WC-01A,-0.2312557,-0.3479663,0.02792462,0.2721165,-0.18125993,0.020630326,0.10505692,0.40804517,-0.7238781,-0.13161229,0.06490182,0.385908,-0.2047875,-0.09348518,0.6900985,1,train
TCGA-HB-A43Z-01A,-0.31195766,-0.27588478,0.48973706,-0.30786732,-0.1552347,0.13934936,-0.12280887,0.16235602,0.10967256,0.76113415,-0.33722246,0.2874188,0.22467144,-0.29292995,-0.35804227,1,train
TCGA-HB-A2OT-01A,-0.2919924,0.25095904,0.46638334,0.58174086,0.033530656,0.06498393,-0.06553947,-0.66965336,0.001738477,-0.3133986,-0.1334784,-0.1168613,-0.29057536,0.0037413696,0.4827312,2,train
TCGA-JV-A5VE-01A,-0.31297997,0.16336967,0.2966661,0.06599002,0.30786783,-0.11250497,0.17737013,-0.73728395,0.2565355,0.35521996,0.25663537,-0.36843637,-0.14028108,-0.19852953,-0.07154685,1,train
TCGA-DX-A23U-01A,0.20411947,-0.015012006,-0.30899164,0.30335492,0.09007156,-0.12239493,0.18709452,0.19728725,-0.20496605,-0.44002265,0.17918216,-0.23567401,0.20242858,-0.19975816,0.49669096,0,train
TCGA-DX-A2J1-01A,0.107184835,-0.07762855,-0.023615802,-0.081121,0.18687204,-0.36541095,0.023283383,-0.1438286,-0.17486617,-0.52721506,-0.023188667,-0.54480505,0.1274546,0.3276112,0.3305341,0,train
TCGA-DX-A3UD-01A,0.6387783,0.023369156,0.22779143,-0.13810201,0.07619712,0.029629998,0.33883548,0.47404274,-0.69831777,0.44949144,0.7263581,0.26662025,-0.77478564,-0.25494128,-0.3411863,1,train
TCGA-DX-A3UF-01A,-0.0980208,0.4578815,0.1736198,-0.62155324,-0.14829642,0.3263113,0.22577712,-0.15268815,0.88330853,0.5050254,0.010746851,0.18260102,-0.16458873,0.07213986,-0.24924217,1,train
TCGA-K1-A42X-01A,-0.2077254,0.15282804,0.11565101,0.11629807,0.5400769,-0.589562,0.035637368,-0.18375972,0.6385479,0.7400202,0.41681382,-0.8030793,0.6601038,-0.56802785,-0.29236162,1,train
TCGA-PC-A5DO-01A,-0.050249867,-0.42081514,0.06868132,-0.6238578,-0.08946801,0.25756443,0.26659244,-0.8150832,0.46393067,0.43688604,-0.36185887,0.30145147,-0.80604506,-0.0060798284,-0.3207578,1,train
TCGA-DX-AB35-01A,0.33012486,0.12861949,-0.18067528,0.13255976,0.5303122,-0.22879094,0.35369334,0.2278948,-1.0275561,-0.94122785,-0.58789295,0.1622125,0.013404254,-0.17893273,-0.57370996,0,train
TCGA-DX-A3LU-01A,0.103026256,0.021648414,-0.14501438,-0.23771486,0.10758286,-0.27513525,0.05725247,0.052938737,-0.13870597,-0.6564853,-0.982114,-0.43464166,0.047524966,0.23305915,0.18420108,0,train
TCGA-DX-A3LY-01B,-0.16946527,-0.030542957,0.21557114,-0.48519418,0.07573761,-0.7720821,-0.07533378,0.72739685,-0.46087703,-0.45445502,-0.111435026,0.25428882,-0.015016736,-0.17187749,-0.06156696,0,train
TCGA-MB-A5Y9-01A,-0.12578915,0.12902224,0.44306743,-0.23993969,0.1367363,-0.363885,-0.026430678,0.23503835,-0.17537971,-0.31794545,-0.07759568,-0.34952405,-0.25885177,0.3837084,0.68111783,2,train
TCGA-DX-A48O-01A,0.41753098,-0.0041671856,0.15514278,-0.17405622,-0.27450424,-0.058293242,0.11485488,0.11184583,0.8105717,0.34285316,0.04863329,-0.33143467,-0.20758244,-0.10226679,-0.4692605,1,train
TCGA-HB-A3L4-01A,0.04771297,0.1649181,-0.07326369,0.5966106,0.42109814,-0.09412485,-0.026262773,-0.38276553,0.073197626,0.37264353,-0.1426078,-0.07528503,0.19815722,-0.68740046,-0.29327622,1,train
TCGA-IW-A3M5-01A,-0.57245153,-0.30708843,-0.18029138,0.635684,0.025737414,0.09457764,-0.29423696,-0.018903146,-0.2777692,0.17406271,-0.21551464,0.38572466,0.54431564,0.0026630077,0.06091007,1,train
TCGA-X9-A971-01A,-0.03784353,-0.37714776,-0.38638562,-0.57524645,-0.29907596,0.26713446,-0.13554299,-0.008312164,0.43447277,0.476571,0.7529136,0.5803073,-0.42960358,-0.28337437,-0.06063271,1,train
TCGA-QQ-A8VF-01A,-0.121810615,0.25564596,0.36124328,-0.21899016,0.13791427,-0.18012181,0.01888756,0.3798802,-0.06208562,0.033389,0.6175868,-0.05974451,0.27531734,0.39173257,0.66681653,1,train
TCGA-DX-A6BH-01A,0.10052168,-0.14570236,-0.009450467,-0.22535713,0.010074443,-0.03690694,-0.013319348,-0.10271935,-0.19938837,-0.3520511,-0.0034850887,-0.007728864,0.2736476,0.086721376,0.04516281,0,train
TCGA-FX-A3RE-01A,-0.46113965,0.22278754,0.13562116,-0.0891737,-0.16054751,0.3424858,-0.021748308,-0.2062442,0.6755419,0.17645623,-0.2013103,0.09159977,0.6062934,-0.16633984,-0.10204836,1,train
TCGA-DX-A3U7-01A,0.6711454,-0.032032225,0.24778564,-0.4850574,0.2797454,-0.0858353,-0.07546842,0.8823131,-0.12886946,0.4970905,0.052257366,0.53904873,-0.73171926,-0.2009936,-0.15283725,1,train
TCGA-IS-A3K6-01A,-0.13649037,0.23098159,0.042882644,-0.13336445,0.5161808,-0.41022173,0.020000204,-0.20944203,0.39728984,0.33029276,-0.019272702,-0.27484113,-0.33884352,-0.4113463,-0.019733505,1,train
TCGA-SI-AA8B-01A,-0.12582193,-0.4248884,-0.06450594,0.5947363,-0.12223304,0.06935996,0.094301894,0.06822127,-0.120432585,-0.34216768,-0.23258376,0.49211287,-0.53735226,-0.504674,0.62268263,2,train
TCGA-DX-AB3A-01A,0.15930654,-0.4451563,-0.57224554,0.07476665,0.0364877,0.16620035,-0.06803796,-0.49106258,-0.46153715,-0.52562535,-0.31165436,0.19958828,0.6744599,0.10275334,-0.28592256,0,train
TCGA-Z4-A9VC-01A,0.20576203,-0.20014077,-0.10499104,0.32790026,0.025283886,0.11827601,-0.012237936,-0.23769565,-0.49606875,-0.15287489,-0.107214965,0.06718922,0.70419806,0.34347522,-0.09188661,0,train
TCGA-X6-A7WA-01A,0.12567972,-0.042178605,0.6926347,-0.1694143,-0.31175226,0.04453562,0.041038055,0.2352725,0.3420613,0.38766742,1.0148853,0.10058453,-0.45893,0.06432425,-0.38870627,1,train
TCGA-VT-AB3D-01A,0.7438009,1.2829002,-0.008194276,0.048758835,1.3229396,0.03515487,0.70676863,-1.4018784,-0.17970122,-0.29976007,-0.71976876,0.123856835,-0.5547591,0.6489283,0.2820741,2,train
TCGA-X6-A8C2-01A,0.48965892,-0.44154018,-0.14078426,0.49886468,0.43220598,-0.13513967,-0.25446942,-0.06909957,-0.5685615,-0.23010647,0.13962719,0.6784598,-0.4351823,-0.30693012,0.4411908,2,train
TCGA-IE-A4EH-01A,0.22122116,0.07299643,-0.33509862,-0.034630325,0.42410946,-0.23938711,-0.0054402575,-0.5113397,0.89854026,0.35030198,0.30949512,-0.37523538,-0.0044560647,-0.8744572,-0.14250195,1,train
TCGA-KD-A5QS-01A,0.21030514,-0.055371433,0.02816649,0.55196464,0.12378947,0.1527141,0.026740314,0.678882,0.3216357,-0.22820403,0.008290807,0.2216852,-0.24542917,-0.48565608,0.26513827,1,train
TCGA-HS-A5N8-01A,-0.5982247,-0.051298264,-0.37327754,0.4412809,0.054563254,-0.022378966,-0.24757335,0.21263695,-0.22804,0.24417007,0.1428774,0.23554099,0.52778053,0.059571877,-0.03210415,1,train
TCGA-Z4-AAPG-01A,-0.575364,-0.21436621,-0.26032287,0.113046765,-0.23084685,-0.029073188,-1.0006694,0.26882625,0.006236133,0.026031047,-0.17823642,0.4990701,-0.49536893,-0.1379794,0.8175882,2,train
TCGA-DX-A3U6-01A,-0.51364356,-0.09283335,0.026539618,0.031083578,0.45196405,-0.59558415,-0.007245434,-0.06145531,0.17625494,-0.18164574,0.015276659,-0.42042392,-0.27846798,0.8001203,0.14611448,0,train
TCGA-DX-A7ET-01A,-0.043561865,0.33212444,-0.29199243,-0.005545294,0.08454115,-0.002727167,0.4735977,-0.23220089,-0.46665287,-0.47136036,-0.20414475,-0.1305554,-0.29025987,0.20904346,0.5895972,2,train
TCGA-X9-A973-01A,0.040901326,-0.11238808,-0.055421427,-0.11063095,0.09060509,-0.035751317,-0.07253964,-0.12645634,-0.2579167,-0.27421993,-0.04621046,-0.026103899,0.45253915,-0.0059340275,0.17993432,2,train
TCGA-X6-A7WB-01A,0.14180814,-0.14739831,-0.40054557,-0.30281964,0.3060549,-0.08282208,-0.030385816,-0.5540206,0.18156995,0.6781446,-0.0006446845,0.03904629,-0.21542123,-0.60510033,-0.20784216,1,train
TCGA-KF-A41W-01A,-0.5921434,0.17099835,-0.14388938,0.31695974,0.2914136,0.0112931505,0.38314882,-0.3102601,-0.29984555,0.25620452,-0.33345038,0.28840265,-0.3122386,-0.038697373,0.23314515,1,train
TCGA-DX-A7EF-01A,-0.11206956,0.013735471,0.038306005,0.53992677,-0.13024212,-0.2580513,-0.39573133,1.3483963,-0.05012832,-0.3493279,-0.012196458,0.34398526,-0.25024658,-0.32456192,0.4761007,2,train
TCGA-IS-A3KA-01A,0.3853009,0.41791373,0.21631086,0.2399068,0.5686289,-0.27339274,-0.037089333,0.8682603,0.827196,0.18205987,0.029571367,0.33403093,-0.11847039,-0.21000975,0.16811424,1,train
TCGA-DX-AB2J-01A,-0.603804,-0.0067847925,-0.009416481,-0.11797063,0.40020052,-0.1996007,-0.11483268,-0.044782743,0.18750702,0.14124474,-0.09892867,0.14561471,0.4879007,-0.22701368,-0.37961683,2,train
TCGA-MB-A5Y8-01A,-0.51985013,-0.06858454,-0.57928425,0.21322232,-0.3180716,0.12378921,-0.22569254,-0.48131347,0.22008654,-0.29545447,0.5608787,0.029276965,-0.31775573,-0.14243558,0.7234984,2,train
TCGA-X6-A8C4-01A,-0.65130967,-0.2901638,0.4060821,0.30905792,-0.48297116,0.08993931,0.64734197,0.6466243,-0.23432188,-0.36491793,0.16028425,0.38166812,-0.5311589,-0.63089263,1.0086447,2,train
TCGA-3R-A8YX-01A,-0.35952854,-0.1589271,0.16710824,-0.3435352,-0.03200478,-0.48604307,-0.44538456,1.6250585,-0.5489596,-0.26230448,0.21336143,0.31278375,-0.29908082,-0.31407836,0.5932677,0,train
TCGA-DX-A1KW-01A,-0.4489127,0.052566256,-0.15104784,-0.55502236,-0.21611638,0.038996562,-0.17438234,0.6546325,-0.58199203,-0.6090528,-0.393944,0.20048313,0.4631402,-0.21509732,-0.21840139,0,train
TCGA-DX-A6B9-01A,-0.25690857,0.21247013,-0.054796483,0.27126274,-0.09194179,-0.014203363,0.067657046,-0.4203531,-0.081242934,0.20509955,-0.07943201,-0.62665915,0.25574937,-0.019392883,-0.43338466,1,train
TCGA-DX-A8BK-01A,-0.020213176,-0.2206685,-0.4449897,0.5739076,0.28536376,-0.35528716,-0.18780527,0.47293916,-0.22556752,-0.5239757,-0.43927875,0.08217321,-0.63167447,0.1625133,0.13870254,2,train
TCGA-DX-A48P-01A,0.3171047,0.22072646,0.090441175,0.069443405,-0.60375553,0.20085765,0.23064351,-0.16807249,0.6173117,0.2862116,0.00622851,-0.5678646,-0.08394334,0.26305056,-0.4151244,1,train
TCGA-QQ-A5VC-01A,-0.30007738,0.1862993,-0.0557391,0.6119209,-0.32340813,0.20580396,0.5117189,0.41122743,-0.10241009,-0.3809998,-0.40690708,0.18757254,-0.38511822,-0.3704255,0.72754985,1,train
TCGA-X6-A8C5-01A,0.2194527,0.18914613,0.12788022,-0.049345806,-0.58398384,0.24499007,0.22943816,-0.11394014,0.6914166,0.35276774,0.015288495,-0.4008175,-0.11988161,0.46384245,-0.29174593,1,train
TCGA-3B-A9HZ-01A,0.67177147,-0.10857377,0.13558479,-0.44366407,-0.322523,0.0694572,0.18185966,0.093605116,0.4037024,0.5346378,0.06014863,-0.24020812,-0.024474988,0.4673232,0.05538802,1,train
TCGA-IE-A3OV-01A,0.1964553,0.13070965,0.46640077,-0.26238725,-0.27325225,0.09870406,0.10768092,0.48093593,-0.54288274,0.3909968,1.3111943,0.027532976,-0.26189926,0.43413386,-0.23342116,1,train
TCGA-JV-A75J-01A,-0.9001432,-0.81766236,2.001111,0.04622207,0.031709902,0.10539333,-0.27230978,-1.509314,0.1899694,0.36909005,-0.46607313,0.7208611,0.8728486,-0.20844096,-0.011778208,1,train
TCGA-LI-A9QH-01A,-0.020115763,-0.007860297,0.13401936,0.7865404,-0.54250044,0.26009983,-0.23162845,0.41331333,-0.45446137,-0.95991766,0.12361601,0.23924021,-0.088808216,-0.21858253,-0.09006777,2,train
TCGA-3B-A9HV-01A,-0.18777269,-0.10484188,0.009663748,0.1522537,1.2497145,2.2484508,0.03775068,0.024491997,0.28975612,0.43335757,-0.085999824,-0.42386693,-0.06901029,-0.5682055,0.015914673,1,train
TCGA-DX-A7ES-01A,-0.2556424,-0.07027158,0.025722709,0.03063762,0.2788802,-0.34608218,0.0644749,0.006259038,0.28396782,-0.1318158,-0.0006117134,-0.27251142,-0.016124954,0.68721306,-0.118278764,0,train
