,Factor_1,Factor_2,Factor_3,Factor_4,Factor_5,Factor_6,Factor_7,Factor_8,Factor_9,Factor_10,Factor_11,Factor_12,Factor_13,Factor_14,Factor_15,Label,Split
TCGA-DX-A8BV-01A,-0.030047021806240082,-0.3564794957637787,-0.044434867799282074,0.04585762694478035,-0.6665390729904175,0.16063718497753143,-0.0941612720489502,0.8134439587593079,0.05282307416200638,-0.15366573631763458,-0.021616144105792046,0.6311373710632324,0.37121444940567017,-0.3163608908653259,-0.11164247244596481,1,train
TCGA-DX-A7EL-01A,-0.8495566248893738,0.1786315143108368,0.1975778043270111,0.05485715717077255,0.4443122148513794,-0.434702068567276,-0.123713418841362,-0.37832844257354736,0.2903973162174225,-0.3199571371078491,0.8206579685211182,-0.1692444533109665,0.3247002065181732,0.3029896020889282,0.17434744536876678,2,train
TCGA-DX-A48O-01A,-0.14527671039104462,0.07374108582735062,-0.3870929777622223,0.4042348563671112,0.6003624796867371,-0.5805972218513489,-0.08554936200380325,-0.7396125793457031,0.3163152039051056,0.006955225020647049,0.5524239540100098,0.009138230234384537,-0.33958104252815247,0.3214949071407318,-0.05573856085538864,2,train
TCGA-DX-A6Z0-01A,-0.6616753935813904,-0.13955579698085785,0.068216472864151,-0.4792468845844269,-0.5987901091575623,0.5335053205490112,-0.2908895015716553,0.5311768651008606,0.0641687884926796,0.09306081384420395,-0.004031380172818899,0.22157835960388184,-0.0028576417826116085,-0.3603980541229248,-0.653437614440918,1,train
TCGA-IW-A3M4-01A,0.5366175174713135,-0.19566236436367035,-0.020148448646068573,0.493183970451355,0.5502756237983704,-0.7611750960350037,-0.22850148379802704,-0.1852438747882843,-0.3318019509315491,0.09431396424770355,0.156961590051651,-0.646389365196228,-0.18101516366004944,-0.3583725094795227,0.6863253712654114,2,train
TCGA-3B-A9HL-01A,0.2887081205844879,-0.5960232019424438,0.002461913274601102,-0.0663733184337616,-0.6130800247192383,0.09387443214654922,0.04103311151266098,0.22975899279117584,0.20757350325584412,-0.2166619449853897,-0.21741092205047607,0.4422781467437744,0.06343144178390503,0.19734792411327362,-0.38086286187171936,0,train
TCGA-MJ-A68H-01A,-0.29702842235565186,-0.21153996884822845,-0.35924169421195984,0.22379286587238312,-0.3573477268218994,-0.33595067262649536,-0.15435290336608887,0.4851228594779968,0.08903798460960388,0.00786611158400774,0.45687010884284973,-0.6845088005065918,0.13457615673542023,0.29593610763549805,0.0021315987687557936,2,train
TCGA-PC-A5DL-01A,0.0267303679138422,0.09748419374227524,-0.005076186265796423,0.30473247170448303,-0.1654539853334427,-0.6727744340896606,-0.1927388310432434,0.3301162123680115,0.26255422830581665,0.2008068561553955,0.8058441281318665,0.41952672600746155,0.30769437551498413,0.12286781519651413,-0.191785529255867,2,train
TCGA-HB-A43Z-01A,0.48165860772132874,-0.2631305158138275,-0.07382666319608688,0.0564640536904335,-0.46063709259033203,-0.13162624835968018,-0.403184175491333,-0.010637542232871056,0.0440157875418663,0.057058826088905334,0.5568702220916748,-0.7872273921966553,-0.14166872203350067,0.25867560505867004,0.09409702569246292,2,train
TCGA-DX-AB35-01A,0.3032214343547821,-0.6196158528327942,0.09808305650949478,0.07824666053056717,-0.13377045094966888,0.16806933283805847,0.5046942830085754,0.3333245515823364,-0.15221478044986725,-0.16162748634815216,-0.1238187775015831,0.7605018019676208,0.17692697048187256,-0.13915136456489563,-0.595878541469574,0,train
TCGA-DX-A3UD-01A,0.16334709525108337,0.578571617603302,-0.3811969459056854,-0.2282298356294632,0.13762161135673523,-0.16162969172000885,0.5228843092918396,0.9964990019798279,-0.2468319833278656,-0.14140625298023224,0.6342974305152893,0.12661737203598022,-0.12840169668197632,0.6488221883773804,-0.21097297966480255,2,train
TCGA-DX-A1KY-01A,0.428107351064682,-0.7989702820777893,0.030994605273008347,-0.5721847414970398,-0.7325904369354248,0.8372893929481506,-0.12737655639648438,-0.1593911349773407,-0.5846336483955383,-0.11422060430049896,0.3930218517780304,-0.41356486082077026,0.008576551452279091,0.6980686783790588,0.5707549452781677,0,train
TCGA-JV-A75J-01A,0.5088310241699219,-0.6389696002006531,0.3220662474632263,0.4036872386932373,0.589290976524353,0.8952754139900208,-0.10159887373447418,-0.14734458923339844,0.49662476778030396,-0.06254564225673676,0.01631261594593525,-0.7782105803489685,0.2217438966035843,-0.08589481562376022,0.6838452816009521,2,train
TCGA-DX-A8BL-01A,-0.006992852780967951,0.4772905111312866,0.5034687519073486,-0.7294560074806213,-0.5932539105415344,0.09258806705474854,-0.23640722036361694,0.057416874915361404,-0.1958499550819397,-0.36257076263427734,-0.28965917229652405,0.5815340876579285,-0.1502571702003479,-0.1552245169878006,-0.6471141576766968,3,train
TCGA-DX-A48K-01A,0.2843104898929596,0.45583540201187134,0.172996386885643,0.14407101273536682,0.05245585739612579,0.4323686957359314,0.037418775260448456,-0.48305413126945496,0.6560878753662109,-0.646689236164093,-0.23537613451480865,0.21427597105503082,0.17998166382312775,-0.12275414168834686,0.4163118302822113,2,train
TCGA-SI-AA8B-01A,0.09319743514060974,0.46510905027389526,-0.11018944531679153,0.105800561606884,0.3034115135669708,0.7293902039527893,0.04758158698678017,0.2738698720932007,0.23899134993553162,-0.06780720502138138,-0.38360467553138733,-0.11440280824899673,-0.2145327627658844,-0.43465980887413025,-0.16267512738704681,3,train
TCGA-IS-A3K6-01A,0.24705208837985992,-0.02529844455420971,-0.1597914695739746,0.12237841635942459,0.7512639164924622,-0.6328829526901245,0.5510563850402832,-0.3697158992290497,0.25139015913009644,0.40438899397850037,-0.2243805080652237,-0.5627007484436035,-0.03249917924404144,0.028491809964179993,-0.5192386507987976,2,train
TCGA-DX-AB2X-01A,-0.4034520387649536,0.10878681391477585,-0.380317747592926,0.17225924134254456,-0.23037442564964294,0.13315536081790924,-0.35437771677970886,-0.17857249081134796,-0.12016459554433823,0.05978694558143616,-0.7031142115592957,-0.30511119961738586,-0.3568846583366394,0.11512520164251328,0.09792883694171906,3,train
TCGA-LI-A9QH-01A,-0.2244447022676468,-0.007951573468744755,-0.1974879503250122,0.16967539489269257,-1.0105770826339722,0.781690239906311,-0.1592530757188797,0.5777245759963989,0.07312797009944916,-0.05459687486290932,0.11764781922101974,0.5834233164787292,-0.33187708258628845,-0.8193584084510803,-0.27430006861686707,3,train
TCGA-DX-A7EI-01A,-0.06966923922300339,-0.5484216213226318,0.4576999545097351,-0.3067716360092163,-0.04462144523859024,0.2709791958332062,-0.5149117708206177,0.20947988331317902,0.08487238734960556,0.06471815705299377,0.40412867069244385,-0.6452576518058777,0.43706080317497253,-0.19357335567474365,-0.27677005529403687,0,train
TCGA-WK-A8XY-01A,-0.18456831574440002,-0.004175738897174597,-0.7003390789031982,-0.049533721059560776,0.5800503492355347,-0.07890714704990387,-0.26427680253982544,-0.8969095349311829,0.1934397965669632,0.49466946721076965,0.637024462223053,-0.48052555322647095,-0.2074909210205078,0.7509683966636658,-0.05042629688978195,2,train
TCGA-DX-A6YS-01A,0.261505126953125,-0.24901165068149567,-0.03829687088727951,-0.4580577611923218,-0.23561209440231323,0.3210306167602539,0.29666608572006226,0.037970416247844696,-0.27708733081817627,-0.15753214061260223,0.001149250427260995,0.670396625995636,0.22100576758384705,-0.5661389827728271,-0.7605562806129456,1,train
TCGA-X6-A7WD-01A,-0.22031861543655396,0.1960579752922058,-0.3885234594345093,0.4106706380844116,0.19352446496486664,0.11750330030918121,0.6260221004486084,-0.6189350485801697,0.5619274377822876,-0.6947927474975586,0.48721247911453247,-0.29920628666877747,-0.03468470275402069,0.49445363879203796,0.41323229670524597,2,train
TCGA-3B-A9HQ-01A,-0.34636586904525757,0.28650665283203125,0.13399702310562134,-0.14238867163658142,0.8424125909805298,-0.48633474111557007,0.08473212271928787,0.22142155468463898,0.5680312514305115,0.6169282793998718,0.7486189603805542,0.09882397204637527,-0.14543554186820984,0.265713095664978,0.3888803720474243,2,train
TCGA-DX-A8BK-01A,-0.15793508291244507,0.26492851972579956,0.12156201153993607,-0.1677018105983734,0.17979303002357483,0.013708303682506084,-0.10526791214942932,0.9167789816856384,-0.5577167272567749,-0.06978245079517365,-0.34908774495124817,0.3685651123523712,-0.6182180643081665,-0.4473906457424164,-0.1082320287823677,3,train
TCGA-PC-A5DO-01A,-0.20067043602466583,0.1114828959107399,-0.174477681517601,-0.2314879149198532,0.04404382407665253,-0.05472678318619728,0.5875516533851624,-0.0763949304819107,0.36360272765159607,-0.1366575062274933,0.4914299249649048,-0.15500855445861816,-0.5490941405296326,0.8011401891708374,0.3620434105396271,2,train
TCGA-QQ-A5VB-01A,-0.5655539035797119,0.4111860990524292,0.21126407384872437,-0.17196661233901978,-0.3763296604156494,0.23319339752197266,-0.09120573848485947,0.6528868079185486,0.3124241232872009,0.10814471542835236,-0.3298417925834656,-0.27359768748283386,0.00046534399734809995,-0.0731939747929573,-0.45067983865737915,2,train
TCGA-DX-A8BM-01A,0.6872596740722656,-0.10850193351507187,0.13975995779037476,0.2360004186630249,-0.36425673961639404,0.23897817730903625,0.010116733610630035,0.3392409086227417,-0.050110869109630585,-0.10139382630586624,-0.2371187061071396,0.7393269538879395,-0.340720534324646,-0.4126299023628235,-0.053969983011484146,3,train
TCGA-VT-A80G-01A,0.4164028465747833,0.5216594934463501,0.36744269728660583,0.07177224010229111,-0.21627935767173767,0.7831694483757019,0.15558314323425293,-0.11276229470968246,-0.4800098240375519,-0.14140918850898743,-0.27872002124786377,0.0030925723258405924,-0.27418193221092224,0.042518723756074905,-0.13063670694828033,3,train
TCGA-K1-A6RU-01A,-0.3924453854560852,-0.5303367376327515,-0.005657395347952843,-0.5112796425819397,-0.3530835807323456,0.11117089539766312,-0.07830781489610672,0.45411112904548645,-0.21114222705364227,-0.16116060316562653,-0.08709659427404404,0.2582281529903412,-0.21045295894145966,-0.23704421520233154,-0.27522704005241394,1,train
TCGA-FX-A48G-01A,0.49061286449432373,0.014923667535185814,-0.14814895391464233,0.6057961583137512,0.5339921712875366,-0.7581631541252136,-0.20195581018924713,-0.25652754306793213,-0.44363880157470703,0.07855047285556793,-0.1489400714635849,-0.4923434257507324,-0.04083477333188057,-0.5516310930252075,0.7284970879554749,2,train
TCGA-DX-AB2H-01A,0.3475733995437622,-0.6150819659233093,0.4236922860145569,0.14569388329982758,0.21338246762752533,0.7714008092880249,0.1890384405851364,-0.2731446921825409,-0.12093900889158249,0.04628929868340492,0.2996883988380432,-0.42816612124443054,0.022251006215810776,-0.0889376550912857,0.13956394791603088,0,train
TCGA-QQ-A5VD-01A,0.23786328732967377,-0.044485267251729965,0.11694280803203583,-0.479093462228775,0.07157492637634277,-0.15120741724967957,-0.06994737684726715,-0.4099707305431366,0.5145319700241089,0.08389037847518921,0.12288839370012283,0.046256765723228455,0.43388089537620544,0.18669059872627258,0.3523925244808197,2,train
TCGA-3B-A9I0-01A,0.058701835572719574,0.4694715738296509,-0.12472523003816605,-0.1378364861011505,0.6944131255149841,-0.31743404269218445,0.0806877538561821,0.11372652649879456,0.5445011854171753,0.12087761610746384,0.49905911087989807,0.3326537311077118,0.03910024091601372,0.7776432633399963,0.5450220704078674,2,train
TCGA-X6-A8C5-01A,-0.5388384461402893,0.18731394410133362,0.06013276427984238,0.27190133929252625,0.20486752688884735,-0.4409317076206207,0.07069890201091766,-0.4851745367050171,0.6181041598320007,-0.151511088013649,0.7359175086021423,0.13554638624191284,-0.04238991439342499,0.1282459944486618,0.4167778193950653,2,train
TCGA-DX-A3LS-01A,-0.1576613485813141,-0.2308340072631836,0.2753453850746155,-0.04641290009021759,0.316186785697937,-0.1678410917520523,-0.1528589427471161,-0.16217193007469177,-0.015187406912446022,0.1583995670080185,-0.2756385803222656,-0.03548787534236908,-0.30970674753189087,0.045211613178253174,0.08977589756250381,0,train
TCGA-DX-A6BH-01A,0.19691985845565796,-0.218805730342865,0.15106084942817688,0.035392019897699356,0.134698286652565,0.12617290019989014,-0.2323448210954666,-0.17010264098644257,-0.15062591433525085,0.10049912333488464,-0.17400437593460083,0.25719231367111206,0.1891079545021057,0.21663455665111542,0.24553823471069336,0,train
TCGA-JV-A5VF-01A,0.5023995637893677,0.0656728520989418,0.15130659937858582,-0.11400920152664185,-0.2524338364601135,0.5464907288551331,-0.16748298704624176,0.1766575425863266,-0.152307391166687,-0.14150504767894745,-0.2534523010253906,-0.673681378364563,-0.49628499150276184,-0.12393076717853546,-0.6588220596313477,2,train
TCGA-QQ-A5VC-01A,-0.40014609694480896,0.3612881600856781,-0.5089819431304932,-0.5227967500686646,-0.3698959946632385,0.5579604506492615,0.10779014229774475,0.08887172490358353,0.36296918988227844,0.3463726341724396,-0.317380428314209,-0.1547754406929016,0.26287469267845154,-0.7237585783004761,0.12337741255760193,2,train
TCGA-DX-A6Z2-01A,-0.2191157042980194,0.389596164226532,0.15933282673358917,0.4056016206741333,0.804981529712677,-0.5316135287284851,-0.09933146089315414,-0.466722697019577,0.33580833673477173,0.619070827960968,0.5792901515960693,0.20671987533569336,-0.3942220211029053,0.1136600598692894,0.6315981149673462,2,train
TCGA-HS-A5N7-01A,-0.10082535445690155,0.17725111544132233,0.1255628764629364,-0.07604791224002838,-0.05707678571343422,-0.044776201248168945,0.045265890657901764,-0.02437853068113327,0.4665088951587677,0.11021699756383896,0.6720821857452393,-0.08055781573057175,-0.4961882531642914,0.3602049648761749,0.41062411665916443,2,train
TCGA-DX-A6BF-01A,-0.36262521147727966,-0.31044742465019226,-0.09336096793413162,0.06701664626598358,-0.07131630182266235,0.2055850327014923,-0.005469281692057848,0.39436280727386475,-0.21555955708026886,-0.23395197093486786,-0.4050317406654358,0.2537812292575836,-0.4161105453968048,-0.01986776478588581,-0.5972635746002197,0,train
TCGA-DX-A8BN-01A,0.04183938354253769,-0.3426506221294403,-0.35804998874664307,0.24723711609840393,-0.40646883845329285,0.06458298116922379,-0.19376923143863678,0.11998046189546585,0.0031858666334301233,-0.44061705470085144,-0.4311443567276001,0.5372657179832458,-0.6674253344535828,-0.5283352732658386,-0.8001266121864319,3,train
TCGA-FX-A3NK-01A,0.22464416921138763,-0.13209889829158783,0.8604416847229004,0.7247272729873657,0.19076776504516602,0.001594573026522994,-0.11666528880596161,0.0208369642496109,-0.02023838460445404,0.09802809357643127,0.030941341072320938,0.36527019739151,0.08333643525838852,0.30539438128471375,0.11227722465991974,0,train
TCGA-DX-AB2E-01A,-0.3661620020866394,0.335984468460083,-0.07543322443962097,-0.013021749444305897,-0.38881003856658936,0.0012725210981443524,-0.6370139718055725,0.7841237187385559,-0.2494269758462906,-0.25397923588752747,-0.7123521566390991,-0.5174247026443481,0.45736709237098694,0.4173426926136017,-0.8475263118743896,1,train
TCGA-DX-A23V-01A,-0.3518684506416321,-0.6362007856369019,-0.014678907580673695,0.023269720375537872,0.34023064374923706,-0.21108828485012054,-0.0942409336566925,-0.05758953467011452,-0.06435894966125488,0.0776166319847107,-0.2685072124004364,0.31513094902038574,-0.13719166815280914,-0.08896341174840927,0.16159260272979736,0,train
TCGA-DX-A6BB-01A,0.24824021756649017,0.11364508420228958,-0.45960527658462524,0.41187596321105957,-0.3163500726222992,-0.45181548595428467,0.04975052550435066,-0.21762007474899292,0.1575803905725479,-0.19717608392238617,0.5519158244132996,0.30169060826301575,0.12416478246450424,0.15898819267749786,0.7550913691520691,2,train
TCGA-DX-A48U-01A,0.32834044098854065,0.3454858958721161,-0.5312898755073547,0.39932775497436523,0.46512505412101746,-0.5866878032684326,-0.12481516599655151,-0.7281527519226074,0.24539779126644135,0.012823650613427162,0.6756786108016968,0.4765353202819824,-0.043678272515535355,0.28433939814567566,-0.007378395646810532,2,train
TCGA-DX-A3UB-01A,0.297415554523468,-0.09315303713083267,-0.19435268640518188,0.020566295832395554,0.111617811024189,-0.44259074330329895,-0.07610670477151871,0.02349914237856865,-0.11660652607679367,0.10730502009391785,-0.1311953365802765,0.016952315345406532,0.307553231716156,0.1397451013326645,0.15133008360862732,2,train
TCGA-DX-A2IZ-01A,0.03005491942167282,-0.6243254542350769,-0.01420312374830246,0.00728894118219614,-0.030126376077532768,0.5210832357406616,-0.15895730257034302,0.23184826970100403,-0.14270493388175964,-0.018689559772610664,0.12747782468795776,-0.649889349937439,0.9177616238594055,0.6603798270225525,0.3157939314842224,0,train
TCGA-X6-A8C4-01A,0.04815060272812843,0.6419856548309326,-0.38478153944015503,-0.15000158548355103,0.011232297867536545,0.6021027565002441,-0.40161368250846863,0.8263953924179077,0.025757893919944763,0.10281889140605927,-0.7469480037689209,-0.25465553998947144,-0.5189821124076843,-0.02002173475921154,1.0151017904281616,3,train
TCGA-DX-A1L4-01A,0.019005902111530304,-0.008541260845959187,0.3038584291934967,0.002939452650025487,0.14740312099456787,-0.3595060706138611,-0.18300524353981018,-0.12173710763454437,-0.2260027378797531,0.09862282127141953,-0.5248416066169739,0.4236127436161041,0.31900104880332947,-0.1844591498374939,0.25051766633987427,0,train
TCGA-K1-A6RV-01A,-0.027584314346313477,0.4676274061203003,-0.15594090521335602,-0.2387082278728485,-0.7170088887214661,0.46757033467292786,-0.17378239333629608,0.06568151712417603,-0.3467567563056946,-0.13469210267066956,-0.388508677482605,0.046966880559921265,0.3472631871700287,-0.5022376179695129,-0.2925618290901184,2,train
TCGA-MB-A5YA-01A,0.005375805776566267,0.21637803316116333,-0.4051084518432617,0.05029887706041336,0.29530802369117737,-0.274850457906723,0.18171800673007965,-0.07640170305967331,0.6259160041809082,0.5902814865112305,0.3459499478340149,0.3489898145198822,0.25962862372398376,0.47257259488105774,-0.006084904074668884,2,train
TCGA-3B-A9HV-01A,0.7789182662963867,0.06967806816101074,-0.08861938863992691,0.7741073966026306,-0.21116045117378235,-0.21082966029644012,0.4718027412891388,-0.5478194355964661,0.03082437813282013,0.2663334012031555,0.3858030140399933,-0.9248213768005371,-0.13926561176776886,-0.541533350944519,0.4724275767803192,2,train
TCGA-DX-AB2T-01A,-0.5453340411186218,-0.35470661520957947,-0.08262857794761658,-0.45039549469947815,-0.06992943584918976,0.09832543134689331,0.4310676157474518,0.5656808018684387,-0.39777398109436035,-0.11081039160490036,-0.004240610636770725,0.3519829511642456,0.10563355684280396,-0.4547879993915558,-0.6107292175292969,1,train
TCGA-X6-A8C6-01A,0.11560899019241333,-0.018960271030664444,0.2547008991241455,0.24162247776985168,-0.7300918102264404,0.19688843190670013,-0.8207000494003296,0.529151976108551,-0.3649754822254181,-0.38483914732933044,-0.0010481743374839425,0.4877549409866333,-0.06858222931623459,-0.22542396187782288,-0.6301208138465881,1,train
TCGA-3B-A9HR-01A,-0.2685779631137848,0.11021488904953003,-0.7662724852561951,-0.3685336410999298,-0.24476416409015656,-0.0388055182993412,0.23465025424957275,0.28917431831359863,0.5725128054618835,-0.48926547169685364,0.7706173062324524,-0.057947661727666855,-0.11855939030647278,0.06644659489393234,-0.4384896159172058,2,train
TCGA-DX-A1KX-01A,-0.4744650721549988,-0.5386074185371399,-0.02764960750937462,0.1539703905582428,-0.6929844617843628,-0.14017897844314575,-0.5519790053367615,0.6478517055511475,0.1477777361869812,-0.15725216269493103,-0.23092404007911682,0.3060096800327301,0.04219206050038338,-0.4282771348953247,-0.5551461577415466,0,train
TCGA-X6-A7W8-01A,0.05212575942277908,0.5045233964920044,0.0075880419462919235,-0.14060623943805695,-0.20546981692314148,0.2573598027229309,0.1313381940126419,0.13991808891296387,0.33281081914901733,-0.44850537180900574,-0.6788899898529053,0.12912003695964813,0.1210448294878006,-0.06091182678937912,0.5232087969779968,1,train
TCGA-DX-A3U7-01A,-0.21020685136318207,0.15912722051143646,-0.5026912093162537,-0.583441436290741,-0.2497432380914688,0.06171681731939316,0.15325625240802765,0.060727402567863464,-0.34345340728759766,-0.1489177942276001,0.4946386516094208,-0.17987199127674103,0.3144240081310272,0.7677409052848816,-1.0410820245742798,2,train
TCGA-DX-A6YQ-01A,-0.47492358088493347,0.28747615218162537,0.119466133415699,0.12160252779722214,-0.745775043964386,0.32507380843162537,0.2136678695678711,0.3493335247039795,0.2281343936920166,-0.281792014837265,-0.2874344289302826,0.08206048607826233,-0.3413103520870209,-0.25285574793815613,-0.4962064325809479,1,train
TCGA-DX-AB3A-01A,0.3678918778896332,-0.4594009816646576,0.27766886353492737,0.11018078029155731,-0.1712195724248886,0.4072754383087158,-0.2642429769039154,-0.3810793459415436,-0.04061068221926689,0.10095249116420746,0.03921708092093468,0.4114723205566406,0.24887332320213318,-0.15337738394737244,0.03895246982574463,0,train
TCGA-X6-A8C3-01A,-0.7376667261123657,0.24163316190242767,-0.03669183328747749,-0.001275027054361999,-1.2094361782073975,0.04423386603593826,0.18190984427928925,-0.05690087378025055,0.18997831642627716,-0.17412693798542023,-0.34427610039711,-0.14574642479419708,-0.12062839418649673,-0.10096065700054169,0.20297591388225555,1,train
TCGA-DX-AB30-01A,0.44771379232406616,-0.5947006940841675,0.4854283034801483,0.1894870400428772,0.08503535389900208,0.8313876390457153,-0.3445592522621155,-0.2558266818523407,0.00785673689097166,0.1020980030298233,0.41662803292274475,-0.6612113118171692,-0.006852000951766968,-0.09844128042459488,0.22944845259189606,1,train
TCGA-K1-A42X-02A,0.11516852676868439,-0.3458033502101898,-0.2568897306919098,-0.046326570212841034,-0.058440063148736954,-0.9111334681510925,-0.2010873258113861,-0.2575123608112335,-0.267642617225647,0.08771328628063202,0.4196832478046417,-0.9436218738555908,0.47242555022239685,-0.5843294262886047,0.42587563395500183,2,train
TCGA-FX-A3NJ-01A,0.29208943247795105,0.07453770935535431,-0.04446041211485863,-0.06713131070137024,0.4658973217010498,-0.5210317373275757,-0.08076529949903488,-0.25291264057159424,0.3823544383049011,-0.025962991639971733,0.7287222743034363,0.6016861796379089,0.2624211311340332,-0.09742395579814911,-0.11295733600854874,2,train
TCGA-DX-A1L3-01A,-0.47921159863471985,-0.32644423842430115,-0.15543238818645477,0.06240857020020485,0.3559724688529968,-0.11593922227621078,-0.07173708081245422,-0.09225723147392273,-0.09364339709281921,0.10459116846323013,-0.5332589745521545,0.18491899967193604,-0.14922058582305908,-0.011867848224937916,0.13426020741462708,0,train
TCGA-X2-A95T-01A,0.6268596053123474,-0.14727450907230377,-0.21196456253528595,-0.17792703211307526,1.0348443984985352,-0.6237637400627136,0.6104604005813599,0.4243564307689667,0.27070677280426025,-0.1654960662126541,0.31824830174446106,-0.4097595512866974,0.3928922712802887,-0.5753171443939209,-0.04545445367693901,2,train
TCGA-WK-A8XX-01A,-0.060303911566734314,0.28944554924964905,-0.1276068389415741,-0.1051776334643364,0.4820249676704407,-0.23523539304733276,0.3789355456829071,0.727817177772522,-0.4601432681083679,-0.2059342861175537,0.619376003742218,0.0509924553334713,0.21305908262729645,0.7629370093345642,-0.43014591932296753,2,train
TCGA-DX-A1KW-01A,0.5519989728927612,-0.5743372440338135,0.1323958933353424,0.44142478704452515,-0.49891573190689087,0.19762477278709412,-0.5304903388023376,0.22856098413467407,-0.05121510103344917,-0.12329146265983582,-0.38637879490852356,0.1638801395893097,-0.29295405745506287,0.5931797623634338,0.17606225609779358,0,train
TCGA-VT-A80J-01A,-1.5638952255249023,-0.09645584225654602,-0.4061148762702942,-0.5487203001976013,-0.9224879741668701,-0.24569299817085266,-0.8538264632225037,-3.2114787101745605,-1.5347673892974854,0.6730068325996399,-0.024990102276206017,-0.5488853454589844,0.7505234479904175,-0.27225321531295776,2.1063077449798584,3,train
TCGA-DX-A6B7-01A,0.4052242636680603,0.17495955526828766,-0.45109322667121887,0.5368111729621887,0.1498717963695526,-0.6137515902519226,0.06811199337244034,-0.6850318312644958,0.5051776766777039,0.12039890885353088,0.46195465326309204,0.37639349699020386,-0.04590073227882385,0.3188551068305969,0.3191622197628021,2,train
TCGA-3R-A8YX-01A,-0.25510355830192566,0.2375098168849945,-0.2183244526386261,0.03232710063457489,-0.6750895977020264,0.2670598030090332,-0.7431917786598206,0.9077984094619751,-0.2668415307998657,-0.37334081530570984,-0.6772463321685791,-0.16842111945152283,0.07556267827749252,0.5995140671730042,-0.8182175755500793,0,train
TCGA-DX-A2J0-01A,-0.06725341826677322,-0.33757126331329346,0.5455774068832397,-0.04705425724387169,0.7064173221588135,0.4225526452064514,-0.35909736156463623,0.052702397108078,-0.19309844076633453,0.0972229391336441,0.14289166033267975,0.06443136930465698,-0.24723775684833527,0.05871685966849327,0.6485345363616943,0,train
TCGA-IE-A4EH-01A,0.41944223642349243,-0.006502983625978231,-0.500278115272522,0.5992860794067383,0.9721234440803528,-0.6790106892585754,0.4725201427936554,-0.4508335292339325,-0.020227236673235893,-0.4417473375797272,0.041557539254426956,-0.7102087140083313,0.031127069145441055,-0.26533180475234985,0.35019803047180176,2,train
TCGA-X6-A8C2-01A,0.5534529089927673,0.6610099077224731,0.24316419661045074,-0.08883968740701675,0.544048547744751,0.6668825149536133,0.20363673567771912,0.3059673607349396,-0.4640655517578125,-0.13325536251068115,-0.3030211627483368,0.176051065325737,-0.2422834038734436,-0.15459781885147095,-0.5417174100875854,3,train
TCGA-JV-A5VE-01A,0.349498450756073,0.0753069519996643,0.22302085161209106,0.17386507987976074,0.3174888789653778,-0.6246418952941895,0.6610820293426514,-0.4260762929916382,0.5574020147323608,0.1225850060582161,-0.03284331038594246,-0.4567185640335083,-0.24883460998535156,-0.19484256207942963,-0.011255279183387756,2,train
TCGA-3B-A9HJ-01A,-0.17399734258651733,0.09275750815868378,0.7682850956916809,-0.21971502900123596,0.1421654373407364,-0.5697951316833496,-0.2608170807361603,-0.15891331434249878,-0.22434590756893158,0.14194265007972717,-0.35802391171455383,0.3794642388820648,0.23415501415729523,0.20751328766345978,0.292947918176651,0,train
TCGA-WP-A9GB-01A,0.3121334910392761,-0.12510819733142853,-0.3798754811286926,1.0218985080718994,-0.6320401430130005,-0.5879436135292053,-0.010906805284321308,-0.08544427901506424,-0.391414612531662,-0.2030019760131836,0.5338051915168762,-0.9813248515129089,0.03391547128558159,-0.4275761842727661,-0.09601467847824097,2,train
TCGA-DX-A48P-01A,-0.3717288076877594,0.11044998466968536,-0.27534762024879456,0.33297404646873474,0.6467654705047607,-0.6207165122032166,0.07115951180458069,-0.04183042049407959,0.35688191652297974,0.08768016844987869,0.7275463938713074,0.1780053675174713,7.192100019892678e-05,-0.06806387007236481,0.7819773554801941,2,train
TCGA-DX-A1L0-01A,0.02454804629087448,-0.6155271530151367,0.18994994461536407,0.2792206108570099,-0.04924127086997032,0.7939107418060303,0.4043198227882385,0.42805951833724976,-0.29311707615852356,-0.2547973394393921,0.07405197620391846,0.21168604493141174,0.48785990476608276,0.333628386259079,-0.25240886211395264,0,train
TCGA-K1-A3PN-01A,-0.06367874890565872,0.2000516951084137,-0.25942593812942505,-0.1796947568655014,0.5368718504905701,-0.12672409415245056,0.042101308703422546,-0.2510158121585846,0.6863974332809448,-0.7066489458084106,0.6994951963424683,-0.19438108801841736,-0.3476053774356842,0.5438235402107239,-0.1309029757976532,2,train
TCGA-DX-A8BZ-01A,-0.38845765590667725,0.18583570420742035,-0.4443850517272949,-0.03643587976694107,0.7656642198562622,0.2339865118265152,0.05694369971752167,-0.11233192682266235,0.34198886156082153,0.43267321586608887,-0.6692853569984436,0.04695368558168411,0.12099075317382812,-0.4267894923686981,-0.44091519713401794,2,train
TCGA-DX-A7EF-01A,-0.5215560793876648,0.18500640988349915,-0.44017404317855835,0.09760236740112305,-0.2383180856704712,0.5304144620895386,-0.4618503153324127,0.5387846231460571,-0.012337760999798775,-0.31566953659057617,-0.25577643513679504,-0.10568661242723465,0.2989175617694855,-0.5512651801109314,-0.8425326943397522,3,train
TCGA-DX-AB36-01A,0.3019999563694,-0.04227492958307266,-0.16009855270385742,0.16155491769313812,0.11810886114835739,0.09547727555036545,-0.15340584516525269,-0.1290031373500824,-0.18012648820877075,0.09238862246274948,-0.4041255712509155,0.2409425526857376,0.31847575306892395,-0.2753369212150574,0.20692580938339233,0,train
TCGA-DX-A3LT-01A,0.30836841464042664,0.39210498332977295,0.40261897444725037,0.18937161564826965,1.0444412231445312,0.38763803243637085,-0.38640931248664856,-0.5653481483459473,-0.05430455133318901,0.41628581285476685,-0.4958013594150543,0.4228447675704956,-0.011536595411598682,0.09804680198431015,0.3050762712955475,0,train
TCGA-KD-A5QT-01A,0.023512449115514755,-0.26619619131088257,-0.33376118540763855,-0.12855085730552673,0.3250153064727783,-0.7083438634872437,0.20366036891937256,-0.5414609313011169,0.04480466619133949,-0.14029249548912048,0.45885589718818665,-1.0706770420074463,0.6997964978218079,-0.2704017162322998,0.10701936483383179,2,train
TCGA-DX-A8BH-01A,-0.3445109724998474,0.47325921058654785,0.24483761191368103,-0.02252875082194805,-0.05778012052178383,0.005731950514018536,0.015597478486597538,0.18921835720539093,0.04313357174396515,0.17249839007854462,-0.5024575591087341,0.3909079432487488,0.46064889430999756,-0.1754441112279892,-0.2206815630197525,3,train
TCGA-DX-A3LY-01B,0.055165231227874756,-0.33011722564697266,-0.037658996880054474,-0.006043928675353527,-0.28154176473617554,-7.50157269067131e-05,-0.33649933338165283,0.4011329412460327,-0.2558134198188782,-0.2451559454202652,-0.4899969696998596,0.1774478405714035,-0.054092951118946075,0.6023746132850647,-0.4627615809440613,0,train
TCGA-KD-A5QU-01A,0.3791213929653168,0.44737863540649414,0.04283000901341438,0.3876660466194153,1.0634329319000244,0.07523784041404724,2.365885019302368,-0.5536106824874878,-0.908094048500061,-0.06522058695554733,0.3999069631099701,-0.4604995846748352,-0.20812611281871796,-0.2531154751777649,0.22291596233844757,2,train
TCGA-KD-A5QS-01A,0.18143947422504425,0.39856332540512085,-0.2122654765844345,0.06458386033773422,-0.04478193074464798,0.19760887324810028,-0.2542493939399719,0.03163900226354599,-0.4756762683391571,-0.40852120518684387,-0.0451529324054718,-0.22599045932292938,-0.43206727504730225,-0.5552940964698792,0.32771819829940796,2,train
TCGA-IW-A3M6-01A,0.10460102558135986,0.07733003795146942,0.2693629562854767,0.4082682728767395,0.2323874831199646,-0.3276202380657196,0.206691712141037,-0.7014151215553284,-0.32220908999443054,0.13947473466396332,0.00716271810233593,-0.4716476798057556,-0.27725788950920105,0.11180534213781357,0.23295849561691284,2,train
TCGA-DX-A240-01A,0.12935099005699158,-0.21808618307113647,-0.28260886669158936,0.3661785423755646,0.10391879081726074,-0.01629222370684147,0.002625186461955309,0.21489179134368896,-0.12119995057582855,0.03392232581973076,-0.30136537551879883,-0.12862485647201538,0.5814639925956726,-0.2279038280248642,0.1404460221529007,0,train
TCGA-IE-A6BZ-01A,-0.2344626784324646,-0.21109355986118317,-0.25797927379608154,0.3878345787525177,-0.7580809593200684,0.42127206921577454,0.1067291647195816,0.31698331236839294,-0.1650010496377945,0.029920272529125214,-0.28616467118263245,0.49290043115615845,-0.5173459053039551,-0.4299609363079071,-0.18661761283874512,3,train
TCGA-DX-A8BX-01A,-0.050098713487386703,-0.36179259419441223,-0.13615694642066956,0.40468138456344604,-0.6003096699714661,0.4079253673553467,-0.06490099430084229,0.014048214070498943,-0.3604412078857422,0.2853271961212158,-0.34775540232658386,0.40522655844688416,0.21669383347034454,0.11341936886310577,0.02108227275311947,3,train
TCGA-WK-A8XO-01A,-0.5190404057502747,-0.24723707139492035,0.035362716764211655,-0.3972034454345703,0.32156476378440857,-0.24485433101654053,0.0018168381648138165,-0.3583109676837921,0.46428361535072327,0.537955105304718,-0.3752676546573639,-0.32160741090774536,0.23345063626766205,0.23439370095729828,0.17672869563102722,0,train
TCGA-IS-A3K7-01A,-0.2324194312095642,0.11130166053771973,0.141529381275177,0.7216341495513916,0.3156547546386719,-0.07280490547418594,0.022626295685768127,-0.8917238712310791,0.3252066373825073,0.5480837225914001,-0.5110366940498352,-0.3590068817138672,-0.05738929286599159,-0.12992744147777557,0.2491035759449005,2,train
TCGA-PC-A5DN-01A,0.017608145251870155,-0.4494974911212921,0.42776620388031006,0.01787582039833069,0.19649159908294678,0.2130274772644043,-0.24671122431755066,-0.14849434792995453,0.007497292011976242,0.1304110884666443,0.29592007398605347,-0.27899467945098877,-0.12496998906135559,0.008557942695915699,0.1838451325893402,2,train
TCGA-X9-A971-01A,-0.25603774189949036,0.12849579751491547,-0.46049007773399353,-0.06277589499950409,0.22494331002235413,0.4046851098537445,-0.07348909229040146,0.09406504780054092,0.08964181691408157,0.175653874874115,0.47430816292762756,-0.5040588974952698,0.006621992215514183,0.7917609214782715,0.05015677586197853,2,train
TCGA-DX-A7ES-01A,-0.3735908567905426,-0.16886959969997406,0.5000392198562622,-0.1298588365316391,0.2700994908809662,-0.40334656834602356,-0.1795576810836792,-0.08371258527040482,-0.05573101341724396,0.15326698124408722,-0.025198636576533318,0.11060725152492523,-0.11617770791053772,-0.08229658752679825,0.17398370802402496,0,train
TCGA-VT-AB3D-01A,-0.11707539856433868,0.26417800784111023,1.1195684671401978,-0.3016795814037323,0.3378812372684479,0.08879635483026505,2.4942383766174316,-0.4160645008087158,-0.49524804949760437,0.05804057419300079,-0.19135768711566925,0.6696222424507141,0.25119948387145996,0.0927923172712326,0.16142632067203522,3,train
TCGA-FX-A2QS-01A,0.24108393490314484,-0.38112321496009827,0.5412843823432922,0.1484854817390442,-0.5477211475372314,0.5600793361663818,-0.29303935170173645,-0.007045831996947527,0.3776227533817291,0.10227091610431671,-0.14390377700328827,-0.4505803883075714,-0.5327813029289246,0.8249461054801941,-0.5045627355575562,0,train
TCGA-3B-A9HI-01A,-0.21816541254520416,0.018230779096484184,0.29400813579559326,0.129378080368042,-0.31323498487472534,0.03467699885368347,0.03780100494623184,0.13178589940071106,0.11654987186193466,-0.4073236882686615,-0.1290244460105896,0.5730547904968262,0.5905415415763855,-0.3936963677406311,-0.6042146682739258,0,train
TCGA-3B-A9HO-01A,-0.2910691797733307,-0.2000819891691208,0.24139653146266937,-0.11672712862491608,-0.3224359154701233,-0.40948617458343506,-0.5495529174804688,0.6014434099197388,-0.2974800169467926,-0.03732125088572502,-0.5355972647666931,0.41155287623405457,0.22916282713413239,0.3761482238769531,-0.418354868888855,0,train
TCGA-DX-A8BO-01A,-0.10314544290304184,0.06668154150247574,-0.08417019993066788,-0.36930757761001587,-0.11278001219034195,-0.19442178308963776,-0.15234388411045074,-0.46104124188423157,-0.06283623725175858,0.48303934931755066,-0.6378338932991028,0.3109288215637207,-0.8128442764282227,0.13798832893371582,0.6318627595901489,3,train
TCGA-MB-A5Y8-01A,0.18322598934173584,0.4500206410884857,0.00469382107257843,0.12169745564460754,0.9392722249031067,0.37888339161872864,0.031209345906972885,-0.19969072937965393,0.5034506916999817,0.6154882907867432,-0.6901084184646606,-0.06882920116186142,-0.4861624240875244,-0.07658077031373978,0.26334112882614136,3,train
TCGA-MJ-A68J-01A,-0.39978981018066406,-0.317457914352417,-0.06601778417825699,-0.0020537003874778748,0.33136311173439026,-0.3310099244117737,-0.07438458502292633,-0.03633245825767517,-0.07305319607257843,0.11410371214151382,-0.31670260429382324,0.2969858646392822,-0.1189015656709671,-0.24774324893951416,0.13328975439071655,1,train
TCGA-QC-A7B5-01A,0.3058547079563141,0.5874128341674805,0.3173792064189911,0.018511252477765083,-0.23405574262142181,0.1540345996618271,-0.6178683042526245,0.030220413580536842,-0.466646283864975,-0.1304633617401123,-0.43311819434165955,-0.006261602975428104,-0.1980188637971878,-0.02038711868226528,-0.1388787478208542,3,train
TCGA-VT-A80J-02A,-1.1601142883300781,0.12939968705177307,-0.22327885031700134,-0.11980447918176651,-1.162187099456787,0.16137033700942993,-0.06511007249355316,-0.6565349698066711,-0.05084609240293503,0.15870274603366852,-0.4115940034389496,-0.4599168598651886,0.34018757939338684,0.23363354802131653,0.3985414206981659,3,train
TCGA-DX-AB32-01A,0.23207975924015045,0.036788955330848694,0.7927373647689819,-0.11769836395978928,0.3460301160812378,-0.2219829559326172,0.3274213671684265,-0.7530432939529419,0.26357901096343994,0.5426945090293884,-0.4113582670688629,0.6947557926177979,0.07337874174118042,-0.03741997852921486,0.159980908036232,1,train
TCGA-N1-A6IA-01A,0.17839114367961884,0.05686920881271362,-0.0074942405335605145,-0.04911748319864273,-0.3596993386745453,0.10561782866716385,0.38594716787338257,0.5253939628601074,-0.004615178797394037,-0.3576437830924988,-0.19986814260482788,-0.5844210386276245,-0.3225882947444916,-0.18665488064289093,-0.10242617875337601,2,train
TCGA-X6-A7WB-01A,0.7661784887313843,-0.010082686319947243,-0.27122777700424194,-0.3762829601764679,0.21493984758853912,-0.3090837895870209,0.26175346970558167,-0.4530452489852905,-0.09725214540958405,0.16628961265087128,0.2551620602607727,-0.655501127243042,-0.23576720058918,0.3039783537387848,0.006671600043773651,2,train
TCGA-DX-A1L2-01A,-0.08980502933263779,-0.325188547372818,-0.20223195850849152,-0.0037917608860880136,-0.5403415560722351,0.18331387639045715,-0.06314463168382645,0.42625120282173157,-0.3787192404270172,-0.31150391697883606,-0.15414023399353027,0.5008954405784607,0.013919448480010033,-0.23458200693130493,-0.11285640299320221,0,train
TCGA-SG-A6Z7-01A,0.1087494045495987,-0.7618604302406311,0.3816080391407013,-0.3416665494441986,-0.06967576593160629,0.9267603158950806,-0.48669105768203735,0.448105126619339,0.19950880110263824,0.015052939765155315,0.5623665452003479,-0.7703631520271301,0.656376302242279,-0.44554105401039124,-0.3513530194759369,0,train
TCGA-3B-A9HP-01A,0.09572786837816238,-0.06401962786912918,-0.015123329125344753,0.14853505790233612,0.4260728359222412,-0.5396480560302734,0.1397036761045456,-0.36484619975090027,0.7254782915115356,0.6338412165641785,0.30087584257125854,-0.05154703930020332,-0.4142973721027374,0.2377103865146637,-0.08997490257024765,2,train
TCGA-DX-A3U6-01A,-0.19136206805706024,-0.05020223185420036,0.7990880608558655,-0.34458497166633606,0.4028399884700775,-0.5204294919967651,-0.18426667153835297,-0.18497923016548157,0.04401492699980736,0.229515939950943,-0.4052959084510803,0.2702983021736145,-0.613628089427948,0.06518502533435822,0.008011560887098312,0,train
TCGA-DX-A3U9-01A,0.1065436527132988,0.4164333641529083,-0.34096115827560425,0.3857731521129608,0.42364516854286194,0.25308099389076233,0.29965731501579285,-0.6549367308616638,0.04798399657011032,-0.09740535169839859,0.5803277492523193,0.10321636497974396,0.5495425462722778,-0.07823550701141357,0.03525703772902489,2,train
TCGA-DX-A1L1-01A,-0.2629285752773285,-0.039775583893060684,0.6472688317298889,-0.17226412892341614,-0.012674455530941486,-0.13181930780410767,0.2590636610984802,-0.42831921577453613,-0.23116599023342133,0.11695995181798935,-0.43241822719573975,0.17793315649032593,0.1896028220653534,0.6650320887565613,-0.04289191961288452,0,train
TCGA-DX-A23U-01A,0.18350087106227875,0.051469363272190094,-0.11794884502887726,0.1514783799648285,0.14320166409015656,0.07012191414833069,-0.15779481828212738,-0.1349450945854187,-0.1886189877986908,0.10748152434825897,-0.4642558693885803,0.27521124482154846,0.26683157682418823,-0.3429625928401947,0.20418043434619904,0,train
TCGA-DX-A6YV-01A,0.27869075536727905,0.20828688144683838,-0.052290331572294235,0.0698915496468544,-0.347025990486145,0.6980310678482056,-0.10009603202342987,0.5868869423866272,-0.32960888743400574,-0.25229793787002563,-0.03252042084932327,0.6414236426353455,-0.13594019412994385,-0.5150653123855591,-0.07933548837900162,1,train
TCGA-DX-A48R-01A,0.12419886887073517,0.30377599596977234,-0.5209552645683289,0.3502447307109833,-0.2681474983692169,-0.018332773819565773,0.508964478969574,-0.9808573722839355,0.44847410917282104,-0.7782739400863647,0.7079254984855652,-0.212565079331398,0.4096853733062744,0.5020318627357483,-0.43009597063064575,2,train
TCGA-DX-A6YZ-01A,-0.15856769680976868,0.1349116712808609,-0.10032232105731964,-0.23586229979991913,-0.1656968742609024,0.212074875831604,-0.6499843001365662,-0.056178703904151917,0.09287279844284058,0.16022950410842896,-0.1558634638786316,0.45206987857818604,0.2887324392795563,-0.14660800993442535,-0.4571250081062317,1,train
TCGA-DX-A48J-01A,0.10696844011545181,0.042373813688755035,-0.23341292142868042,0.25161197781562805,0.04112778231501579,-0.5527457594871521,-0.21184565126895905,-0.22937729954719543,-0.2006443589925766,0.13911660015583038,0.8154253363609314,0.49511975049972534,0.27301841974258423,-0.029935816302895546,0.381855845451355,2,train
TCGA-DX-A1KZ-01A,0.2213784158229828,-0.21629106998443604,-0.02192636765539646,-0.12687553465366364,0.0078710513189435,-0.21756194531917572,-0.7106110453605652,0.11459743231534958,-0.27713829278945923,-0.1572379469871521,-0.5339663028717041,0.3209477663040161,-0.07748604565858841,0.33849042654037476,-0.7441595196723938,0,train
TCGA-DX-A3U5-01A,-0.18548905849456787,-0.32629671692848206,-0.16613459587097168,0.29675915837287903,0.2975102961063385,0.15952910482883453,-0.00010677325917640701,-0.4189338684082031,-1.0314393043518066,-0.015848170965909958,-0.34244304895401,0.31190887093544006,0.26829877495765686,0.32669344544410706,0.26454344391822815,0,train
TCGA-3B-A9I1-01A,0.38360875844955444,-0.138919398188591,-0.3275461494922638,0.06636906415224075,-0.07170289009809494,-0.6552426815032959,0.560119092464447,0.44762805104255676,-0.3364517092704773,0.2760755121707916,0.17831213772296906,-0.6817529797554016,-0.23580020666122437,-0.07259940356016159,-0.5012685656547546,2,train
TCGA-IE-A4EK-01A,-0.022406460717320442,0.08955357223749161,-0.6899499297142029,0.36761078238487244,0.44746845960617065,-0.44125840067863464,-0.07405760139226913,-0.35714492201805115,0.14343927800655365,0.3935534656047821,0.771496057510376,0.27886098623275757,0.5956078171730042,0.24432626366615295,-0.05380120500922203,2,train
TCGA-HB-A2OT-01A,0.06005663797259331,0.23637636005878448,-0.005287498701363802,0.032563891261816025,0.22111327946186066,0.1795593500137329,0.6030957698822021,-0.019082561135292053,0.2009437084197998,0.7759560942649841,-0.4814872443675995,0.10227031260728836,-0.3601854741573334,-0.5694491267204285,0.004446043632924557,3,train
TCGA-MO-A47R-01A,0.09585800021886826,-0.1142369955778122,0.09436524659395218,0.39410799741744995,-0.6181673407554626,0.3712157905101776,-0.6192018389701843,0.17508786916732788,-0.0990242138504982,-0.07020480930805206,0.15083591639995575,-0.584623396396637,-0.11847984045743942,0.1952020674943924,0.3132052719593048,2,train
TCGA-X9-A973-01A,0.2584563195705414,-0.29057610034942627,0.051748938858509064,0.12103806436061859,-0.16021262109279633,0.12319464236497879,-0.17113400995731354,-0.31790465116500854,-0.07009267061948776,0.10352808237075806,-0.28428399562835693,0.17779505252838135,0.31598758697509766,0.013588370755314827,-0.00855935923755169,3,train
TCGA-X6-A7WC-01A,0.02777853049337864,0.4336959421634674,0.14896729588508606,-0.5769225358963013,-0.9208351969718933,0.5679792165756226,-0.30428779125213623,0.39705562591552734,0.1297343671321869,-0.25820082426071167,-0.2454320341348648,-0.058879852294921875,0.12566831707954407,-0.10515954345464706,-0.1788686066865921,2,train
TCGA-3B-A9HT-01A,-0.12357145547866821,0.2876383364200592,0.6047261953353882,-0.1761160045862198,-0.2098071426153183,-0.46373993158340454,-0.4506224989891052,0.2682414650917053,-0.2375182956457138,-0.0272123534232378,-0.32776784896850586,0.13091686367988586,0.24020111560821533,0.10132196545600891,-0.11214469373226166,2,train
TCGA-DX-A1KU-01A,0.3002162277698517,-0.04766581207513809,0.2907164990901947,0.03783580660820007,-0.24221667647361755,0.11735892295837402,-0.5633594393730164,-0.11711157858371735,-0.24081605672836304,-0.07660362124443054,-0.27487146854400635,0.2071608453989029,-0.031427670270204544,0.17868855595588684,-0.43961572647094727,0,train
TCGA-DX-A3U8-01A,-0.10582087188959122,0.3042798936367035,0.2244313508272171,-0.09743181616067886,0.31636038422584534,-0.21371902525424957,-0.3047722578048706,-0.1833362579345703,-0.3656032979488373,0.0784522294998169,-0.44579312205314636,-0.022626852616667747,0.24230371415615082,0.27891966700553894,0.03649041801691055,2,train
TCGA-HB-A3L4-01A,0.8574129343032837,0.02230510115623474,-0.03205123916268349,0.24234230816364288,0.19923831522464752,-0.2172752171754837,0.38049569725990295,-0.32942914962768555,-0.015938110649585724,-0.10971786826848984,0.2916620373725891,-0.5347931981086731,-0.36727774143218994,-0.6820974349975586,-0.005745286587625742,2,train
TCGA-IS-A3KA-01A,-0.5888020396232605,0.21710941195487976,-0.1308082640171051,0.5192406177520752,0.11140115559101105,-0.04249522089958191,0.27338603138923645,0.084699347615242,-0.7050462961196899,-0.26553261280059814,0.09070546925067902,-0.6012862920761108,0.4848540127277374,-0.3530838191509247,-0.3372038006782532,2,train
TCGA-FX-A76Y-01A,0.5454314947128296,-0.012038490734994411,-0.21903005242347717,0.2719498872756958,0.7953834533691406,-0.7887127995491028,0.16265882551670074,0.02680104970932007,0.5176541209220886,0.5486493110656738,0.1768430769443512,-0.15167219936847687,-0.15475434064865112,-0.5735331177711487,0.3137052059173584,2,train
TCGA-MB-A8JL-01A,-0.17290841042995453,-0.3609297573566437,0.5631681680679321,0.06401674449443817,-0.18149319291114807,0.38635116815567017,-0.0630052462220192,-0.014324884861707687,0.19965989887714386,0.22343820333480835,-0.07575704902410507,-0.620160698890686,0.21187616884708405,0.36594316363334656,0.5632997155189514,2,train
TCGA-KF-A41W-01A,0.15312643349170685,0.1703316569328308,0.3411489725112915,-0.0812435895204544,-0.2922947108745575,0.16878440976142883,0.6992210149765015,0.666607677936554,0.11156682670116425,0.016840750351548195,-0.0932706668972969,-0.3644523620605469,-0.3812044560909271,-0.13683372735977173,0.372182160615921,2,train
TCGA-HS-A5N8-01A,0.41355055570602417,-0.17072686553001404,0.3769538998603821,0.2523084878921509,0.15116581320762634,0.27002862095832825,-0.3749053478240967,0.166622132062912,0.20195375382900238,0.1770355999469757,0.042973656207323074,-0.4030373692512512,-0.08505789190530777,-0.35730382800102234,-0.005063184536993504,2,train
TCGA-DX-A6BG-01A,0.07787155359983444,0.14951705932617188,0.3919978439807892,-0.040704015642404556,0.10716639459133148,-0.3558231294155121,-0.20811383426189423,-0.11605407297611237,-0.19521033763885498,0.13769051432609558,-0.32042473554611206,0.2011004090309143,0.2949855923652649,-0.20049355924129486,0.23733100295066833,0,train
TCGA-DX-A3M1-01A,-0.034161169081926346,-0.2738695442676544,0.2664624750614166,-0.3180250823497772,-0.35990357398986816,0.8204032778739929,-0.278576523065567,0.42537209391593933,-0.33978867530822754,-0.12056417018175125,0.19373510777950287,0.1469355970621109,0.5306180119514465,-0.12640465795993805,-0.38546299934387207,0,train
TCGA-K1-A3PN-02A,0.10425088554620743,0.21438069641590118,-0.6101274490356445,-0.6527212858200073,0.9628360271453857,-0.008520237170159817,-0.11849240213632584,-0.15101836621761322,0.44432446360588074,-0.7361735105514526,0.5381693243980408,-0.32642677426338196,-0.3862989544868469,0.5754891633987427,0.3705405592918396,2,train
TCGA-WK-A8XS-01A,-0.14736108481884003,-0.056388210505247116,-0.1359495371580124,0.35562020540237427,-0.25018638372421265,-0.09695084393024445,0.35398080945014954,0.44833269715309143,0.6224901676177979,-0.5604442358016968,0.5853197574615479,-0.4662913978099823,-0.019507724791765213,0.24013280868530273,-0.5256396532058716,2,train
TCGA-DX-A8BG-01A,-0.6325601935386658,-0.09561711549758911,0.43612048029899597,-0.1781458556652069,-0.33994749188423157,-0.19167129695415497,0.6300542950630188,0.2586021423339844,0.0755513533949852,-0.5417569875717163,-0.21002310514450073,0.27483418583869934,-0.09073054045438766,-0.11429470777511597,-0.8034696578979492,1,train
TCGA-WK-A8Y0-01A,-0.33040934801101685,0.48364612460136414,0.13010932505130768,-0.674393355846405,0.12116838246583939,0.18421609699726105,-0.3527831435203552,0.23208613693714142,-0.48498573899269104,-0.4798359274864197,-0.2074090838432312,-0.17276661098003387,-0.37945953011512756,-0.1410915106534958,-0.4292801320552826,3,train
TCGA-IE-A4EI-01A,-0.10747791081666946,-0.1315222531557083,-0.6591721773147583,0.09014637768268585,-0.2518531382083893,-0.21432191133499146,0.2646057605743408,0.007015545852482319,0.5581001043319702,0.3624580204486847,0.5294167399406433,-0.2993173897266388,-0.3795935809612274,0.6246663928031921,-0.008527583442628384,2,train
TCGA-DX-AATS-01A,0.19253888726234436,0.3635227680206299,0.11990131437778473,0.16056203842163086,-0.6526718735694885,0.7636991143226624,-0.9087750315666199,0.18236801028251648,0.14389172196388245,-0.17960473895072937,0.02181163802742958,0.16468778252601624,0.2174863964319229,-0.3998851180076599,-0.7086668610572815,3,train
TCGA-DX-A48L-01A,-0.04163261502981186,0.2857044041156769,-0.607631504535675,-0.03948371112346649,0.24505724012851715,0.2234930396080017,-0.12547755241394043,-0.10144747793674469,0.328165739774704,-0.4884532392024994,0.6103251576423645,0.006408122833818197,-0.6650334000587463,0.3953942656517029,0.13379693031311035,2,train
TCGA-K1-A3PO-01A,0.2245393693447113,-0.06937970221042633,0.49459123611450195,-0.11770504713058472,0.05830489844083786,-0.41519811749458313,-0.22904597222805023,-0.031458768993616104,-0.1413644403219223,0.12369157373905182,0.16458554565906525,0.25947386026382446,0.3732002079486847,-0.18487197160720825,0.26433679461479187,2,train
TCGA-DX-A6YU-01A,-0.2985028922557831,-0.1270448863506317,0.31085389852523804,-0.18182016909122467,-0.38059839606285095,0.1823684424161911,0.6204023957252502,0.13329380750656128,0.23612627387046814,-0.436658650636673,-0.052424561232328415,0.41119277477264404,-0.41258418560028076,-0.1618325263261795,-0.5078691840171814,1,train
TCGA-QC-A6FX-01A,0.012349537573754787,0.09171086549758911,-0.2330164611339569,-0.5917699933052063,-0.6105306148529053,0.22093454003334045,0.5464663505554199,-0.4958912432193756,0.2828423082828522,0.32886946201324463,-0.6172935962677002,0.36693355441093445,0.08459100127220154,0.02970103919506073,-0.21284344792366028,3,train
TCGA-DX-A2J1-01A,0.009933974593877792,-0.07285124808549881,0.1875225007534027,-0.03601609915494919,0.18899980187416077,-0.41076818108558655,-0.1575719565153122,-0.12194466590881348,-0.20749256014823914,0.10525703430175781,-0.6117922067642212,0.4720330834388733,0.20656540989875793,-0.04853208735585213,0.21489235758781433,0,train
TCGA-SG-A849-01A,-0.30349215865135193,0.410797119140625,0.39033961296081543,-0.6068512797355652,-0.37309467792510986,0.004517590627074242,0.5983294248580933,0.7232754826545715,-0.11572737246751785,-0.019357528537511826,-0.5167662501335144,0.1896464228630066,0.19481071829795837,0.1326734721660614,0.579088568687439,3,train
TCGA-DX-A6B8-01A,0.43077415227890015,0.5201886892318726,-0.17531876266002655,-0.24494318664073944,-0.20378324389457703,0.8310701847076416,0.30531007051467896,-0.45649829506874084,-0.00726509653031826,0.008029304444789886,-0.3081078827381134,0.1432350128889084,0.15228794515132904,-0.5809771418571472,0.588371753692627,2,train
TCGA-MB-A5Y9-01A,0.03471139818429947,0.3146935701370239,0.32294267416000366,-0.3114926218986511,0.04010603949427605,-0.30442121624946594,-0.17688468098640442,0.026589835062623024,-0.28677597641944885,0.04736632853746414,-0.8126192688941956,0.30573731660842896,-0.273933470249176,0.3707426190376282,0.27495819330215454,3,train
TCGA-K1-A42W-01A,-0.3917275071144104,-0.2445801943540573,-0.5184306502342224,-0.08421816676855087,-0.001157756894826889,-0.33407583832740784,0.08246933668851852,0.14767183363437653,0.19967903196811676,0.16710920631885529,0.5326566100120544,-0.1471281796693802,0.05956606939435005,0.3010215163230896,-0.2273351401090622,2,train
TCGA-DX-A7EN-01A,-0.1340486705303192,0.4929202198982239,-0.6010305881500244,0.31959694623947144,0.7295358777046204,0.11391405016183853,0.2780885696411133,-0.01484429556876421,-0.30356404185295105,0.1489066481590271,1.1024658679962158,0.055404119193553925,-0.23820766806602478,-0.06643281131982803,0.565859317779541,2,train
TCGA-PC-A5DK-01A,0.07272648811340332,0.18223415315151215,0.19473253190517426,0.2082451432943344,0.20589599013328552,-0.6912952065467834,-0.14170990884304047,0.06387082487344742,-0.08284921199083328,0.25713014602661133,0.7924239039421082,0.4131564795970917,0.11084454506635666,0.22844435274600983,1.1378875970840454,2,train
TCGA-DX-A6B9-01A,0.1280183345079422,-0.43996816873550415,-0.3399880528450012,-0.15630578994750977,-0.36813366413116455,-0.543360710144043,0.19504575431346893,-0.05024273321032524,0.40977051854133606,0.2945901155471802,0.3664607107639313,-0.05278366059064865,-0.02513311803340912,-0.46142977476119995,0.14556275308132172,2,train
TCGA-DX-A23T-01A,-0.0926157683134079,-0.13379965722560883,0.37834301590919495,-0.6984498500823975,0.4676145613193512,-0.41200223565101624,0.0469619520008564,0.4542087912559509,0.26522138714790344,0.21013323962688446,-0.4754074513912201,0.3450517952442169,-0.3926481306552887,-0.2551977336406708,-0.27901577949523926,0,train
TCGA-DX-A3LU-01A,0.29616251587867737,-0.10151614993810654,0.3258196711540222,0.06667361408472061,0.26417988538742065,-0.4382690489292145,-0.2086172103881836,-0.3947831988334656,-0.1699211448431015,0.15169723331928253,-0.7190722227096558,0.5761594772338867,-0.2672067880630493,0.16007694602012634,0.16305966675281525,0,train
TCGA-DX-A6YT-01A,-0.7287381291389465,-0.5837178230285645,-0.5504888892173767,-0.2272820770740509,-0.5962768793106079,0.1074230819940567,0.3447648584842682,0.31008419394493103,-0.7410076260566711,-0.5225676894187927,0.034072522073984146,0.12346368283033371,0.21507512032985687,-0.3580520749092102,-0.1888435035943985,1,train
TCGA-DX-A48N-01A,189.8753434475901,-587.3474849005083,132.60683898661495,244.8786765234407,-518.6821183157575,231.52950048765265,-589.2843809271843,864.1017716776583,-370.51533358207945,-405.48984246603163,40.58168690313772,150.99503712039936,128.38349158408548,224.4336539374382,-610.8890637017781,0,test
TCGA-3B-A9HU-01A,-258.0971108322032,96.09901789301507,62.11347687782021,-324.06151663717753,435.83396516074913,-665.6687508094095,109.55381862562378,-515.8504247837603,273.69485578092673,288.47903996791734,880.3818382040428,-102.79826848528933,-66.90802781585505,272.55873788304365,438.3830573765565,2,test
TCGA-DX-A6BA-01A,-138.55561973273038,-174.35149208766686,-252.59461690274907,97.49310771007907,-187.61195200736404,-336.9873646104548,-315.0852870733591,386.20969642131587,236.71472714999842,-231.03962665048525,757.3103827412583,-609.7484286960693,-85.685111853283,852.076595484751,-222.05808912390353,2,test
TCGA-DX-A3UC-01A,46.46370704659202,145.10975396247088,-365.0063574326789,16.345947401711083,111.12974515995889,-427.2759770060068,126.33234776438859,-311.16184130002733,209.4568268296864,-45.1059426471302,1034.8939729729275,-234.3966981902904,-187.29884792181883,329.940295158527,197.5708866882028,2,test
TCGA-DX-A3LW-01A,288.17359339096566,-485.6891297201408,120.78321562196489,58.25187805369341,90.52625813339027,344.88796922823803,-53.453990064216974,-141.21446497447704,-43.340755076116295,71.45821208033071,-59.80408214221463,510.4049513684974,175.54969205503687,-260.7296131058341,118.38455499768196,0,test
TCGA-MB-A8JK-01A,45.60482788394569,32.099288043174035,115.92597095694059,87.40624552550844,-124.95996594094498,-75.65977879120437,-331.5560867211349,390.9495726542379,-115.04197592224267,-183.3641919216186,-180.01032856762322,666.3695459609182,199.47726646562583,-359.7065716923557,-398.3499498139691,3,test
TCGA-DX-A2J4-01A,-5.603143277153265,-129.05710623044146,342.68871425762194,-105.43671159153983,134.0315339653398,-397.3193322037655,-87.865858258591,-98.9287255195611,-13.175782263893169,103.5699438401618,-346.4154222839004,577.6413529943421,229.86070035217892,-238.67212224473045,97.93357623091646,0,test
TCGA-X6-A7WA-01A,-65.99145899158397,69.3879496635685,-278.2628855532889,-54.82075686819331,165.7670559260645,-255.84522362709876,92.78024638948607,-183.85581564280463,225.47937763428936,10.008472000492525,726.4606480046974,-302.4026816833775,-166.2133626721331,594.5884111806071,196.37321235272995,2,test
TCGA-QQ-A8VF-01A,-204.1238362165099,114.6496168189232,230.82110001262058,-85.57391364855444,-254.2150264707315,48.01071397183139,-78.90248334372306,26.798510412861546,-13.428782476605305,46.3068715690358,-411.8079791913774,-13.984553894889567,255.99190953625688,194.47792458002127,-172.1127100674928,2,test
TCGA-DX-A7ET-01A,-162.49912406401083,363.09032681170424,175.61822061182468,-40.059726407114205,-114.98873639596366,115.59187380900114,262.72899955883764,136.03875949774962,-13.208120240828663,-2.2500666165783256,-715.8879798211669,426.9873473051385,160.57308939621294,-216.53318370375302,-30.235124871722835,3,test
TCGA-3B-A9HX-01A,3.5143941720961607,171.974592676077,116.95859534324286,-59.950707573419685,-22.675576078526458,-98.97290192951773,-109.01483589040635,237.51496251838486,-60.937559382782446,-237.7136943513311,179.86136552471976,-228.66715575386635,-107.61073474143022,-260.40800311299824,-190.21176173954834,2,test
TCGA-DX-A3UE-01A,67.90774061355522,66.8684448858592,-559.3432155089129,16.720754508458565,391.2674640866093,-188.16612097183972,141.73762118571562,-444.2913186128378,468.72775535018036,80.83222672477736,700.1175790792664,-128.73405082048248,-120.709056474781,441.0713095447559,190.57111070226622,2,test
TCGA-DX-A23R-01A,282.4697316726534,-398.1480394392504,226.00509125297876,5.460952031954534,387.1535345258531,599.2514995944953,-40.6677072958057,-425.0406932337353,298.21284917477936,332.85543553225256,175.32303839446408,108.52437977518976,-10.470600336420217,-697.5296959612032,192.67454488350964,0,test
TCGA-DX-A3UA-01A,-29.62662708633253,76.84662472118542,64.00830130909584,26.92674845669931,190.50159506615103,529.6503237612619,39.3976420463997,-367.26316675235483,202.10569222509466,264.6788421469793,-146.4843310114514,-176.4068974126419,-9.60983817455415,-286.29313350926395,441.9452383116315,2,test
TCGA-DX-A6BE-01A,-51.183740190163995,-254.9639891258112,367.07185876616467,-117.94803699408946,95.51146334812269,-344.87160901261086,-85.46330217819381,-71.80207657485961,-15.34970053244579,99.16729095425679,-321.9995772630969,427.92510724000596,237.09829641035114,-18.246567456977107,86.13634445896759,0,test
TCGA-DX-A3UF-01A,-87.73512424732631,-244.4869802126758,-102.66564973694737,-23.985961611723255,219.96932164999404,-216.70317014869684,408.2955188888819,-420.6414892558837,212.43891717372125,208.70841186250297,683.3657152841379,-781.2600186175468,-136.95837608094863,910.0522418225655,422.40893976745616,2,test
TCGA-Z4-AAPG-01A,-295.682671274198,519.3512022609776,-31.07807910578063,-46.502932743170845,-252.4144579729926,706.4686064198926,-367.19609692271405,321.02026789636665,-32.47296102489269,-159.76696924290292,-701.4288819054041,-400.79611371182995,-48.61049579419483,58.30939040795343,-256.4903654678508,3,test
TCGA-DX-A3M2-01A,-189.93175419534904,77.01650310999571,142.17292262820067,73.08372725170103,-473.2114992308859,-105.85035598038256,-209.90871679729102,498.34694641469247,-539.9841755650838,-240.53499637515608,-735.7230736656014,601.3220793866202,11.87059413127614,-203.70103494344525,-371.11213102197553,0,test
TCGA-QQ-A5VA-01A,-432.4304376046707,-222.21653998882502,620.9456792500714,-185.81064627560423,-74.42604893089225,-101.70687049483446,-102.17680224227935,-53.90422279367311,-136.28733343865676,-43.05081281903557,48.40411551055852,-243.11107321283498,-213.25710845778545,165.6534793267754,-39.008907332968995,0,test
TCGA-3B-A9HZ-01A,-26.400026699730716,170.72231980132992,-134.70907396371936,-313.23115015185243,357.382060965165,-465.85392664625095,99.27768795816178,-605.3298019918099,402.6821127049291,105.13631700098688,562.5929870508281,-62.74940560862152,229.30929460858727,621.6495551024008,398.8077344109961,2,test
TCGA-DX-AB2J-01A,187.61935587669598,-695.6983727787682,60.34532035457534,61.4516325226917,173.03677172597102,-21.237090883462844,-59.88774127305657,-159.0782105060311,100.22327486972564,144.15502945076548,200.81634138453572,-586.0347943973369,-54.933796730848776,229.11901084887097,134.28126400268505,3,test
TCGA-SG-A6Z4-01A,192.26260869378316,463.3230961177944,122.83309212237414,161.52009693094791,-378.2076868690719,637.3485874767744,-180.17365241484086,562.4786019428836,-381.9747622933656,-394.25360966717335,-234.1411199011236,607.697497873818,35.73109932923387,-821.8372702473702,-374.5953315089821,3,test
TCGA-DX-AB37-01A,-338.18991161731384,-73.697605852461,334.5928578572733,-94.37952261668562,51.207332699514545,-175.91379720933233,-173.38250879432653,-136.63573630526034,-20.46897303887003,-133.14797918201702,-480.6348087073332,386.5991374664388,-243.66394118511315,-317.77874322716235,154.94318550896853,0,test
TCGA-DX-A6YR-01A,-32.467550638713035,36.171491667588306,41.06959221318201,129.327857831323,-448.8043708911453,419.51381219693667,0.43164947410984783,296.9085108422429,-113.15082592347478,-11.13777573489206,-378.62750173721173,643.0071135584332,44.725716068902194,-398.63552925152584,-147.2905900644054,1,test
TCGA-HB-A5W3-01A,-51.831998626264856,-49.08065156693217,-271.1751045250278,-14.081813762737609,382.19647611350837,-459.6788147766654,223.19845171560686,-516.4430126056805,561.7294115669241,142.81030643910304,727.3728801728785,-540.1458779366017,-71.22836006399895,633.4284246872523,467.55792971723,2,test
TCGA-IW-A3M5-01A,96.72818228418197,-155.6999110592739,218.57727256581384,269.8531342654996,-114.63571813555872,470.69441105382725,-298.93404498570015,263.1867338030805,107.90720339587347,10.781970712698618,-124.07069407921972,-227.60191123292293,-0.09494486279795449,-491.6878023102115,-228.21236279675654,2,test
TCGA-DX-A6YX-01A,-362.81237536179736,365.96075702367426,-166.14814942610133,-55.43816705342423,-104.00555287375253,491.021866360661,-104.37019269071487,138.4577025051867,59.135391652855056,43.86629329788494,-707.105402881074,-252.9418578430433,-65.53742082348657,-53.96700342789389,-154.28475409277613,1,test
TCGA-3B-A9HY-01A,277.22556981593044,113.66111913282138,-165.6270381468539,-82.74713595936431,250.91110009471274,-167.71566596900496,185.7081648359955,-384.01793090072687,545.8170453638731,87.8008815371819,679.7091688781385,-144.4756659926579,212.01095963576554,369.8207447749669,355.6817603623378,2,test
TCGA-FX-A3RE-01A,174.14606642380807,-353.71049639994476,50.235181239083005,92.68702172278297,4.047485549075102,139.79869551212045,110.98123592487075,-232.0338302244431,156.01813122368472,141.84756620152086,257.9211095050443,-616.8776080806342,-253.66469592790597,97.76458291760521,371.7986403894115,2,test
TCGA-LI-A67I-01A,64.09907953271771,197.2329032397605,126.66501311289396,179.41291517111424,-13.275525568452116,418.22024814125103,-193.7303772294174,382.171795113544,-254.97812882130393,-210.73162038424314,-197.58482652114063,291.4742489881988,-196.40914349373654,-712.2010226321836,-323.26407233375056,1,test
TCGA-DX-A23Y-01A,-308.46151835255273,-179.06962640387914,328.49031365378545,126.85504414461947,-370.75655020312644,-45.998284902410745,-153.08796205000172,538.5199831164192,-422.5132264714043,-242.91141589824835,-460.6096372338445,99.84953877614903,36.891870630680636,567.891004065181,-392.2549965770415,0,test
TCGA-DX-AB2F-01A,-37.62410997700493,-632.8195391955371,126.46161397505197,229.04279755366687,-354.68555198310014,65.98987034898846,-312.9986036258512,573.1752254921167,-329.1669579014798,-328.6199496105709,-266.9744918695506,397.59987338918154,-193.47405841606053,-109.38747316332815,-420.7735176482959,0,test
TCGA-DX-A7EM-01A,77.47963774925569,163.55983019938128,-70.53605282788756,-3.937927129770628,-141.48851445123836,-365.45139915346834,-32.65741176112343,263.7468029153691,99.08915441150805,-202.03595998979918,880.8484088728236,-204.29978374481666,96.56742432828577,759.175751146464,-135.57985774084597,2,test
TCGA-Z4-A9VC-01A,240.33652143517077,-186.47905538518094,204.00032014723536,-23.5857717019978,50.35333792009888,159.86330034078716,-91.99273490724961,-91.08107762047263,-6.466888117708241,83.58878491713368,70.93920033800235,403.645447572091,193.90382149949198,-404.6468621432853,87.26062871512397,0,test
TCGA-DX-AB2V-01A,-40.96395269546468,-348.5498935576423,-64.6982882193055,-263.0244008845188,-199.73819302237527,97.96553492345951,457.22872544649243,-281.94681191544316,-124.37748891913448,58.0843083693805,-294.5816240198297,241.2630632855744,130.14425898008352,225.12927068264,301.38376754745417,1,test
TCGA-3B-A9I3-01A,30.23264226395779,27.35566129059802,32.72304519974227,-85.17864855390216,524.858942366931,-420.04540605593905,454.4560678546427,-1158.2602717544949,254.94838406535635,332.05079584507126,606.2744705713873,-47.176240848547614,331.87977275417234,144.02570858730203,883.99940915624,2,test
TCGA-IF-A4AJ-01A,35.66907069711642,76.6435888004156,-183.03565267062342,-64.16796260032432,-367.50846779228965,-258.7883319692554,-94.78345743423928,339.86330842372644,207.31931171562368,-174.20257478812877,685.6506477257576,-421.4467876324254,105.51910686881347,896.2966278567474,-27.257443000137894,2,test
TCGA-QQ-A5V9-01A,-61.37896554487594,-97.63993997507005,322.77125464062914,37.71832703654789,-505.9988140447276,1.882868635881236,-296.7378938861076,569.7140231565811,-237.4992352597474,-242.13937704405782,-499.82896491068465,493.76139989187595,15.129759642669136,-104.5988063464822,-376.5374316720995,3,test
TCGA-IE-A3OV-01A,-34.411534313035474,137.04881762818005,-58.88578554622879,-112.39821857885731,-92.52410843225088,-317.3069025958996,-51.02509840289574,111.72626719840639,78.06763003118608,-134.01436270596201,561.8868467774382,-76.47941573499078,99.66677812851583,638.1915119309766,-84.56527543287622,2,test
TCGA-K1-A42X-01A,368.82663172600815,-392.54102443743983,-168.9988838474279,-48.767463559312894,291.95301019155903,-828.294852763573,37.51959437734359,-379.33036579163576,44.660473053527774,104.23326358751859,677.2216619511114,-825.8944037770187,-74.11181482236334,-147.43644883879617,340.5857960561816,2,test
TCGA-QC-AA9N-01A,17.581492276184935,-471.39696540950126,100.75900308443657,-35.56535718288609,-15.729295724756268,54.136215231724236,705.5006189569821,-479.6839239334651,749.5785115261466,395.33757178,-292.24849785922174,-101.78198727145389,-99.99349277935589,29.93440781364553,864.655651589811,3,test
