,Factor_1,Factor_2,Factor_3,Factor_4,Factor_5,Factor_6,Factor_7,Factor_8,Factor_9,Factor_10,Factor_11,Factor_12,Factor_13,Factor_14,Factor_15,Label,Split
TCGA-DX-A3LW-01A,-0.2558169364929199,0.4752010405063629,-0.12427365779876709,-0.0025700752157717943,0.5928847789764404,-0.5320165157318115,-0.6140260696411133,-0.3120690584182739,-0.1387765109539032,0.32860830426216125,0.12009534984827042,0.28543803095817566,0.31551146507263184,-0.5435437560081482,0.032370712608098984,0,train
TCGA-HB-A3L4-01A,-0.2599879503250122,0.2241961658000946,0.019536975771188736,0.11618130654096603,-0.4411189556121826,0.662223219871521,-0.5716944336891174,-0.6717063784599304,-0.15991085767745972,0.017225725576281548,0.1938302218914032,0.28024956583976746,-0.1879885196685791,0.016264887526631355,-0.38810357451438904,1,train
TCGA-QC-A7B5-01A,-0.05530731752514839,-0.43539223074913025,-0.7372423410415649,0.17765869200229645,0.17923875153064728,-0.1263844221830368,-0.1965065449476242,0.12944774329662323,0.0056102401576936245,0.030160726979374886,0.5153065323829651,0.04222840070724487,-0.4137268364429474,0.4223266541957855,0.4599609971046448,2,train
TCGA-DX-A3U7-01A,0.24637600779533386,-0.3211633563041687,-0.17108002305030823,-0.6324469447135925,-0.5821398496627808,-0.4457080662250519,-0.41733792424201965,1.0307514667510986,-0.39115455746650696,-0.43495121598243713,-0.048400137573480606,0.10693537443876266,-0.012493194080889225,0.1439065933227539,-0.44178444147109985,1,train
TCGA-KD-A5QU-01A,-0.1939897984266281,-0.08897937089204788,1.4035069942474365,-0.07077831029891968,-0.9275399446487427,0.5967087149620056,-0.92812579870224,-0.00613013282418251,-1.7815579175949097,1.2056605815887451,0.4052104651927948,-0.0218503437936306,-0.09702049940824509,0.07234320789575577,-0.31834039092063904,1,train
TCGA-DX-A1KZ-01A,-0.03472999855875969,-0.15176773071289062,-0.5517431497573853,0.015171628445386887,0.3677159547805786,-0.2381921261548996,-0.21360936760902405,0.5675798654556274,0.08408906310796738,-0.15517033636569977,-0.35135743021965027,0.5353950262069702,-0.13293403387069702,0.7014015316963196,0.018678229302167892,0,train
TCGA-DX-A8BH-01A,-0.34556183218955994,-0.3182574212551117,0.04211392253637314,0.2850804030895233,-0.0010211067274212837,-0.24834607541561127,0.18979084491729736,0.12149588018655777,-0.1270117461681366,-0.15121226012706757,-0.1996687948703766,0.05117664113640785,0.029795482754707336,0.29798054695129395,0.7956165075302124,2,train
TCGA-3B-A9HL-01A,-0.1655033677816391,0.17353785037994385,-0.3711954355239868,0.019332285970449448,0.27152958512306213,-0.36731845140457153,0.35185661911964417,0.10674664378166199,-0.43603813648223877,-0.5159262418746948,0.01828109100461006,0.6374832391738892,0.15135283768177032,0.1497090756893158,-0.34114107489585876,0,train
TCGA-DX-A1KY-01A,1.1231213808059692,0.8075551986694336,0.11925964802503586,-0.9389228820800781,0.2746208608150482,-0.7726773619651794,-0.149743914604187,-0.1683972179889679,-0.5701923966407776,-0.05883986875414848,-0.029937952756881714,0.019280681386590004,-0.6921404004096985,-0.1504540890455246,-0.2209753543138504,0,train
TCGA-DX-A2IZ-01A,-0.00859509315341711,0.3772844076156616,-0.0013947468250989914,-0.9662191271781921,0.308106392621994,-0.27215200662612915,0.2790156602859497,0.4863779544830322,0.03383786976337433,-0.027911944314837456,0.17960958182811737,0.38164469599723816,-0.4164765775203705,-0.23614045977592468,-0.320382684469223,0,train
TCGA-DX-A1L2-01A,0.092697374522686,0.02966948412358761,-0.7453283071517944,0.21296140551567078,0.14469681680202484,-0.3054734170436859,-0.30260127782821655,-0.18816415965557098,-0.7285178303718567,-0.1578795313835144,-0.1757752150297165,0.30803531408309937,0.277268648147583,0.17316919565200806,0.08734628558158875,0,train
TCGA-VT-A80G-01A,0.031190522015094757,-0.2629609704017639,-0.262199342250824,-0.29609933495521545,-0.02414202317595482,-0.27372822165489197,-0.3256426155567169,-0.2011253535747528,-0.727613627910614,-0.21504519879817963,0.570534884929657,-0.06891783326864243,-0.25779691338539124,0.33175545930862427,0.5885702967643738,2,train
TCGA-3B-A9HP-01A,-0.10724632441997528,0.095474474132061,0.46795013546943665,0.010591826401650906,-0.17248766124248505,0.35210826992988586,0.5193199515342712,0.08043509721755981,0.5176391005516052,0.22159485518932343,-0.2866787314414978,-0.1613057404756546,0.2547025978565216,0.00034906051587313414,-0.4364635944366455,1,train
TCGA-DX-A48U-01A,-0.2024807184934616,-0.40156418085098267,0.405320405960083,0.24840311706066132,-0.04528344050049782,-0.4359776973724365,-0.6488333344459534,-0.24361151456832886,0.7559331059455872,0.32433050870895386,-0.21577663719654083,-0.35356804728507996,0.16954271495342255,-0.26446714997291565,-0.8870164155960083,1,train
TCGA-MJ-A68H-01A,0.27853161096572876,0.04451847821474075,-0.6402186751365662,-0.28906431794166565,-0.2741306722164154,0.35084307193756104,0.31711721420288086,0.5102560520172119,0.2411593496799469,0.14822278916835785,0.09673450887203217,0.12706443667411804,-0.13308577239513397,-0.38417893648147583,-0.5360235571861267,1,train
TCGA-3B-A9HX-01A,-0.09423991292715073,0.017790384590625763,-0.16240477561950684,0.2909957468509674,-0.3106599450111389,0.4320043921470642,-0.1553795337677002,0.13721978664398193,0.33008378744125366,-0.3275874853134155,0.5243854522705078,-0.031247062608599663,-0.10098874568939209,0.3060121536254883,0.068959541618824,1,train
TCGA-K1-A3PN-01A,0.06570815294981003,-0.05026460438966751,0.31582826375961304,-0.4675898253917694,-0.3027341663837433,0.15529675781726837,0.047684695571660995,0.2985718548297882,0.6513048410415649,-0.05299537628889084,0.015412986278533936,-0.5186119079589844,0.31277090311050415,0.16700983047485352,-0.5573008060455322,1,train
TCGA-QC-AA9N-01A,0.46546733379364014,0.32191336154937744,0.7930748462677002,0.16727598011493683,-0.06279049068689346,0.13858652114868164,2.576849937438965,-1.0561773777008057,-0.25082850456237793,1.4320530891418457,-0.01779092103242874,0.8661298155784607,0.18765613436698914,-0.5028493404388428,-0.03674245625734329,2,train
TCGA-WP-A9GB-01A,0.05066848173737526,-0.02100355550646782,-0.8464051485061646,0.03030211292207241,-0.5031383633613586,0.7300269603729248,-0.7270612716674805,-0.06607034802436829,0.06019088253378868,0.29587864875793457,0.31191036105155945,0.3537408709526062,-0.5737846493721008,-0.9250309467315674,-0.6653531193733215,1,train
TCGA-IS-A3KA-01A,-0.021100446581840515,-0.15948748588562012,-0.2354762852191925,-0.03824346885085106,-0.2669503092765808,0.5165436863899231,-0.8218695521354675,0.6581803560256958,-0.510914146900177,-0.08864434063434601,0.26786085963249207,0.434028685092926,0.04281098023056984,-0.4434494078159332,0.15486808121204376,1,train
TCGA-DX-AB3A-01A,-0.2922879457473755,0.44640597701072693,-0.10493951290845871,0.030233096331357956,0.45218485593795776,-0.48740851879119873,-0.26323333382606506,-0.3379833400249481,-0.1389574557542801,-0.000517810694873333,0.12033157050609589,0.2945164442062378,0.23483435809612274,0.017929693683981895,-0.01377902552485466,0,train
TCGA-DX-A6BF-01A,0.3770419657230377,-0.15486466884613037,-0.45333027839660645,0.1154627576470375,0.39654865860939026,0.26854968070983887,-0.12098710983991623,0.4593421220779419,-0.5128098726272583,-0.40512675046920776,0.17271511256694794,0.668599545955658,0.42376288771629333,0.3881683647632599,0.0298579353839159,0,train
TCGA-DX-A6BG-01A,-0.38718530535697937,-0.01978386752307415,0.06159276142716408,0.48384445905685425,0.10529807955026627,-0.13077007234096527,0.011537283658981323,0.14793771505355835,-0.009804015047848225,-0.0016851837281137705,-0.1742747724056244,0.0034299627877771854,-0.1727314293384552,-0.03639034926891327,0.39283961057662964,0,train
TCGA-DX-AB2F-01A,0.3347727954387665,0.17089368402957916,-0.4271980822086334,0.1691536158323288,0.4683859944343567,0.1028590127825737,-0.04967236891388893,0.130497008562088,-0.5713836550712585,-0.3885672390460968,-0.16566821932792664,0.7466761469841003,0.40453213453292847,0.35530024766921997,-0.33812716603279114,0,train
TCGA-DX-A1L4-01A,-0.34120792150497437,-0.059243910014629364,0.17693129181861877,0.5707514882087708,0.2910553812980652,-0.23282332718372345,-0.04688224196434021,0.08993233740329742,-0.09399611502885818,-0.05150218680500984,-0.37192103266716003,0.13831749558448792,-0.07023947685956955,-0.023108789697289467,0.41243070363998413,0,train
TCGA-K1-A3PO-01A,-0.45505502820014954,0.27501773834228516,-0.07171411067247391,0.6105284690856934,-0.025146087631583214,-0.2753664255142212,0.03420461714267731,0.126237690448761,0.045259758830070496,-0.018935266882181168,-0.05571957677602768,-0.0011561093851923943,-0.07874295860528946,-0.06342274695634842,-0.041500747203826904,1,train
TCGA-DX-A1KX-01A,0.3209133446216583,0.16882598400115967,-0.8032740354537964,0.6333518028259277,0.3906371295452118,0.15025368332862854,-0.013691656291484833,0.059321898967027664,0.24644909799098969,-0.4862383008003235,-0.13004495203495026,0.5354845523834229,0.14858758449554443,0.3319866359233856,0.1648535579442978,0,train
TCGA-IW-A3M6-01A,0.08159125596284866,0.11494049429893494,0.392742782831192,-0.1494339555501938,-0.0959097295999527,0.3735692799091339,-0.3236154019832611,0.41926032304763794,-0.18965521454811096,0.36065974831581116,-0.10015392303466797,-0.11390522122383118,-0.26459211111068726,-0.7018358111381531,0.08164235204458237,1,train
TCGA-HS-A5N8-01A,-0.21458812057971954,0.3993031084537506,-0.4213576316833496,-0.04395077005028725,0.16537640988826752,0.40440329909324646,0.1341467648744583,-0.18786749243736267,0.3248462677001953,-0.1542206108570099,0.638405978679657,0.3290042281150818,-0.05044856667518616,0.22932444512844086,0.012410485185682774,1,train
TCGA-VT-AB3D-01A,-0.21381385624408722,-0.3525816798210144,2.2468156814575195,1.158166527748108,0.413856565952301,-0.2830814719200134,0.41808590292930603,0.38708725571632385,-1.757754921913147,-0.05734210088849068,1.3288779258728027,-0.5681558847427368,-0.4356728792190552,0.22272351384162903,-0.30597320199012756,2,train
TCGA-SG-A849-01A,0.08294588327407837,-0.13450999557971954,0.01169210858643055,0.26866063475608826,-0.4497438669204712,-0.3153943419456482,0.9388318657875061,0.21369166672229767,-0.8129146695137024,0.08039607107639313,-0.17012782394886017,0.1265873908996582,-0.09358389675617218,0.2513699531555176,0.7803565263748169,2,train
TCGA-WK-A8XO-01A,-0.06265465170145035,0.029508689418435097,0.776903510093689,-0.2213829606771469,0.2782391607761383,0.44944527745246887,0.7601191997528076,0.4804694354534149,0.28750547766685486,0.15402758121490479,-0.5170907974243164,-0.03172598034143448,0.03985634073615074,-0.0545821413397789,0.2935667932033539,0,train
TCGA-K1-A42X-02A,-0.2999158799648285,0.17352671921253204,-0.011387787759304047,0.4630086421966553,-0.11252415180206299,0.9659816026687622,-0.3939572870731354,-0.12932375073432922,0.3935626745223999,0.2862080931663513,-0.16969244182109833,-0.08024273067712784,-0.9182800650596619,-0.6328940391540527,-0.6830397248268127,1,train
TCGA-FX-A3NJ-01A,-0.3549965023994446,0.19116833806037903,0.3853906989097595,0.5568294525146484,-0.3312644958496094,-0.4961468279361725,-0.33877795934677124,-0.24008481204509735,0.6677665710449219,-0.07034128159284592,-0.3111697733402252,-0.09843809902667999,0.3333658277988434,0.25449037551879883,-0.5144781470298767,1,train
TCGA-DX-A3LS-01A,0.09246252477169037,0.1348496973514557,0.21195240318775177,0.052225708961486816,0.39955464005470276,0.35890597105026245,0.11624108999967575,0.31053030490875244,-0.06715234369039536,-0.021946823224425316,-0.27656057476997375,-0.10303596407175064,0.006616175174713135,0.01609967276453972,0.19207461178302765,0,train
TCGA-DX-AB2H-01A,-0.15532369911670685,0.8822916746139526,0.029772965237498283,-0.5509307980537415,0.1975436806678772,0.1725836843252182,-0.1996087282896042,-0.08200374245643616,-0.46899840235710144,-0.05351968854665756,0.6240990161895752,0.26353076100349426,0.16509243845939636,-0.1030275821685791,-0.07738112658262253,0,train
TCGA-DX-A48L-01A,0.6389877200126648,-0.15509870648384094,-0.10368257015943527,-0.3894321620464325,-0.19691558182239532,-0.09112437069416046,-0.2817738950252533,-0.47974738478660583,0.7034215927124023,0.3965379595756531,0.06255728751420975,-0.7398664355278015,0.1284472793340683,0.42814791202545166,-0.2664567232131958,1,train
TCGA-DX-A7EN-01A,0.2569831311702728,-0.22336778044700623,-0.001402522437274456,-0.029074106365442276,-0.37661027908325195,-0.09111129492521286,-0.7088093161582947,-0.3261287808418274,-0.06411131471395493,0.39422300457954407,0.3586064875125885,-0.44181013107299805,0.6383705139160156,-0.4952085316181183,-0.6123999953269958,1,train
TCGA-DX-A3LU-01A,-0.26045772433280945,-0.11451780796051025,0.2079600989818573,0.3892633616924286,0.5144748091697693,-0.21573789417743683,0.04646925628185272,0.21995902061462402,-0.22620154917240143,0.003156512277200818,-0.5009634494781494,0.23943981528282166,0.05471625551581383,-0.021925291046500206,0.17684175074100494,0,train
TCGA-DX-A48R-01A,-0.4247469902038574,-0.22229205071926117,0.32363560795783997,-0.828633189201355,-0.6205369830131531,-0.3368876874446869,-0.5636298060417175,0.06775090098381042,0.12791340053081512,0.361255943775177,-0.18008005619049072,-0.31543514132499695,0.14549842476844788,-0.48789939284324646,-0.5003683567047119,1,train
TCGA-FX-A76Y-01A,-0.27980148792266846,-0.0039754281751811504,0.571925163269043,0.5638306140899658,-0.21744951605796814,0.6481618881225586,-0.08190303295850754,-0.8682436943054199,0.7472947835922241,-0.18784572184085846,-0.28867870569229126,-0.0178877841681242,-0.26034730672836304,0.06668935716152191,-0.5002927184104919,1,train
TCGA-IE-A4EK-01A,-0.15670599043369293,-0.1915552020072937,0.381225049495697,-0.004581714980304241,-0.18205894529819489,-0.5356463193893433,-0.6212407946586609,-0.09815196692943573,0.672322154045105,0.3346640467643738,-0.455125093460083,-0.09378404915332794,0.2936655282974243,-0.3754699230194092,-0.7418813109397888,1,train
TCGA-JV-A5VE-01A,-0.349538654088974,0.19928567111492157,0.6346219182014465,-0.00010271520295646042,-0.42075589299201965,0.6758978962898254,0.2944073975086212,-0.2010749876499176,-0.09902165085077286,0.0026216066908091307,-0.4498564302921295,-0.14864587783813477,-0.1942642629146576,-0.10202489793300629,-0.07319257408380508,1,train
TCGA-HB-A2OT-01A,0.026981791481375694,-0.008925886824727058,0.5132548809051514,0.23345427215099335,-0.06758283078670502,0.31535765528678894,0.1609715223312378,-0.8962457180023193,-0.4273950755596161,0.01318573672324419,-0.2417498528957367,-0.16813194751739502,0.11820582300424576,0.5631652474403381,0.647441565990448,2,train
TCGA-3B-A9HJ-01A,-0.2926284074783325,0.10217262804508209,0.2621193826198578,0.6077446341514587,0.20079931616783142,-0.29016661643981934,0.3327314853668213,0.6953450441360474,-0.046861741691827774,-0.04880416765809059,-0.374867707490921,-0.1437918245792389,-0.18361014127731323,-0.125757098197937,0.42860791087150574,0,train
TCGA-DX-A6B9-01A,-0.09337454289197922,0.2645999491214752,-0.04071176052093506,0.535591185092926,-0.1337248682975769,0.3501845896244049,0.23794637620449066,-0.559112548828125,0.13133694231510162,0.29772600531578064,-0.21521131694316864,0.10634037107229233,0.07519887387752533,-0.05495821312069893,-0.5885884761810303,1,train
TCGA-IE-A3OV-01A,0.10965681076049805,-0.02446325309574604,-0.10442701727151871,-0.025246325880289078,-0.6436564326286316,-0.5245082974433899,0.49019601941108704,0.6784644722938538,0.3820299804210663,-0.1454324722290039,0.1850850135087967,-0.01597881317138672,0.11442258954048157,0.12719419598579407,-0.20927296578884125,1,train
TCGA-QQ-A5VC-01A,0.20351852476596832,-0.36658990383148193,0.05509408563375473,-0.022799484431743622,-0.24767686426639557,0.21015998721122742,0.20988598465919495,-0.6780253648757935,0.09521126002073288,-0.6020185947418213,0.20248880982398987,0.40256059169769287,0.3464824855327606,-0.124430812895298,0.8376806378364563,1,train
TCGA-K1-A42X-01A,-0.29206690192222595,0.19054484367370605,-0.03870604559779167,0.4256666302680969,-0.13691909611225128,0.9615830779075623,-0.4453636407852173,-0.22524197399616241,0.42463216185569763,0.28800851106643677,-0.1471300572156906,-0.06948722898960114,-0.9283937215805054,-0.6168609261512756,-0.7333828806877136,1,train
TCGA-DX-A3U9-01A,-0.29870331287384033,-0.12212453782558441,0.5066099166870117,-0.23713193833827972,-0.458810955286026,-0.4295448660850525,-0.8297279477119446,-0.3025504946708679,0.29863110184669495,0.3123980760574341,0.13533364236354828,-0.021683990955352783,0.2945210337638855,-0.3597567081451416,-0.056539155542850494,1,train
TCGA-HB-A5W3-01A,0.179453045129776,-0.003256220603361726,0.5379047989845276,-0.3116787075996399,-0.20252153277397156,0.2111639529466629,0.22323617339134216,0.19704283773899078,0.7016590237617493,0.5554866194725037,-0.3096850514411926,-0.41194337606430054,0.15234845876693726,-0.5547486543655396,-0.3763302266597748,1,train
TCGA-IW-A3M4-01A,-0.20039428770542145,0.11804119497537613,-0.02504674158990383,0.30116239190101624,0.13683317601680756,0.7749905586242676,-0.4240915775299072,-0.15023255348205566,0.2661827504634857,0.3084762692451477,-0.06212156265974045,-0.10459160059690475,-0.5957139730453491,-0.5985540151596069,-0.5914303660392761,1,train
TCGA-3B-A9I0-01A,-0.14407384395599365,-0.3108324110507965,0.42271196842193604,-0.14802898466587067,-0.3700425922870636,-0.49397608637809753,0.5925054550170898,0.19489602744579315,0.6106332540512085,0.26099419593811035,-0.18265435099601746,-0.3505541682243347,0.2606772184371948,0.003909790422767401,-0.44278544187545776,1,train
TCGA-DX-A3UC-01A,0.351064532995224,-0.07505108416080475,-0.10472018271684647,0.03777173161506653,-0.28762784600257874,-0.013051215559244156,-0.39904677867889404,0.0912502333521843,0.4277432858943939,0.4170572757720947,0.053085681051015854,-0.7198531031608582,0.23348918557167053,-0.5127800703048706,-0.5524013638496399,1,train
TCGA-FX-A2QS-01A,0.31811055541038513,0.5246095061302185,-0.5211229920387268,-1.0015500783920288,0.08891792595386505,-0.0018720405641943216,0.708017110824585,0.6370400190353394,-0.09801458567380905,-0.5663282871246338,0.2388588935136795,0.4257878065109253,-0.019598228856921196,-0.02801889181137085,0.14587070047855377,0,train
TCGA-DX-A3LY-01B,0.11436611413955688,-0.2196570485830307,-0.4288252294063568,-0.2268046736717224,0.46702840924263,-0.23566226661205292,0.11005459725856781,0.6462149620056152,-0.5280365347862244,-0.4800988733768463,-0.26775944232940674,0.46019136905670166,-0.18871840834617615,0.3158971071243286,-0.2710602581501007,0,train
TCGA-DX-A1KU-01A,-0.13340267539024353,-0.04783255234360695,-0.47100526094436646,0.04723040387034416,0.3673989474773407,-0.29807335138320923,-0.19810621440410614,0.26610997319221497,9.432121441932395e-05,-0.40265315771102905,0.19198672473430634,0.11223860830068588,-0.2634023129940033,0.25100597739219666,0.128768190741539,0,train
TCGA-X6-A8C5-01A,-0.015052110888063908,-0.05032401531934738,0.5130955576896667,0.32556799054145813,0.00766949774697423,0.16439315676689148,0.19678355753421783,0.07767219841480255,0.6997743248939514,0.5183729529380798,0.0238129161298275,-0.6869171261787415,0.30303922295570374,-0.4542924463748932,-0.41312673687934875,1,train
TCGA-IF-A4AJ-01A,-0.25103145837783813,-0.32474634051322937,-0.6637247204780579,-0.32569923996925354,-0.6659739017486572,-0.32591333985328674,1.1957180500030518,0.6702218651771545,0.3352879583835602,-0.30095359683036804,0.4803515672683716,0.032219018787145615,0.10560831427574158,-0.5113211870193481,-0.5482728481292725,1,train
TCGA-PC-A5DO-01A,0.297148734331131,-0.13653913140296936,0.3128145933151245,-0.5463259220123291,-0.28962644934654236,0.03580368310213089,0.6552816033363342,0.42336177825927734,-0.36175087094306946,-0.0037462005857378244,-0.13679414987564087,-0.8139750957489014,0.18424521386623383,-0.27275073528289795,-0.47542643547058105,1,train
TCGA-DX-A3M2-01A,0.14304611086845398,-0.42773592472076416,-0.603571891784668,0.6045495867729187,0.3401312530040741,-0.22942906618118286,0.013972144573926926,0.31659990549087524,-0.712345540523529,-0.11219828575849533,-0.10075872391462326,0.46341127157211304,-0.1041431874036789,0.0347287617623806,0.15305835008621216,0,train
TCGA-DX-A6BH-01A,-0.15990117192268372,0.08312494307756424,0.04792941361665726,-0.08377182483673096,0.3820837140083313,-0.3812108635902405,-0.03428821638226509,0.050782300531864166,-0.09923014044761658,0.011392161250114441,-0.13904282450675964,0.14120137691497803,0.037462152540683746,-0.02302817441523075,0.016255559399724007,0,train
TCGA-DX-A8BK-01A,0.4170368015766144,-0.31095877289772034,-0.6514540910720825,0.7842339873313904,0.11041272431612015,0.2264893800020218,-0.1942095160484314,-0.0008018293301574886,-0.5210072994232178,-0.4946660101413727,0.31747564673423767,0.23939774930477142,0.14411842823028564,0.6587808132171631,0.30496910214424133,2,train
TCGA-QQ-A5V9-01A,0.1029280349612236,-0.10470490902662277,-0.491955041885376,0.6067879796028137,0.3196796774864197,-0.38657018542289734,0.4916774332523346,0.13603320717811584,-0.04833070561289787,-0.29906341433525085,0.3692079782485962,0.42658987641334534,-0.1364981234073639,0.2771332859992981,0.12391602993011475,2,train
TCGA-PC-A5DN-01A,-0.04253524914383888,0.6171784400939941,-0.0886499434709549,-0.17846177518367767,0.22942765057086945,0.2841219902038574,0.07143373787403107,0.19340085983276367,0.0011870138114318252,-0.04727526754140854,0.24239957332611084,-0.12866704165935516,0.03666778653860092,-0.10426762700080872,-0.055950332432985306,1,train
TCGA-DX-A6BB-01A,0.030830197036266327,-0.23021624982357025,-0.08463578671216965,0.3274001181125641,-0.19350402057170868,-0.5171568989753723,-0.026238620281219482,-0.3509989082813263,0.3373939096927643,0.72373366355896,-0.06154096499085426,0.0968136414885521,0.18323034048080444,-0.6476574540138245,-0.7024646997451782,1,train
TCGA-3B-A9HR-01A,0.17259164154529572,-0.13350017368793488,-0.3286508023738861,-0.1891770362854004,-0.5998495817184448,0.07008516788482666,0.021419089287519455,-0.09832633286714554,0.2020583301782608,-0.06316744536161423,0.011003177613019943,-0.3092513978481293,0.4640687108039856,0.3068119287490845,-0.5398468375205994,1,train
TCGA-WK-A8XX-01A,0.20168618857860565,-0.21431371569633484,-0.11052361875772476,-0.14686472713947296,-0.6581383347511292,-0.480878084897995,-0.1732054501771927,1.1133636236190796,-0.300438791513443,-0.3016926348209381,0.10509031265974045,0.12193575501441956,-0.005078407470136881,0.13157714903354645,-0.5584983825683594,1,train
TCGA-FX-A48G-01A,-0.3785612881183624,-0.12531019747257233,-0.10781200975179672,0.4000456929206848,0.09134402871131897,0.7063407301902771,-0.5524531006813049,-0.32753103971481323,0.12808872759342194,0.3827444911003113,-0.15347132086753845,0.1088782399892807,-0.4131690263748169,-0.5537049174308777,-0.2542325556278229,1,train
TCGA-QQ-A5VA-01A,0.2605583369731903,0.5569741725921631,-0.060866836458444595,0.18047940731048584,0.05421258881688118,0.08529691398143768,0.06330271810293198,0.8301879167556763,-0.11406911164522171,-0.1679178774356842,-0.05512666329741478,-0.4958346486091614,-0.15578949451446533,-0.16182714700698853,0.5557409524917603,0,train
TCGA-DX-A1L1-01A,0.05163557082414627,-0.09809280931949615,0.7627331018447876,0.06582342088222504,0.43567636609077454,-0.2822038531303406,0.4241282045841217,0.9644542336463928,-0.3335886001586914,-0.11375150084495544,0.0039602057076990604,-0.006523213814944029,-0.3440552055835724,-0.14047065377235413,0.2130415141582489,0,train
TCGA-DX-A2J0-01A,0.12044703215360641,0.5946455001831055,0.06829074025154114,-0.0790516659617424,0.4143173396587372,0.047362200915813446,0.0020398604683578014,0.10533107072114944,-0.03157777711749077,-0.08032778650522232,0.19429665803909302,-0.20967574417591095,0.23707827925682068,0.0409531332552433,0.2578631639480591,0,train
TCGA-FX-A3NK-01A,-0.1675994098186493,0.4606989026069641,0.1070282831788063,0.16500799357891083,0.24809305369853973,-0.49129337072372437,0.06932645291090012,0.20819994807243347,0.011562319472432137,-0.06480788439512253,-0.05205754190683365,-0.026771146804094315,-0.04091382026672363,-0.02749135158956051,0.15549945831298828,0,train
TCGA-PC-A5DL-01A,-0.06352665275335312,0.07240563631057739,-0.30035391449928284,0.6158052086830139,-0.44529178738594055,-0.5207277536392212,0.05447021871805191,0.2242278754711151,0.6350463032722473,0.07926944643259048,-0.05143444985151291,0.04947264865040779,0.12760916352272034,-0.1510464996099472,-0.6152151823043823,1,train
TCGA-DX-A3UA-01A,-0.29674869775772095,0.16916094720363617,-0.2911854088306427,-0.3806346654891968,0.2936191260814667,0.23074819147586823,0.01860758475959301,-0.5030136704444885,-0.20528283715248108,0.6413121223449707,0.274108350276947,-0.3873583674430847,0.14815999567508698,-0.6174881458282471,0.497439444065094,1,train
TCGA-DX-A8BL-01A,-0.0023942419793456793,-0.0940278023481369,-0.48246344923973083,0.5700297951698303,-0.21379150450229645,-0.49988093972206116,-0.05766317620873451,0.3520137071609497,-0.3437024652957916,-0.5473037958145142,0.1945488154888153,0.2568512260913849,0.13704217970371246,0.5984287261962891,0.735873818397522,2,train
TCGA-3B-A9HT-01A,-0.22070948779582977,-0.0500747486948967,-0.36840903759002686,0.5163508057594299,-0.0422193668782711,-0.1911846250295639,0.26835137605667114,0.6745802760124207,0.06597958505153656,-0.29842305183410645,-0.09915751218795776,-0.01192018948495388,-0.37900200486183167,0.08474522083997726,0.47962498664855957,1,train
TCGA-X6-A8C2-01A,-0.15536054968833923,-0.28165295720100403,-0.12575827538967133,-0.11993859708309174,-0.1780318319797516,-0.22113338112831116,-0.6243926882743835,-0.25030025839805603,-0.565373420715332,-0.7420762181282043,0.518068253993988,-0.01805230788886547,-0.14480815827846527,0.8960427641868591,0.5298802852630615,2,train
TCGA-DX-A3LT-01A,-0.46742820739746094,-0.2148238569498062,0.575335681438446,-0.1753448247909546,0.5701954364776611,-0.2939359247684479,-0.24205976724624634,-0.3326430320739746,0.22492912411689758,-0.12155507504940033,-0.10307444632053375,-0.34199151396751404,0.046594325453042984,0.4256994426250458,0.5892959237098694,0,train
TCGA-DX-A7EI-01A,-0.0760456770658493,0.9174922704696655,-0.315972238779068,-0.2585945427417755,-0.039353758096694946,0.2614023685455322,0.06781055778265,0.45326027274131775,0.2960352897644043,-0.4247604310512543,0.191496804356575,0.19157657027244568,-0.09789490699768066,0.09248564392328262,0.17563971877098083,0,train
TCGA-IE-A6BZ-01A,0.8641369938850403,-0.019008265808224678,-0.3843194544315338,0.31910398602485657,0.19858506321907043,-0.16443349421024323,-0.40013206005096436,-0.8219654560089111,-0.4918143153190613,-0.4882383942604065,-0.15371502935886383,0.24986572563648224,0.21906930208206177,0.09964898228645325,0.4369669258594513,2,train
TCGA-WK-A8XY-01A,0.346719354391098,-0.21393077075481415,0.5465341806411743,-0.8157783150672913,0.12287367880344391,0.14872200787067413,-0.2880932092666626,0.3077240288257599,0.7670570015907288,0.2677393853664398,-0.019510190933942795,-0.7135047912597656,-0.015419495292007923,-0.3661787807941437,-0.7021831274032593,1,train
TCGA-MO-A47R-01A,0.011064983904361725,0.15269796550273895,-1.1880329847335815,-0.5365486145019531,0.2333012819290161,0.18854737281799316,0.26738137006759644,0.10065997391939163,-0.024881459772586823,0.17523521184921265,0.6996210813522339,0.01792920008301735,-0.13696418702602386,-0.38559088110923767,-0.11714567989110947,1,train
TCGA-KF-A41W-01A,0.564599871635437,0.2660485506057739,0.10118725895881653,0.1652766466140747,-0.5719016194343567,0.2074778527021408,0.5843185186386108,-0.34624791145324707,-0.35915079712867737,-0.43219295144081116,0.37181952595710754,0.262496680021286,-0.3059181571006775,0.09419730305671692,0.36627843976020813,1,train
TCGA-DX-A48J-01A,-0.05686443671584129,0.03805328160524368,-0.07346571981906891,0.5615807771682739,-0.21278712153434753,-0.5914921164512634,-0.5773512721061707,-0.19319531321525574,0.3495829403400421,0.4072016179561615,-0.22679375112056732,-0.24520030617713928,0.14021243155002594,-0.49393799901008606,-0.5971936583518982,1,train
TCGA-DX-A8BZ-01A,-0.3412711024284363,-0.4185950458049774,0.5461711883544922,-0.19139118492603302,0.4290292263031006,0.5497163534164429,-0.2202376127243042,-0.4822555482387543,0.014654040336608887,-0.24632391333580017,-0.6305258274078369,-0.09588540345430374,0.3347119092941284,0.6978519558906555,0.5806499719619751,1,train
TCGA-DX-A1KW-01A,0.14957083761692047,0.07546108961105347,-0.7477995157241821,-0.27259331941604614,0.7263901829719543,-0.3783503770828247,0.38139569759368896,0.04397469758987427,-0.08589430898427963,-0.03602078557014465,0.20889753103256226,0.4940269887447357,-0.21953052282333374,0.07364507019519806,-0.4037722051143646,0,train
TCGA-FX-A3RE-01A,0.13484744727611542,0.35471203923225403,-0.4190925657749176,-0.21878379583358765,0.14781327545642853,0.34957587718963623,0.12029199302196503,-0.32687392830848694,-0.10820409655570984,0.6935464143753052,0.31587862968444824,-0.09674286842346191,-0.16033807396888733,-0.8198040723800659,-0.14760880172252655,1,train
TCGA-DX-A3U5-01A,-0.03024236112833023,-0.2847626507282257,0.19733081758022308,-0.11377864331007004,0.811242401599884,-0.3188774585723877,-0.45378512144088745,0.1126847118139267,-0.8508090376853943,0.47217294573783875,-0.23494842648506165,-0.11204762756824493,-0.12803852558135986,-0.3882850408554077,-0.16539907455444336,0,train
TCGA-DX-A8BM-01A,0.020701568573713303,0.157354936003685,-0.5066420435905457,0.509907066822052,0.05395325645804405,-0.49446696043014526,-0.15448006987571716,-0.8091681599617004,-0.3428124487400055,-0.19362738728523254,0.1633690744638443,0.5248180627822876,0.12943001091480255,0.5379884839057922,0.1089644506573677,2,train
TCGA-QQ-A5VB-01A,0.19682025909423828,-0.30746909976005554,-0.43912139534950256,-0.02258545532822609,-0.13707996904850006,0.35919246077537537,0.6282650232315063,0.23919077217578888,0.062452349811792374,-0.2684066891670227,0.23873448371887207,0.06138257309794426,-0.023675868287682533,0.5696524977684021,0.676937997341156,1,train
TCGA-X6-A7WB-01A,0.421597957611084,0.09309341013431549,0.6710613965988159,-0.34349265694618225,-0.29073479771614075,0.05451216176152229,-0.30512115359306335,-0.2798716425895691,0.22118376195430756,-0.10231675952672958,-0.12495819479227066,-0.21243984997272491,-0.7825356721878052,0.14545242488384247,-0.5329958200454712,1,train
TCGA-SI-AA8B-01A,0.07409218698740005,-0.28277847170829773,0.00396021269261837,-0.21440480649471283,0.004023721907287836,0.2245183140039444,-0.2391064316034317,-0.8558154702186584,0.044767193496227264,-0.8435260653495789,0.31396400928497314,-0.13298138976097107,0.07606963813304901,0.5021775364875793,0.7049408555030823,2,train
TCGA-KD-A5QS-01A,0.3152918219566345,-0.2533337473869324,-0.5881226062774658,0.181828573346138,-0.14781010150909424,0.27214688062667847,-0.7210946083068848,-0.4314177930355072,-0.12155196815729141,-0.2935096323490143,0.4539191424846649,0.1538505107164383,0.005395207088440657,-0.19603344798088074,0.30258533358573914,1,train
TCGA-DX-A240-01A,-0.225558340549469,0.04258432611823082,-0.036153338849544525,-0.15670162439346313,0.03346928581595421,-0.039253413677215576,-0.24580161273479462,-0.2185775637626648,-0.09904297441244125,0.06603121012449265,-0.48383572697639465,0.5351009368896484,-0.05707079917192459,-0.06105056032538414,0.18340712785720825,0,train
TCGA-DX-A23T-01A,-0.1687469631433487,0.049940697848796844,0.2039872705936432,0.72065269947052,0.25731414556503296,0.4337935745716095,0.5618169903755188,0.15490387380123138,-0.20211295783519745,-0.5529100298881531,-0.33311307430267334,0.004997867625206709,0.20170952379703522,0.9199163317680359,0.17717483639717102,0,train
TCGA-K1-A42W-01A,0.11589886993169785,-0.025631558150053024,-0.12656013667583466,-0.1679147481918335,-0.12145963311195374,0.16657260060310364,0.1364452987909317,0.41571325063705444,0.041414715349674225,0.06350632756948471,-0.24965453147888184,-0.17602944374084473,0.2734711766242981,-0.138263538479805,-0.6371238827705383,1,train
TCGA-DX-A3UB-01A,-0.3319145739078522,-0.16976116597652435,-0.05661765858530998,0.10567868500947952,0.08856696635484695,-0.11016537994146347,-0.009895335882902145,0.06954629719257355,-0.021134667098522186,0.08108526468276978,-0.3103405237197876,0.2199002057313919,-0.18837077915668488,-0.05989467352628708,-0.37228667736053467,1,train
TCGA-PC-A5DK-01A,-0.0022343816235661507,0.15688292682170868,0.0177043154835701,0.6142156720161438,-0.32364872097969055,-0.5929956436157227,0.21994130313396454,0.04730040207505226,0.36766016483306885,0.6234021782875061,-0.15354669094085693,-0.4276123642921448,0.08663896471261978,-0.6944943070411682,-0.4451177418231964,1,train
TCGA-X6-A7WD-01A,0.09840479493141174,-0.22152385115623474,0.6526634693145752,-0.7452642321586609,-0.39927101135253906,0.04902798309922218,0.020490489900112152,0.1583486795425415,0.20503349602222443,-0.1553945243358612,0.12526525557041168,-0.27727052569389343,0.35295915603637695,-0.9906783699989319,-0.28861281275749207,1,train
TCGA-DX-A3M1-01A,-0.1103355661034584,0.28966984152793884,-0.7062256932258606,-0.12050581723451614,0.2168090045452118,-0.4537891745567322,-0.2558520436286926,0.09498598426580429,-0.4247134327888489,-0.48927491903305054,0.6737417578697205,0.3333231210708618,0.18323008716106415,0.449143648147583,0.10223214328289032,0,train
TCGA-DX-AB36-01A,-0.2709020972251892,-0.11359743028879166,0.023449933156371117,0.1026240810751915,0.25177234411239624,-0.26144424080848694,-0.31782057881355286,-0.4341466724872589,-0.03517577052116394,0.03966362029314041,-0.15826274454593658,0.25514551997184753,-0.06270169466733932,0.08529669046401978,0.2718087434768677,0,train
TCGA-DX-A1L3-01A,0.10478628426790237,-0.16980840265750885,0.2459186464548111,0.06805642694234848,0.613781213760376,0.3728259205818176,0.0057011982426047325,0.17409829795360565,-0.21707803010940552,0.013088775798678398,-0.45450252294540405,0.05568266287446022,0.2041923552751541,0.039389945566654205,0.1805276870727539,0,train
TCGA-WK-A8Y0-01A,0.49482855200767517,-0.13711857795715332,-0.3176432251930237,0.10904745757579803,-0.16491280496120453,0.2074124813079834,-0.47615572810173035,0.4467884600162506,-0.13056223094463348,-0.6428647637367249,0.16567248106002808,-0.0784938707947731,-0.10527145862579346,0.5429292321205139,0.7048104405403137,2,train
TCGA-K1-A3PN-02A,0.10184799134731293,-0.21652786433696747,0.28514331579208374,-0.6803512573242188,-0.2507658302783966,0.19925501942634583,-0.026281628757715225,0.17739629745483398,0.6190475821495056,-0.011251173913478851,0.024600667878985405,-0.451852023601532,0.3240931034088135,0.18796421587467194,-0.5811929106712341,1,train
TCGA-DX-A6B8-01A,-0.04364781826734543,-0.19118569791316986,0.27067795395851135,-0.06478734314441681,-0.30975937843322754,-0.38297125697135925,-0.2925788164138794,-1.252392292022705,-0.19230768084526062,0.36892837285995483,0.2753748595714569,0.23114904761314392,0.10414097458124161,0.20158763229846954,0.8554397821426392,1,train
TCGA-JV-A75J-01A,-1.2851543426513672,0.9296255707740784,-0.19722358882427216,-1.414815068244934,0.43408167362213135,0.5454646348953247,0.21462930738925934,-1.009741187095642,-0.6593846082687378,-0.017363673076033592,-0.7053191661834717,-1.21979820728302,-0.0008452651090919971,0.11530300974845886,0.18364612758159637,1,train
TCGA-IS-A3K7-01A,-0.4025561213493347,-0.1855441778898239,0.6106056571006775,-0.2851473391056061,0.5369328856468201,0.680366039276123,0.06814612448215485,-0.35204416513442993,0.13345623016357422,0.45795589685440063,-0.5051479339599609,-0.6070355176925659,-0.17129217088222504,-0.30649110674858093,0.46718689799308777,1,train
TCGA-K1-A6RV-01A,-0.004395780619233847,-0.269307017326355,-0.5782142281532288,0.1492157131433487,-0.18892841041088104,-0.2797279357910156,-0.43967387080192566,-0.5285954475402832,-0.25327226519584656,0.3089573085308075,0.17254339158535004,0.2098761349916458,-0.17009936273097992,0.598149836063385,0.8275206685066223,1,train
TCGA-DX-A2J4-01A,-0.3585165739059448,0.13093522191047668,0.15284369885921478,0.6646865606307983,0.28576597571372986,-0.2724943459033966,0.055492766201496124,0.22442345321178436,-0.09276837855577469,-0.030863841995596886,-0.36565300822257996,0.11320416629314423,-0.020048432052135468,-0.030043363571166992,0.22194857895374298,0,train
TCGA-IW-A3M5-01A,-0.5021972060203552,0.41269034147262573,-0.6413726806640625,-0.17339715361595154,0.10811866074800491,0.47151777148246765,0.011855393648147583,-0.4659217596054077,0.022936804220080376,-0.23801851272583008,0.4247433841228485,0.19613148272037506,0.16496407985687256,0.26316267251968384,0.22355064749717712,1,train
TCGA-DX-A7EL-01A,0.08581461012363434,0.07150726020336151,0.6351703405380249,0.09948985278606415,0.006813956890255213,0.1469532549381256,-0.032165974378585815,0.7896763682365417,0.7440003752708435,0.18372158706188202,-0.07120785862207413,-0.9070069193840027,0.07463313639163971,-0.46891629695892334,-0.15785223245620728,1,train
TCGA-HS-A5N7-01A,0.37175554037094116,0.13360464572906494,0.007531115785241127,-0.0566285215318203,-0.3052012026309967,-0.03191271051764488,0.5332891941070557,-0.06535417586565018,0.34566208720207214,0.29662275314331055,0.21032820641994476,-0.6586704254150391,0.18312223255634308,-0.061450883746147156,-0.27570241689682007,1,train
TCGA-X9-A973-01A,-0.3434382379055023,0.11931915581226349,-0.05431961640715599,-0.07644451409578323,0.3242337107658386,-0.264995276927948,-0.07714325934648514,-0.06654464453458786,-0.1255306601524353,0.00690960930660367,-0.05628025531768799,0.2893001437187195,-0.09495528042316437,-0.056409433484077454,0.07337262481451035,2,train
TCGA-DX-AB37-01A,-0.15363898873329163,-0.00460271118208766,-0.10362052917480469,0.49068164825439453,0.5469239950180054,0.30459991097450256,0.1350836306810379,0.2466430962085724,0.017030997201800346,0.02452191896736622,-0.1716112643480301,-0.21603646874427795,0.2838037610054016,-0.005903209559619427,0.3612062633037567,0,train
TCGA-DX-A7ES-01A,-0.05554601177573204,0.28771594166755676,0.16585592925548553,0.5075603127479553,0.26593872904777527,0.2632672190666199,0.18191877007484436,0.46994471549987793,-0.03728282451629639,-0.045082174241542816,-0.22723083198070526,-0.2396346628665924,0.12524043023586273,-0.06636212021112442,0.17480958998203278,0,train
TCGA-3B-A9HU-01A,0.5113025903701782,0.2690157890319824,0.30038386583328247,0.4465968906879425,-0.24918484687805176,-0.1546582728624344,-0.2517376244068146,0.41078659892082214,0.533568263053894,0.28155991435050964,-0.2349333018064499,-0.9008098244667053,0.05771082267165184,-0.5093399882316589,-0.03220866993069649,1,train
TCGA-Z4-AAPG-01A,-0.4085673391819,-0.5030854344367981,-0.6924461126327515,-0.8668725490570068,0.039443500339984894,0.5475951433181763,0.40079864859580994,0.22539059817790985,-0.15633808076381683,0.13530386984348297,0.2599641680717468,0.10283010452985764,0.18647319078445435,1.136305570602417,0.666650116443634,2,train
TCGA-QC-A6FX-01A,0.08977339416742325,-0.21945077180862427,0.5601643323898315,-0.11421006917953491,-0.1919846385717392,-0.3948640525341034,0.3778904378414154,-0.3270529806613922,-0.4512770473957062,0.14572863280773163,-0.501902163028717,0.4713269770145416,0.15918585658073425,0.31275197863578796,0.6157626509666443,2,train
TCGA-IE-A4EI-01A,0.3968958258628845,-0.18080070614814758,-0.04387599602341652,-0.44534769654273987,-0.22462724149227142,0.1362055391073227,0.6098729968070984,0.03643735498189926,0.24330605566501617,0.32873663306236267,-0.047670092433691025,-0.4023658037185669,0.08898412436246872,-0.1387770026922226,-0.8382916450500488,1,train
TCGA-3B-A9HV-01A,-0.4699810743331909,0.19101537764072418,-0.2777790129184723,-0.2407453954219818,-0.6027575731277466,0.6974607110023499,-0.18711763620376587,-0.5771308541297913,-0.20797623693943024,0.04538041725754738,0.7106860876083374,0.2005649209022522,-0.20026305317878723,-1.1605998277664185,-0.3549906611442566,1,train
TCGA-X9-A971-01A,0.7306709289550781,0.03128628432750702,0.2108638733625412,-1.0531946420669556,-0.27658146619796753,-0.2375982701778412,-0.03463682904839516,0.11863723397254944,0.4170913100242615,-0.010460075922310352,-0.15424317121505737,-0.4455365538597107,-0.1788797229528427,0.010968973860144615,-0.05819293484091759,1,train
TCGA-DX-A7ET-01A,0.07497067749500275,-0.2861460745334625,0.6226038932800293,0.2374374270439148,-0.21322965621948242,-0.3296094238758087,0.5459129214286804,0.0968528762459755,-0.4030114710330963,-0.29982757568359375,-0.29055577516555786,0.7427926659584045,0.22844184935092926,-0.0778522714972496,0.6464882493019104,2,train
TCGA-3R-A8YX-01A,0.27340054512023926,-0.64576655626297,-1.3039606809616089,-0.4899137318134308,0.26746881008148193,-0.15057025849819183,0.18308980762958527,0.7218601703643799,-0.08427288383245468,-0.6466498970985413,0.10991031676530838,0.5192994475364685,-0.37201035022735596,0.5191389918327332,0.29799848794937134,0,train
TCGA-LI-A9QH-01A,0.562856912612915,0.04061884433031082,-0.9393505454063416,0.5059478878974915,0.14281430840492249,-0.20069800317287445,-0.32113316655158997,-1.262186050415039,-0.20448215305805206,-0.1131916493177414,0.49257969856262207,-0.012292055413126945,0.3175082206726074,0.6611586809158325,0.3958609998226166,2,train
TCGA-MB-A5Y8-01A,-0.0035160935949534178,-0.4730618894100189,0.6971753239631653,-0.21732209622859955,0.3591685891151428,0.47751086950302124,0.44735461473464966,-0.505222499370575,0.4732397496700287,0.019905291497707367,0.2081918865442276,0.01838722638785839,0.05656253173947334,0.5839118957519531,0.5273405909538269,2,train
TCGA-DX-A48P-01A,0.11288304626941681,0.035836830735206604,0.38930684328079224,0.4225805103778839,-0.18596772849559784,0.0944402888417244,-0.021575992926955223,-0.18456000089645386,0.5881977081298828,0.5865842700004578,-0.355002760887146,-0.371950626373291,0.4723798632621765,-0.4744870364665985,-0.452483206987381,1,train
TCGA-IS-A3K6-01A,-0.24679696559906006,-0.048327259719371796,0.8562065958976746,-0.22651708126068115,-0.22389233112335205,0.6910842657089233,-0.10621871054172516,0.3103660047054291,0.0856238529086113,-0.08300718665122986,-0.5079070925712585,0.2715274691581726,-0.19309329986572266,0.055647265166044235,-0.22686827182769775,1,train
TCGA-DX-A8BX-01A,0.24571070075035095,0.03406769782304764,-0.2662196457386017,-0.045765798538923264,0.5471301674842834,-0.586806058883667,-0.2215484380722046,-0.4157353937625885,-0.44516170024871826,0.06246361881494522,-0.06965729594230652,0.15641792118549347,-0.10176794230937958,-0.030797481536865234,0.16718542575836182,2,train
TCGA-3B-A9HY-01A,-0.2477758377790451,0.08373180776834488,0.3566668927669525,-0.2585005760192871,-0.5089234709739685,-0.4126015305519104,0.4304884672164917,-0.13608571887016296,0.724638044834137,0.21347296237945557,0.041482605040073395,-0.24320949614048004,-0.03075277991592884,0.004880432039499283,-0.20972135663032532,1,train
TCGA-DX-AB2X-01A,0.2559203505516052,-0.7436318397521973,-0.36022236943244934,-0.3645138144493103,0.5505344867706299,0.5718573331832886,0.1569756269454956,0.15927620232105255,-0.09298823028802872,0.16983383893966675,0.010858392342925072,0.01182754896581173,-0.16763202846050262,-0.08854746073484421,0.32041221857070923,2,train
TCGA-X6-A8C4-01A,0.5325949192047119,-0.7019481658935547,-0.608391284942627,-0.3705894351005554,0.09689749032258987,0.10580193251371384,0.5420409440994263,-0.8262630701065063,0.03256041929125786,-1.0137797594070435,0.2720617353916168,-0.05657161399722099,-0.11119663715362549,-0.17319060862064362,0.7659378051757812,2,train
TCGA-SG-A6Z4-01A,-0.20384497940540314,0.0324300117790699,-0.7656994462013245,0.2790193557739258,-0.18749727308750153,-0.4001365900039673,-0.6313022971153259,-0.6401191353797913,-0.3437783122062683,-0.4852136969566345,0.5354267358779907,-0.039637207984924316,0.011080633848905563,0.6152505278587341,0.5710018277168274,2,train
TCGA-DX-A2J1-01A,-0.31187161803245544,-0.1668168604373932,0.1853150725364685,0.4996603727340698,0.4212017357349396,-0.19091209769248962,0.02102518267929554,0.15934570133686066,-0.18482959270477295,0.008205450139939785,-0.49228712916374207,0.21800190210342407,0.009948295541107655,-0.0016995404148474336,0.24398308992385864,0,train
TCGA-DX-A23U-01A,-0.2880837619304657,-0.25664210319519043,0.03341352194547653,0.19017910957336426,0.267769455909729,-0.15059028565883636,-0.38567131757736206,-0.45918911695480347,-0.09742777794599533,-0.3712577223777771,-0.1713716983795166,0.26570186018943787,-0.008181363344192505,-0.13434195518493652,0.3709913492202759,0,train
TCGA-DX-A48O-01A,0.053416576236486435,-0.22840268909931183,0.5268799662590027,0.037912365049123764,0.17408037185668945,0.2766372859477997,-0.4122318625450134,0.15237875282764435,0.6624041795730591,0.281009703874588,-0.25547119975090027,-0.4912392497062683,0.19898048043251038,-0.3292067348957062,-0.7788466811180115,1,train
TCGA-DX-A7EF-01A,0.18717780709266663,-0.27301010489463806,-0.7383691668510437,-0.18523122370243073,0.017202500253915787,0.22994516789913177,-0.5146850943565369,-0.028400219976902008,0.21059677004814148,-0.49105286598205566,0.1954870969057083,0.42669329047203064,0.17772777378559113,0.5411458015441895,0.7137137055397034,2,train
TCGA-X6-A7WA-01A,0.379910945892334,-0.15206511318683624,-0.0009805780136957765,-0.23421894013881683,-0.16358047723770142,0.03339112177491188,0.06718847155570984,0.24788157641887665,0.27303415536880493,0.05702147260308266,-0.017562953755259514,-0.601239025592804,0.1587611734867096,0.014704311266541481,-0.5100880265235901,1,train
TCGA-3B-A9HZ-01A,-0.13614417612552643,-0.06408156454563141,0.5279861688613892,-0.1193448156118393,-0.23894138634204865,-0.5052112340927124,-0.17017774283885956,0.6131604909896851,0.7063552737236023,0.26755857467651367,-0.28343138098716736,-0.47724708914756775,0.0018230739515274763,-0.5128574967384338,-0.045213256031274796,1,train
TCGA-IE-A4EH-01A,-0.2772413194179535,-0.0570867545902729,0.6678116321563721,-0.2225990891456604,-0.3746975064277649,0.8108250498771667,-0.7179070711135864,-0.13697263598442078,0.24706865847110748,0.3341529667377472,-0.40159380435943604,0.3040986955165863,-0.2112429440021515,-0.4377782344818115,-0.4104762375354767,1,train
TCGA-QQ-A8VF-01A,-0.07932523638010025,0.0792934000492096,0.15059208869934082,-0.10651630163192749,-0.11726387590169907,-0.34607893228530884,0.1999063342809677,0.558134138584137,0.08489502221345901,0.01587890088558197,-0.1857067346572876,0.2409137785434723,-0.21319255232810974,-0.20061494410037994,0.7628910541534424,1,train
TCGA-QQ-A5VD-01A,-0.4303973913192749,0.15794773399829865,0.4400547742843628,-0.05759024992585182,-0.16114144027233124,-0.29903414845466614,0.5161922574043274,0.013005880638957024,0.478563517332077,0.20706544816493988,-0.14554350078105927,0.034347131848335266,0.01708310656249523,-0.029486432671546936,-0.019668791443109512,1,train
TCGA-DX-A3UF-01A,0.4307043254375458,0.1020929366350174,0.4096852242946625,-0.4942857623100281,-0.18586458265781403,0.10629414021968842,0.3831135928630829,0.4853936731815338,-0.13130833208560944,0.6104494333267212,-0.0243444312363863,-0.34350472688674927,0.001449455157853663,-0.7796956300735474,-0.417948842048645,1,train
TCGA-DX-AB2J-01A,-0.09455595165491104,0.5409135222434998,-0.0874294862151146,-0.3811792731285095,0.37308821082115173,0.4725892245769501,-0.012806774117052555,0.02844448946416378,-0.09685588628053665,-0.02762475796043873,-0.04307088255882263,0.2691587507724762,-0.10520165413618088,-0.1243097186088562,-0.4565580487251282,2,train
TCGA-DX-A48K-01A,-0.3890743851661682,-0.08776482194662094,0.3597072958946228,-0.2889501750469208,-0.20308934152126312,-0.2827678620815277,0.1493731290102005,-0.5632258653640747,0.4518653452396393,0.2727753818035126,0.02285488322377205,0.13913585245609283,0.16969087719917297,0.12080251425504684,0.7141360640525818,1,train
TCGA-3B-A9HI-01A,-0.07379382103681564,0.10281145572662354,0.05954928696155548,0.5668835639953613,-0.10093975812196732,-0.44751885533332825,-0.3250918984413147,0.09359680116176605,0.16081401705741882,-0.30691444873809814,0.042050592601299286,0.7361710071563721,0.24949045479297638,0.29253488779067993,0.5034502744674683,0,train
TCGA-X6-A7WC-01A,116.92725241527887,-366.54873761080154,-741.9480627655885,-72.25189631842882,108.25921756208817,-173.6869852485547,-10.906073904683202,80.72667136144176,-220.33247822325083,-328.51452083915245,252.27342987323382,306.89464991909387,-40.77658079880806,301.841904111944,769.3358241105307,1,test
TCGA-DX-A23R-01A,-324.46094071436846,651.9349639958504,265.81331878080675,-2.558382940795705,399.6552311826017,98.98503201853639,-179.3926004276107,-474.1947161499083,107.72448693278558,15.449780344783656,408.76562222130843,96.6652626606081,325.7388275338373,25.468554571994485,215.20031749291502,0,test
TCGA-DX-A23V-01A,-19.25731391025929,190.64384991427292,42.97639092436384,317.5033539494453,644.7918989154535,77.16675612373307,37.174441932646666,89.45352508363602,-107.26958319414227,4.310260063009866,-254.88552636795905,137.9384922010312,153.71344286608976,24.963680093319766,41.427751574386946,0,test
TCGA-DX-A3U8-01A,-85.87839402600174,-252.16217774347308,-112.04048455303477,101.26567369049769,218.51630226576836,-92.09857077181958,-119.42649842655426,376.75119118804963,-41.91188826351799,-225.37567676805654,-133.8951584097815,31.341859614857423,-220.29387754754916,51.15541116625238,383.09357580555843,1,test
TCGA-DX-A1L0-01A,48.73813955970277,250.04946923387584,-279.5251023398766,-282.7920033535067,417.3080360259167,-282.96398092058894,-184.3948973751335,130.0224016722169,-432.94269391144553,-296.5142723201524,185.37397427718278,280.287250585239,-150.60316229733135,146.2000876459708,-54.81874785987819,0,test
TCGA-DX-AATS-01A,19.47792084795955,-192.172911566382,-949.3549380195067,81.38545284315158,259.50752534457087,-238.26010092682006,-390.9515271054922,23.583615191045794,70.76646316480353,-634.5378644544238,207.6700838572441,472.20957624465314,130.81948483537008,378.92080783065325,698.551199228008,2,test
TCGA-MB-A8JK-01A,-127.98797054255449,-131.4555348017874,-515.836196242173,459.69601352788715,53.9575106581251,-326.7394938071747,-327.53355417745655,220.96416242854548,54.926872784059015,-568.1981414033376,-171.999130893758,355.8869717444332,95.8509351444116,400.77528303903676,298.0303418775316,2,test
TCGA-DX-A3U6-01A,-136.22686752945506,70.8640283992108,271.95560501213754,668.6148914421118,641.1586703675989,158.8430674152124,184.51151908898052,287.80634399091014,-76.7425980392179,-62.883470434513434,-36.118265770049135,-222.44703440543404,-133.0975280772603,63.57380556161693,228.87212678952406,0,test
TCGA-DX-A3UD-01A,375.5242214003495,-459.2971424496527,-604.5916954371139,-90.92773428719947,-776.1009778796368,-275.0534589626456,-297.5081025859135,609.9262570347726,-88.9649841468409,-469.44317074385964,35.21498156970529,-18.16943366717275,62.79666795476886,160.6045854778832,-598.9921090013926,1,test
TCGA-MB-A8JL-01A,45.127007521580616,497.773406675938,99.69195460469841,-626.8917311731587,310.44461269595985,178.83459237123557,530.6654710141172,29.706819149151812,-39.742281148492644,351.84772357072825,62.072061490835466,-63.06521204364052,-271.2894558658433,-132.58923358552275,125.67859007643251,1,test
TCGA-X2-A95T-01A,-224.36357535315847,273.67557142290036,444.58966375596054,125.54411337726513,-642.5805089284222,271.2324749528149,-213.57029041059744,-252.38647089103986,164.53546469514148,-6.076652074553521,-178.46841924290302,-56.61024773009285,-234.19213756052113,-29.459231492805483,-578.301503967734,1,test
TCGA-VT-A80J-01A,-47.00139252736528,-32.91895389003935,953.1683854407065,-55.11685632187698,239.76212396189706,204.48042423180928,158.6668361526231,-156.7928601213306,-105.26390224780073,877.889241308967,-21.260661366445152,-574.5583220302019,-62.02826432117098,-752.0593309677985,474.32075779858064,2,test
TCGA-JV-A5VF-01A,212.7478275564897,33.10231672911854,-653.358565248149,-346.1356984010397,92.42896236560962,336.6839016769608,-305.2133279969633,137.08274630703193,-255.46685708563913,-517.9597804983331,321.01497453248396,318.0482145045565,-305.16029462116984,330.05218231603584,321.51247499908067,1,test
TCGA-DX-A6B7-01A,-218.82731821125523,-109.13842948806364,555.1768159501772,39.23982133833632,-336.35946980962564,-280.3187460119994,111.85308971698889,-351.721628608965,407.85061182949516,530.1507382619562,-306.7902965347684,-337.9280506862697,208.13611293445442,-377.988696608749,-790.9820081420847,1,test
TCGA-SG-A6Z7-01A,26.678682519116865,913.8812672840555,-730.5231939752921,-430.56300730363154,129.46906042256302,183.2352684202658,-61.76342443103346,193.7943304635185,132.63009890238666,-498.16980626780474,310.62712347843416,403.0132940535835,-82.28508078014198,258.46345073649906,74.933269627017,0,test
TCGA-DX-A8BO-01A,-91.70961556260029,-259.5462688206292,631.50955491742,194.63183664003716,404.4099003601535,98.92033991554025,419.0245886827401,-375.0183081954285,-74.3788385105576,377.3103130308018,-160.88383385093584,-189.5898190093943,73.46522636533437,-75.0908620189531,358.211086694768,2,test
TCGA-DX-A6BE-01A,-272.03022364594744,166.75901962407391,-20.10766260364329,471.21476753390044,383.05842743567206,-267.13955780031966,101.50244828955097,229.53260119267838,-44.86686377980498,-27.556135436325363,-330.23460727543994,142.17598259841319,-61.53742562375742,29.862204878684718,258.26594284053016,0,test
TCGA-HB-A43Z-01A,216.59508723816757,517.6161555674408,-383.35596609132523,-579.6655342876246,-522.0857517522749,157.77249945649183,94.52979068633694,87.52271260744753,151.96425161899202,-51.99116181983258,-122.39169008721183,-211.31498948354002,-412.4051742075112,-169.3424288836399,-683.2124334621764,1,test
TCGA-DX-A48N-01A,175.31205837345487,328.2092894429219,-1142.8733717854784,-65.38213460273745,366.61855212617473,-339.8997764966486,-217.37656012260007,462.13913905878616,-50.66857103298455,-675.1260714110485,-63.782569085739304,649.5320303709956,-159.90256033486284,293.27418514725906,-102.93084204761401,0,test
TCGA-MB-A5YA-01A,-163.27930311206467,-264.2075552474933,504.7954546525469,-61.90177113551788,-273.1740755072238,-289.7203493912124,311.28939666276625,-179.10529312606283,379.7507917007986,348.25009225245594,-165.3628895179476,-212.5561456209817,351.45205480903957,-118.1175867980221,-519.2162712224753,1,test
TCGA-DX-A6Z2-01A,-21.0481885953715,60.565655943741625,660.7207948187062,222.20116083234117,-377.2034763640905,79.18882829288066,220.45051744984224,-149.37603956372487,439.8614901795657,455.1871676020858,-88.65682696853486,-611.3495683717705,359.0522603116347,-344.8071976161873,-362.0529284213376,1,test
TCGA-DX-A3UE-01A,126.0905877867542,-108.0617917231532,399.7439161369639,-388.7282531909168,-484.8228416389506,29.249635378479145,-71.06179718621304,-53.92332005482037,393.7823287336996,119.70103877287157,-119.36370704769342,-407.6582839524261,377.9192779202303,-64.40210326873887,-664.098096805829,1,test
TCGA-3B-A9I3-01A,-408.22564709851696,315.3334726037567,1202.4292711516525,95.81575025764045,-127.39659028619928,-164.98109735604964,-50.00830204236926,-251.89457364138784,323.9184854822369,1078.1173503547477,85.81663594401552,-642.1416826309011,-81.7655068624766,-1038.428238835209,-252.17877928014445,1,test
TCGA-3B-A9HO-01A,94.80928186563078,-217.18951408964162,-1018.7847776806593,498.01634653485627,601.4874321953598,-289.1781632912235,-47.71282212164676,816.0058027342625,-143.13847317656447,-668.9846244664623,-367.458721844798,583.1074023879479,-73.9295464897964,343.5840450540729,308.387861884468,0,test
TCGA-DX-A23Y-01A,216.51962037423348,-190.9671118888177,-596.1338139340929,7.022259283444328,391.9778224307924,-232.00432231228083,41.584793200819924,671.8094546913973,-320.69501024781374,-280.4548198003276,-110.44373549593452,362.66195834951554,-223.02656297146075,227.88244288849992,220.53623456642958,0,test
TCGA-DX-A7EM-01A,216.7811709309764,63.91381640322357,-195.0771021956996,-197.85965435236494,-750.3160336414486,-327.1554138091752,131.85188173586792,439.0883444996776,317.885513392399,-142.17472005417056,-42.429425424710956,-275.5447489720549,-15.409072378712617,17.184246813024885,-630.2297340489853,1,test
TCGA-DX-A6BA-01A,439.53167851715597,154.09207328699617,-437.3968734062417,-432.99799496199404,-428.47699341278525,86.42697366691273,163.55668446767717,489.14356275238714,484.91947079522305,-163.49606695400405,-198.04753375054904,-183.70079032132404,95.71443902930434,-108.55234773880683,-706.0480459480472,1,test
TCGA-DX-AB35-01A,-56.304173534521674,112.28112887436727,-455.81810823047243,516.5047802548515,448.2724110235634,-357.9904550835411,-296.67649027237917,159.07220046541127,-381.4551291546218,-462.8408001307635,26.276186343847414,677.647323283074,196.81127406285725,298.24814424216396,9.185766281526044,0,test
TCGA-VT-A80J-02A,277.87380331819486,-301.08460789058074,-21.79439519196489,-360.8215401211925,216.33713966545977,202.6233685364641,503.19753167356936,86.87902037102184,-135.82056047349616,246.28786579701125,-50.11505312731998,9.191609454859256,-18.946435167682704,-159.45374167693305,569.248919694153,2,test
TCGA-N1-A6IA-01A,329.72024711917317,-15.40108594079146,-421.0422290284062,-112.22498127158836,-240.78802324099937,335.08483499578864,40.43274593847567,-6.5704300472537325,-320.69635139773516,-222.78760901411806,196.49677198034394,269.4546951174277,-216.42971406641857,99.94039142293796,212.04727819956807,1,test
TCGA-WK-A8XS-01A,334.0445170806758,192.4123423145701,-422.55554336398,-346.18890000005587,-626.6397393224396,168.80037444486183,69.1118914487833,286.1424258003761,137.9626834946736,-185.98687234807275,-12.151260644506797,-61.126997261278085,9.101957990457732,25.420927144375074,-540.9592845280955,1,test
TCGA-Z4-A9VC-01A,-319.62544072704463,350.0452312368027,-60.837148728480024,281.52327862055023,236.61889140569838,-250.9130173389245,-121.09337895444759,-172.849662890741,-34.19364741785987,-28.89645280450416,144.61807856835983,116.46097825334412,51.929701184268886,43.33585540625847,155.1500290540097,0,test
TCGA-3B-A9HQ-01A,58.78993161286274,114.14191353761841,590.7132925422528,130.94738301450857,-525.7336421447052,66.32265114717615,369.9974255005127,17.596827043019818,430.92150469180706,374.57511629535406,-125.0069922836151,-671.1621470095246,354.40904332044744,-196.11463464019604,-533.6529901092355,1,test
TCGA-3B-A9I1-01A,313.51862082506847,174.57320595268632,-331.14069372563074,-80.29570742689744,-602.6170818600142,392.87736306359153,-247.01784139799608,353.60656056530803,-89.89958377212633,-316.35202531526596,-138.5506656808778,215.19626559518406,-394.621347599678,20.60444731734424,-614.1785527694666,1,test
TCGA-DX-A8BN-01A,178.80664900642944,-250.50813517443189,-929.3766059633826,540.6661718793231,460.6216855720516,66.78075751172709,-412.8473901575207,115.3349383408303,-349.31009957101236,-657.5428737516565,19.509980486211887,663.8065540229176,280.1719172700555,363.1801894899745,364.89730510464886,2,test
TCGA-MB-A5Y9-01A,-22.356344028623283,-432.42731251330673,-46.929479733619054,335.0616404797386,430.6708929120223,-97.87089234554243,178.7643750287394,241.34606985245523,-257.0025966025198,-53.73747150324609,-180.06035231695876,88.80654268112524,-98.60018418493496,151.96287240129774,589.935749522096,2,test
TCGA-KD-A5QT-01A,41.34014570735955,331.9378021032621,586.4637956589723,-218.98709122385753,-442.8867414790746,476.5948366971381,-52.22610797596642,-16.790905986174653,328.62050431126835,144.15049499503263,-39.13469598451429,-193.25587914091707,-490.71993586234345,-314.032422174567,-778.6086473916453,1,test
