,Factor_1,Factor_2,Factor_3,Factor_4,Factor_5,Factor_6,Factor_7,Factor_8,Factor_9,Factor_10,Factor_11,Factor_12,Factor_13,Factor_14,Factor_15,Label,Split
TCGA-DX-A8BV-01A,0.42447230219841003,0.02032840996980667,-0.06376338750123978,-0.2970675230026245,-0.10772499442100525,0.15933386981487274,-0.49252042174339294,0.39329028129577637,-0.17823852598667145,-0.1565275937318802,-0.33903706073760986,0.26284468173980713,-0.04479632154107094,-0.43474242091178894,-0.34235379099845886,1,train
TCGA-DX-A7EL-01A,-0.5410560369491577,0.10889457166194916,-0.17890578508377075,-0.1935175508260727,0.3347618579864502,-0.5037209987640381,-0.34390395879745483,-0.6242660284042358,0.27181220054626465,0.11936355382204056,0.888579249382019,0.007878845557570457,0.31078073382377625,0.38456669449806213,0.493577241897583,2,train
TCGA-DX-A48O-01A,0.3061114549636841,0.05901240557432175,-0.6272138953208923,-0.012861046940088272,0.1469956487417221,-0.4544234871864319,-0.28725099563598633,-0.8090789318084717,0.3482118844985962,0.2248779684305191,0.3940480649471283,-0.061492886394262314,-0.06916893273591995,0.18908469378948212,0.8028884530067444,2,train
TCGA-DX-A6Z0-01A,-0.9999994039535522,-0.07823178172111511,0.09724892675876617,-0.1993681937456131,0.04850976541638374,0.4565366506576538,0.35023626685142517,0.47862178087234497,0.43687888979911804,0.1488816887140274,-0.4446229040622711,0.27894356846809387,-0.2226199358701706,-0.21762844920158386,-0.7274057865142822,1,train
TCGA-IW-A3M4-01A,0.06526431441307068,-0.016592729836702347,0.3101932108402252,0.6233813762664795,0.3627011477947235,-0.8574056625366211,-0.3400503098964691,-0.37553444504737854,0.38487812876701355,-0.20977121591567993,0.4399849772453308,-0.47676852345466614,-0.14352506399154663,-0.2091880440711975,0.3734148442745209,2,train
TCGA-3B-A9HL-01A,0.1280563473701477,-0.43991464376449585,-0.13443085551261902,0.055701375007629395,0.20470277965068817,-0.04632817208766937,-0.22154662013053894,0.49838241934776306,-0.38634994626045227,-0.4651496708393097,-0.5368383526802063,0.29467228055000305,0.002876410959288478,0.06578125059604645,-0.5670509934425354,0,train
TCGA-MJ-A68H-01A,-0.2120656967163086,0.018829919397830963,-0.04154025390744209,0.34167879819869995,-0.3788894712924957,-0.4225905239582062,-0.35991474986076355,0.16577564179897308,0.014935685321688652,-0.4270615875720978,0.6318122148513794,-0.03627125546336174,-0.16076238453388214,0.6650907397270203,-0.17045296728610992,2,train
TCGA-PC-A5DL-01A,-0.026202281937003136,0.058018360286951065,-0.6176799535751343,-0.2150082141160965,-0.05794186890125275,-0.6576746106147766,-0.1928611397743225,0.1700643002986908,0.2797999978065491,-0.5248755216598511,0.3484218716621399,0.07262437045574188,0.41539067029953003,-0.11464723199605942,-0.06500881910324097,2,train
TCGA-HB-A43Z-01A,0.1813172549009323,0.10313412547111511,-0.23924018442630768,0.09503176063299179,-1.48525869846344,-0.20189237594604492,0.6559973955154419,0.37844380736351013,0.6576453447341919,-0.630591094493866,-0.2762165665626526,-0.7728314995765686,-0.2881842851638794,0.5219038128852844,1.2867008447647095,2,train
TCGA-DX-AB35-01A,0.3952797055244446,-0.5026111006736755,-0.05726510286331177,-0.14641490578651428,0.3633197247982025,0.08052017539739609,0.24861621856689453,0.3467537760734558,-0.5588757991790771,-0.2945541739463806,-0.30913981795310974,0.29262614250183105,0.026361024007201195,-0.36957046389579773,-0.6963685750961304,0,train
TCGA-DX-A3UD-01A,0.09208370745182037,0.531497061252594,-0.6954525709152222,-0.01925784908235073,0.37460535764694214,-0.266726553440094,0.3814827501773834,0.5252381563186646,-0.15331178903579712,-0.31602048873901367,0.503783643245697,0.13778047263622284,0.05558054521679878,0.5800350308418274,-1.3350528478622437,2,train
TCGA-DX-A1KY-01A,0.09534754604101181,-0.541576623916626,-0.05386589840054512,0.2759009599685669,0.21135106682777405,0.4367823898792267,-0.025390706956386566,-0.15599609911441803,-0.15570926666259766,-0.19682152569293976,-0.3375371992588043,-0.5362241268157959,0.2951413691043854,0.724094808101654,0.10678508132696152,0,train
TCGA-JV-A75J-01A,0.3035348653793335,-0.845334529876709,0.49068665504455566,0.10426725447177887,-0.0796450823545456,0.8071728348731995,0.14942525327205658,-0.3590919077396393,0.9388861656188965,-0.5168589949607849,-0.08990953862667084,-0.714508056640625,-0.13429860770702362,0.10286785662174225,0.39818206429481506,2,train
TCGA-DX-A8BL-01A,-0.15758684277534485,0.27883654832839966,0.3095409870147705,-0.6350323557853699,-0.223118856549263,0.0960523709654808,-0.1411542445421219,0.606915295124054,-0.4624585509300232,-0.0026024316903203726,-0.08454564213752747,0.3484031558036804,0.16064244508743286,-0.2599116861820221,-0.7818065881729126,3,train
TCGA-DX-A48K-01A,0.19723762571811676,0.0067093088291585445,-0.026776118203997612,0.1556740552186966,-0.3118375241756439,0.5555229783058167,-0.031397655606269836,0.01996343955397606,0.06619654595851898,0.3761261999607086,-0.062110405415296555,-0.11849892884492874,0.3760264813899994,-0.3342362642288208,0.31637275218963623,2,train
TCGA-SI-AA8B-01A,0.32261571288108826,1.2524861097335815,0.13100704550743103,-0.5860639810562134,0.004285889677703381,0.5250552296638489,0.40607184171676636,-0.6348837018013,0.8933638334274292,-0.8703541159629822,-1.474973201751709,0.043827809393405914,-0.6098703145980835,-0.08615453541278839,-0.23657026886940002,3,train
TCGA-IS-A3K6-01A,0.3443881571292877,0.08290175348520279,0.18064868450164795,0.2512461245059967,0.03670903667807579,-0.6310182809829712,0.4227517545223236,-0.0012860989663749933,-0.0201141145080328,0.3556053340435028,0.07996439933776855,-0.3413129448890686,-0.48586028814315796,0.11506152898073196,0.0977095291018486,2,train
TCGA-DX-AB2X-01A,-0.2829133868217468,0.09146413207054138,0.33427441120147705,0.5354303121566772,0.05624086782336235,0.3016609251499176,-0.4008669853210449,-0.2487112134695053,0.14228354394435883,0.7643150687217712,-0.17328371107578278,0.29049867391586304,-0.18606403470039368,0.25806164741516113,-0.07002275437116623,3,train
TCGA-LI-A9QH-01A,-0.15473654866218567,0.20418421924114227,-0.044271666556596756,-0.06640076637268066,-0.20631390810012817,0.5347223877906799,-0.2777690589427948,0.3373648226261139,-0.186388298869133,-0.5168458819389343,-0.2193613201379776,0.5708814263343811,-0.433271586894989,-0.5745286345481873,-0.2482108324766159,3,train
TCGA-DX-A7EI-01A,-0.3452962040901184,-0.45405885577201843,0.4340977072715759,-0.1835404485464096,-0.3186957538127899,0.2513655126094818,-0.47129425406455994,0.2500261962413788,0.15132057666778564,-0.31940656900405884,0.37370947003364563,-0.5599411725997925,-0.02030099369585514,0.08204124867916107,-0.3380453586578369,0,train
TCGA-WK-A8XY-01A,-0.18351949751377106,0.1143239289522171,-0.4373176395893097,0.4836101531982422,0.2853924036026001,-0.3091977536678314,-0.10995642840862274,-0.4269590675830841,0.4074968099594116,-0.017321044579148293,0.6856365203857422,-0.035846907645463943,0.0018805153667926788,0.8382322788238525,0.6963966488838196,2,train
TCGA-DX-A6YS-01A,0.11674100160598755,-0.24013137817382812,-0.011545300483703613,-0.05090613663196564,0.30006644129753113,0.3044765591621399,0.3359055519104004,0.528231680393219,-0.5090684294700623,-0.1925322264432907,-0.04951201006770134,0.26418522000312805,0.055538348853588104,-0.7115919589996338,-0.6055992245674133,1,train
TCGA-X6-A7WD-01A,0.34263044595718384,0.2722031772136688,-0.41244372725486755,0.07446955889463425,-0.1423434317111969,0.15412460267543793,0.13753852248191833,-0.933108389377594,0.07449609786272049,0.23398958146572113,0.5828220248222351,-0.22293002903461456,0.13762931525707245,0.5199434757232666,0.5357574820518494,2,train
TCGA-3B-A9HQ-01A,-0.2272741049528122,0.03353675454854965,-0.5515851378440857,-0.5065579414367676,-0.05998983606696129,-0.3803228735923767,0.06476485729217529,-0.08238235116004944,0.28901490569114685,0.12055901437997818,0.5272787809371948,-0.10591956973075867,-0.10097036510705948,0.1640137881040573,0.28803256154060364,2,train
TCGA-DX-A8BK-01A,0.29438814520835876,0.14969493448734283,0.13725560903549194,-0.5866531729698181,-0.16420064866542816,0.2748381495475769,-0.317082941532135,0.19979102909564972,-0.33906659483909607,0.5542269945144653,-0.2629300653934479,0.11601286381483078,-0.6422214508056641,-0.5018583536148071,-0.4965174198150635,3,train
TCGA-PC-A5DO-01A,-0.03651334345340729,-0.062286946922540665,-0.6023841500282288,-0.2072647213935852,0.220060333609581,-0.03739367425441742,0.7638610005378723,-0.3632705807685852,0.41144996881484985,0.13520556688308716,0.08670248091220856,-0.1654045134782791,-0.18076463043689728,0.7141762971878052,0.11675413697957993,2,train
TCGA-QQ-A5VB-01A,-0.44072675704956055,0.28972798585891724,0.2981545031070709,-0.3129690885543823,-0.372303307056427,0.4087103605270386,-0.18852771818637848,0.6235650777816772,-0.060080334544181824,0.014954389072954655,-0.03695808723568916,0.1583925187587738,-0.4306541979312897,0.1834745556116104,-0.4339756667613983,2,train
TCGA-DX-A8BM-01A,0.6305616497993469,-0.3294653594493866,-0.08978959172964096,-0.20209376513957977,-0.011726109310984612,0.517858624458313,-0.36854639649391174,0.3639703392982483,-0.26633381843566895,0.26794517040252686,-0.233467698097229,-0.06395873427391052,-0.024450138211250305,-0.8162449598312378,-0.3595413565635681,3,train
TCGA-VT-A80G-01A,-0.7805558443069458,-0.030647972598671913,0.2912434935569763,0.666362464427948,0.7083948254585266,0.769858717918396,0.6590373516082764,0.6832173466682434,0.047695040702819824,0.27319270372390747,0.1931663602590561,0.021645033732056618,0.4067207872867584,-0.11767768859863281,-0.511738657951355,3,train
TCGA-K1-A6RU-01A,-0.2392461746931076,-0.3113456666469574,0.18898047506809235,-0.3320000469684601,-0.20079080760478973,0.12419313192367554,-0.17464877665042877,0.28461065888404846,-0.4761172831058502,-0.0716719999909401,0.04804294928908348,0.3275456428527832,-0.3548743426799774,-0.10913732647895813,-0.540666401386261,1,train
TCGA-FX-A48G-01A,-0.20994412899017334,0.1794811189174652,0.07763019949197769,0.7396754622459412,0.09167952835559845,-0.765744686126709,0.03537437692284584,-0.6735535860061646,0.14791138470172882,-0.07929173856973648,-0.12258318066596985,-0.5569251775741577,0.1958979219198227,-0.4598819315433502,0.19573640823364258,2,train
TCGA-DX-AB2H-01A,0.13442492485046387,-0.5570531487464905,0.36524468660354614,-0.022869648411870003,0.11844755709171295,0.5558884739875793,0.06460197269916534,-0.3639495372772217,-0.058981504291296005,-0.31170007586479187,0.18469196557998657,-0.5829266905784607,-0.0027712895534932613,0.08447279036045074,0.05864284187555313,0,train
TCGA-QQ-A5VD-01A,0.1417224258184433,-0.05629608407616615,-0.2533820569515228,-0.2759755551815033,-0.0008066552691161633,-0.07778878509998322,0.1495237797498703,-0.06529693305492401,0.43000805377960205,-0.15180380642414093,-0.2137104868888855,-0.2635518014431,0.36774662137031555,0.07796468585729599,0.3697817325592041,2,train
TCGA-3B-A9I0-01A,-0.0661926344037056,0.11106724292039871,-0.807685911655426,-0.10580599308013916,0.15215550363063812,-0.33796462416648865,0.2513868510723114,0.21742063760757446,0.24941296875476837,-0.1507215052843094,0.22355565428733826,0.24044543504714966,0.30523988604545593,0.5139098763465881,0.2442632019519806,2,train
TCGA-X6-A8C5-01A,-0.18631717562675476,0.21285992860794067,-0.39178466796875,-0.3083028197288513,0.11359740793704987,-0.4916987121105194,-0.24164216220378876,-0.7615383863449097,0.26991844177246094,-0.14413990080356598,0.530771017074585,0.0813080444931984,0.14789699018001556,0.13481737673282623,0.8182241916656494,2,train
TCGA-DX-A3LS-01A,-0.35918161273002625,-0.24281787872314453,0.23654413223266602,0.06642571091651917,0.14317291975021362,-0.12116753309965134,0.061493176966905594,-0.048103462904691696,0.10659059137105942,0.07294806838035583,-0.14927378296852112,0.11159656941890717,-0.20807059109210968,0.020173504948616028,-0.06647634506225586,0,train
TCGA-DX-A6BH-01A,0.12392250448465347,-0.33133628964424133,0.005179906263947487,0.048194050788879395,0.12769687175750732,0.06837915629148483,-0.1715402454137802,-0.05430176854133606,-0.059361014515161514,-0.09698620438575745,-0.1800910234451294,0.12354300171136856,0.3671095073223114,0.016046155244112015,0.12818878889083862,0,train
TCGA-JV-A5VF-01A,0.5838176012039185,0.03532078489661217,0.3667326271533966,-0.22500979900360107,-0.05933898314833641,0.7816237211227417,-0.38704776763916016,0.39995548129081726,0.13657277822494507,0.15925350785255432,-0.1637873351573944,-0.7303252220153809,-0.7596507668495178,0.03970223665237427,-0.18955612182617188,2,train
TCGA-QQ-A5VC-01A,-0.4375552833080292,0.39546650648117065,0.14250990748405457,0.2620834410190582,-0.23406067490577698,0.590254545211792,0.16617225110530853,0.132350891828537,-0.04569467529654503,-0.03891417756676674,-0.017421076074242592,0.38872605562210083,-0.21179278194904327,-0.26081544160842896,-0.3641916811466217,2,train
TCGA-DX-A6Z2-01A,-0.3321612775325775,0.06355103850364685,-0.4144546687602997,-0.018267080187797546,-0.1848738044500351,-0.43676847219467163,-0.12426130473613739,-0.5854219794273376,0.10223157703876495,0.025303101167082787,0.7559333443641663,0.12281820923089981,0.24861745536327362,-0.007510025054216385,0.5814256072044373,2,train
TCGA-HS-A5N7-01A,-0.09391754120588303,0.09478823840618134,-0.4246116876602173,-0.4880055785179138,-0.09269387274980545,-0.07007265090942383,0.1147443875670433,-0.2882060408592224,0.5327098369598389,-0.06092395260930061,0.2272147387266159,-0.339424192905426,-0.09961109608411789,0.33470040559768677,0.32181257009506226,2,train
TCGA-DX-A6BF-01A,-0.06382376700639725,-0.24535596370697021,0.07903435826301575,0.11897433549165726,-0.10740825533866882,0.15583640336990356,-0.018629437312483788,0.24671834707260132,-0.43736785650253296,-0.056508246809244156,-0.30647966265678406,0.5659176707267761,-0.5335436463356018,0.1171693429350853,-0.6112087368965149,0,train
TCGA-DX-A8BN-01A,-0.2272670567035675,-0.062391526997089386,-0.1881658136844635,0.15669108927249908,0.21701151132583618,0.2107374370098114,-0.5703473091125488,0.3331865072250366,-0.9556094408035278,-0.21545469760894775,-0.4305872321128845,0.36069220304489136,-0.5377868413925171,-0.48375919461250305,-0.4171164631843567,3,train
TCGA-FX-A3NK-01A,-0.26571181416511536,-0.31211844086647034,0.2403016984462738,-0.3980090618133545,0.08706340193748474,-0.08200044184923172,-0.1515411138534546,-0.009872849099338055,0.003944351803511381,-0.33822008967399597,0.006894484627991915,-0.06382324546575546,0.6125360131263733,-0.011357702314853668,0.15664878487586975,0,train
TCGA-DX-AB2E-01A,-0.4959815740585327,0.3230060040950775,0.500994861125946,0.37397846579551697,-0.3429538607597351,-0.15281251072883606,-0.4287261664867401,1.1380630731582642,-0.15855267643928528,-0.11039573699235916,-0.13533714413642883,0.47839459776878357,-0.055093150585889816,0.7120409607887268,-0.8593881726264954,1,train
TCGA-DX-A23V-01A,0.025585167109966278,-0.7015931010246277,0.029058339074254036,-0.0916638970375061,0.05147372931241989,-0.1037079244852066,-0.17565695941448212,-0.42632028460502625,-0.11031953245401382,0.5655297040939331,-0.288591593503952,0.17347505688667297,-0.15615850687026978,-0.2229606807231903,0.12004835158586502,0,train
TCGA-DX-A6BB-01A,0.2362084537744522,0.046252354979515076,-0.6202796697616577,0.2728281021118164,-0.07587538659572601,-0.43889617919921875,-0.16235150396823883,-0.32021984457969666,0.06507042050361633,-0.23706486821174622,0.5381159782409668,0.10497898608446121,0.5987463593482971,-0.04831562936306,0.6015943288803101,2,train
TCGA-DX-A48U-01A,0.20356634259223938,0.14048722386360168,-0.8454521894454956,0.3307126760482788,0.38553959131240845,-0.6052014827728271,-0.1396571695804596,-0.216749370098114,0.23164102435112,-0.17423172295093536,0.5600777864456177,0.2167666256427765,0.45871680974960327,-0.012460150755941868,0.729273796081543,2,train
TCGA-DX-A3UB-01A,0.41744399070739746,-0.14745354652404785,-0.12006832659244537,0.012958631850779057,0.12120074033737183,-0.3427675664424896,-0.19462339580059052,-0.003438376123085618,0.1274452805519104,0.4177664816379547,-0.04091569408774376,-0.20009681582450867,0.24077646434307098,-0.08050220459699631,0.07670888304710388,2,train
TCGA-DX-A2IZ-01A,0.323774516582489,-0.4143904149532318,0.21056929230690002,0.29328951239585876,0.11385814100503922,0.13833478093147278,-0.21186040341854095,0.0017797047039493918,0.1020805761218071,-0.21440735459327698,-0.19731265306472778,-0.29963552951812744,0.2612774670124054,0.8474905490875244,0.11899672448635101,0,train
TCGA-X6-A8C4-01A,0.44694018363952637,1.2859917879104614,0.13011141121387482,-0.48288729786872864,-0.31994467973709106,0.5167607069015503,-0.1185343861579895,-0.7192429304122925,0.973823606967926,-0.2980918884277344,-1.6355165243148804,0.12888729572296143,-0.5902769565582275,0.3362633287906647,-0.370766818523407,3,train
TCGA-DX-A1L4-01A,-0.2997867166996002,-0.1428244262933731,0.26826050877571106,-0.13536915183067322,0.12932971119880676,-0.2963096797466278,-0.04672009125351906,0.02518836408853531,-0.16110984981060028,-0.15590782463550568,-0.19886742532253265,0.37476542592048645,0.5073280334472656,-0.40695321559906006,0.09273368120193481,0,train
TCGA-K1-A6RV-01A,0.1045086681842804,0.3992222845554352,0.28268638253211975,-0.06811872124671936,-0.2759464681148529,0.5487791895866394,-0.27477705478668213,0.1561618149280548,-0.2850729823112488,-0.033611081540584564,-0.025118999183177948,0.194489985704422,0.2423507422208786,-0.3440817594528198,-0.36777523159980774,2,train
TCGA-MB-A5YA-01A,0.13033339381217957,0.052397001534700394,-0.6950441002845764,-0.09697534888982773,0.07689379155635834,-0.27283424139022827,0.1185058131814003,0.15458819270133972,0.15594397485256195,0.04186195880174637,0.1372087001800537,0.1730560064315796,0.2584884762763977,0.24392691254615784,0.29539942741394043,2,train
TCGA-3B-A9HV-01A,-0.7173569202423096,0.3058309853076935,-0.6737483739852905,0.7404249906539917,-0.01747979409992695,-0.1978113204240799,0.12816111743450165,-0.6503454446792603,-1.5634984970092773,-0.2517222762107849,-0.5349583029747009,-1.992156982421875,0.38375166058540344,-0.269051194190979,0.5699509382247925,2,train
TCGA-DX-AB2T-01A,-0.02747858688235283,-0.13672110438346863,0.12400335818529129,-0.0798252522945404,-0.033809203654527664,0.13814881443977356,0.17938901484012604,0.3421432077884674,-0.9006664752960205,-0.30190443992614746,0.2076893448829651,0.5628315210342407,-0.4465247094631195,-0.2856040596961975,-0.6981110572814941,1,train
TCGA-X6-A8C6-01A,-0.3627384901046753,-0.08225734531879425,0.10835221409797668,0.11682687699794769,-0.3928675949573517,0.1639842540025711,-0.6522495746612549,0.8349159359931946,-0.25801903009414673,-0.6027227640151978,0.10853557288646698,0.46170392632484436,0.21481910347938538,-0.25619781017303467,-0.6543631553649902,1,train
TCGA-3B-A9HR-01A,-0.23138654232025146,0.3254379630088806,-0.7214496731758118,-0.26069024205207825,-0.2968026399612427,-0.04730646312236786,0.3571460545063019,0.29202133417129517,0.2792207896709442,-0.34131351113319397,0.44330859184265137,0.019963562488555908,-0.3126469552516937,0.22057926654815674,-0.15395039319992065,2,train
TCGA-DX-A1KX-01A,-0.5323672294616699,-0.18415816128253937,0.1555316001176834,-0.11766277998685837,-0.42706266045570374,-0.20985645055770874,-0.4803770184516907,0.44484248757362366,-0.2269919365644455,-0.3983052968978882,-0.3628579080104828,0.4242629110813141,-0.2626638412475586,-0.28026506304740906,-0.5106204748153687,0,train
TCGA-X6-A7W8-01A,-0.09127238392829895,0.3774229884147644,0.29786014556884766,-0.014099659398198128,-0.3389468491077423,0.2680814266204834,-0.019732587039470673,0.5155429244041443,-0.33143728971481323,0.14079152047634125,-0.06716784089803696,0.27660849690437317,0.11783453822135925,-0.09038655459880829,0.12235391139984131,1,train
TCGA-DX-A3U7-01A,-0.01436452567577362,0.19292408227920532,-0.47601622343063354,-0.017129594460129738,-0.02452072687447071,-0.030191529542207718,0.25568684935569763,0.39965420961380005,-0.34751060605049133,-0.01577305980026722,0.43432384729385376,-0.007842767983675003,0.23955266177654266,0.8118200898170471,-0.6759840846061707,2,train
TCGA-DX-A6YQ-01A,0.036922331899404526,0.01100392546504736,0.13265524804592133,-0.16121333837509155,-0.18752498924732208,0.5756322741508484,-0.16829082369804382,0.25642523169517517,-0.22736585140228271,0.658588707447052,-0.0951923131942749,0.1099778264760971,-0.49199753999710083,-0.22378520667552948,-0.2741018533706665,1,train
TCGA-DX-AB3A-01A,0.2081432044506073,-0.6836103200912476,0.017841482535004616,-0.019321033731102943,0.15770995616912842,0.333635151386261,-0.1506490409374237,-0.13561052083969116,0.17494451999664307,0.33391180634498596,-0.2830676734447479,-0.2768791913986206,0.48298633098602295,-0.46772220730781555,0.17752055823802948,0,train
TCGA-X6-A8C3-01A,-0.5664361715316772,0.23277446627616882,0.39792147278785706,0.2525838613510132,-0.2819293439388275,0.05859517306089401,-0.1674157679080963,-0.15272408723831177,-0.3938915431499481,0.05145963653922081,0.3007594645023346,0.5342101454734802,0.04422899708151817,0.16634783148765564,-0.32992997765541077,1,train
TCGA-DX-AB30-01A,0.35945138335227966,-0.6882466673851013,0.29261842370033264,0.052557267248630524,-0.0918664038181305,0.915533721446991,-0.4981667995452881,-0.37147215008735657,0.33235982060432434,-0.06245242431759834,0.18764886260032654,-0.9982810616493225,-0.0667775347828865,0.009659916162490845,0.2405194193124771,1,train
TCGA-K1-A42X-02A,0.012776413932442665,0.12598121166229248,0.3980347812175751,0.587255597114563,0.31544172763824463,-1.1238421201705933,-0.39221322536468506,-0.3755837082862854,0.38592565059661865,-0.1956401765346527,0.6255659461021423,-0.5537604689598083,-0.07642566412687302,-0.24241304397583008,0.4000346064567566,2,train
TCGA-FX-A3NJ-01A,-0.022332007065415382,-0.1125936359167099,-0.6998613476753235,-0.33614617586135864,0.12261027097702026,-0.4810642898082733,0.19863960146903992,0.20798450708389282,0.3302517235279083,-0.2966199219226837,0.2587399184703827,-0.06997811794281006,0.3901592493057251,-0.46201327443122864,0.2836802899837494,2,train
TCGA-DX-A1L3-01A,-0.18080715835094452,-0.3125866651535034,0.18794362246990204,0.13494281470775604,0.033234916627407074,-0.12036557495594025,-0.1462375819683075,-0.3194596767425537,-0.32388123869895935,0.15969786047935486,-0.26804450154304504,0.5935721397399902,-0.20837239921092987,0.0722016841173172,0.07412618398666382,0,train
TCGA-X2-A95T-01A,0.47390249371528625,0.18219728767871857,-0.12075022608041763,0.057748306542634964,0.1826932728290558,-0.6173319220542908,0.6837385892868042,0.07807378470897675,0.4836869239807129,-0.06914392113685608,-0.09868108481168747,-0.6993287205696106,-0.45829668641090393,-0.5176765322685242,-0.5221987962722778,2,train
TCGA-WK-A8XX-01A,0.08886901289224625,0.30860111117362976,-0.4441709816455841,-0.10682571679353714,0.17983007431030273,-0.3579687774181366,0.481950044631958,0.4073783755302429,-0.171445831656456,-0.23798403143882751,0.48730626702308655,0.09000282734632492,0.17852553725242615,0.6466926336288452,-0.7152112722396851,2,train
TCGA-DX-A1KW-01A,0.41183868050575256,-0.48973628878593445,0.16648027300834656,0.18879742920398712,0.026626577600836754,0.08972998708486557,-0.9114941358566284,0.4356274902820587,-0.23786143958568573,-0.2232387810945511,-0.24517902731895447,0.15140675008296967,0.009327013045549393,0.4318375885486603,-0.03464586287736893,0,train
TCGA-VT-A80J-01A,-0.9928487539291382,-0.13295285403728485,0.7966068387031555,1.24830961227417,-0.7210793495178223,-0.3922424912452698,-0.5063770413398743,-3.310231924057007,-0.7207785248756409,0.4930154085159302,1.316622257232666,0.7532834410667419,2.1214444637298584,0.22566717863082886,1.9132952690124512,3,train
TCGA-DX-A6B7-01A,0.054070208221673965,-0.03347514197230339,-0.7571409344673157,0.535823404788971,0.10991974174976349,-0.6096905469894409,0.15686599910259247,-0.2447023093700409,0.3190344572067261,-0.005195882171392441,0.3951539695262909,0.1481490135192871,0.565796971321106,-0.022632863372564316,0.4841468632221222,2,train
TCGA-3R-A8YX-01A,-0.41088423132896423,0.2478851079940796,0.2543882727622986,0.4271240234375,-0.1560221016407013,0.1681971698999405,-0.410385400056839,1.0798544883728027,0.10257624089717865,0.1286119520664215,-0.5368424654006958,0.5519854426383972,-0.08293311297893524,0.7059648036956787,-1.0799704790115356,0,train
TCGA-DX-A2J0-01A,-0.5445416569709778,-0.3191344738006592,0.3717816472053528,-0.26910486817359924,0.015340900048613548,0.12816907465457916,-0.11261606961488724,-0.27877238392829895,-0.007756534963846207,-0.5544801950454712,-0.003161107888445258,0.08632475137710571,0.10202401876449585,0.12441693246364594,0.11391071230173111,0,train
TCGA-IE-A4EH-01A,0.20111781358718872,0.250292032957077,0.08743586391210556,1.0072104930877686,0.01564999669790268,-0.8252272605895996,0.36929741501808167,-0.4141674339771271,0.0023500260431319475,-0.08174772560596466,0.5009430646896362,-0.22691786289215088,-0.21732240915298462,-0.01617649383842945,0.3075951933860779,2,train
TCGA-X6-A8C2-01A,0.35931283235549927,0.5527452826499939,0.18305650353431702,-0.21183858811855316,0.25651124119758606,0.6836455464363098,0.2691088914871216,0.6149928569793701,-0.29160892963409424,-0.027653714641928673,-0.17284990847110748,0.049166735261678696,-0.2629089057445526,-0.21268144249916077,-0.38018423318862915,3,train
TCGA-JV-A5VE-01A,0.23598884046077728,-0.16739192605018616,0.11748339235782623,0.12576697766780853,0.02003646083176136,-0.38290026783943176,0.31814175844192505,-0.01546475663781166,0.004253076389431953,0.49955153465270996,0.3813842535018921,-0.564673662185669,-0.35972607135772705,-0.2551003396511078,0.17079411447048187,2,train
TCGA-3B-A9HJ-01A,0.011148336343467236,-0.2238864004611969,0.3146592378616333,-0.5797255635261536,-0.029346482828259468,-0.36323755979537964,-0.3011203110218048,-0.14480473101139069,-0.18653319776058197,0.5976670980453491,-0.13218365609645844,0.04081232100725174,0.513873815536499,-0.16501520574092865,0.20135867595672607,0,train
TCGA-WP-A9GB-01A,0.6696197986602783,0.38465797901153564,0.29110559821128845,1.0011131763458252,-0.6523624658584595,-0.6021787524223328,-0.6249700784683228,-0.22837546467781067,-0.1378989815711975,0.015596888959407806,1.0414557456970215,-0.6649186015129089,-0.2698870003223419,-0.10529767721891403,0.4601691663265228,2,train
TCGA-DX-A48P-01A,-0.11905315518379211,0.06653828173875809,-0.6127892732620239,-0.11428053677082062,-0.160855233669281,-0.5563893914222717,-0.020185785368084908,-0.8033044934272766,0.2894637882709503,-0.09377073496580124,0.44545260071754456,0.1083136647939682,0.1664205640554428,-0.08994168043136597,0.5700000524520874,2,train
TCGA-DX-A1L0-01A,0.24160856008529663,-0.4665939509868622,0.092767633497715,0.10090269148349762,0.550165593624115,0.41770127415657043,0.2794252634048462,0.08660424500703812,-0.1994851529598236,-0.3514278531074524,-0.34564030170440674,0.05086567625403404,0.1750679314136505,0.29714009165763855,-0.42979803681373596,0,train
TCGA-K1-A3PN-01A,-0.0009716881322674453,0.20924720168113708,-0.5081533789634705,-0.3777264952659607,0.09793377667665482,-0.1362118124961853,-0.025136539712548256,-0.3289025127887726,0.5561476945877075,-0.1253039538860321,0.35696569085121155,-0.32503989338874817,-0.1546483039855957,0.5382587313652039,-0.018113315105438232,2,train
TCGA-DX-A8BZ-01A,-0.0977606400847435,-0.09885989129543304,0.06375241279602051,0.08995578438043594,0.13119211792945862,0.3989456593990326,0.004866167437285185,-0.003907572012394667,0.024926897138357162,0.7185825109481812,-0.3369387686252594,0.2464192807674408,-0.38475778698921204,-0.3826059103012085,-0.11099573969841003,2,train
TCGA-DX-A7EF-01A,-0.9472365379333496,0.32917308807373047,0.15518775582313538,0.5516216158866882,-0.13113141059875488,0.6358646154403687,0.008029073476791382,0.5176845192909241,0.36739951372146606,0.11839313060045242,-0.07992140203714371,0.4279293119907379,-0.10549389570951462,-0.2445739358663559,-0.9743134379386902,3,train
TCGA-DX-AB36-01A,0.379204660654068,-0.13433583080768585,0.07493698596954346,0.18147510290145874,0.045711785554885864,0.2907657325267792,-0.3082311451435089,-0.07963959127664566,-0.06177983060479164,0.2900471091270447,-0.1486244946718216,-0.0037612435407936573,0.2847898006439209,-0.5331940054893494,0.155910924077034,0,train
TCGA-DX-A3LT-01A,0.22390617430210114,-0.08262280374765396,0.1530296951532364,-0.24337714910507202,0.3515084683895111,0.4428137540817261,-0.3582550883293152,-0.4050983786582947,0.14333593845367432,0.5220165848731995,-0.41672438383102417,0.017981313169002533,0.4195200204849243,-0.23296165466308594,0.4648248255252838,0,train
TCGA-KD-A5QT-01A,-0.01993313804268837,0.2781522274017334,0.09426895529031754,0.6401602625846863,0.07531727850437164,-1.0022083520889282,0.058900490403175354,-0.6842595338821411,0.2343911975622177,-0.1119222342967987,0.1533188819885254,-0.7519953846931458,0.02272055670619011,0.13483285903930664,0.13815799355506897,2,train
TCGA-DX-A8BH-01A,-0.8975752592086792,0.10733791440725327,0.19659733772277832,0.11225943267345428,0.20193737745285034,0.16230224072933197,0.5260933041572571,0.5261418223381042,0.19451896846294403,0.7056688666343689,-0.2763908803462982,0.3919593095779419,0.5022362470626831,-0.33648520708084106,-0.3296649158000946,3,train
TCGA-DX-A3LY-01B,0.057063791900873184,-0.26418834924697876,0.2616475224494934,0.3426273763179779,0.17870734632015228,-0.2177940458059311,-0.24282565712928772,0.7597376108169556,0.02556830644607544,-0.40434741973876953,-0.1950431615114212,0.8080798983573914,-0.1260843425989151,0.5972464680671692,-0.6382681727409363,0,train
TCGA-KD-A5QU-01A,0.8281164765357971,0.3968459665775299,0.11153706908226013,0.21697336435317993,0.9012062549591064,-0.12208593636751175,1.895037293434143,-1.1018717288970947,-0.6718135476112366,0.27300459146499634,0.8314582109451294,-0.6394883990287781,-0.13366176187992096,-0.21912315487861633,0.12187330424785614,2,train
TCGA-KD-A5QS-01A,-0.08487122505903244,0.7626656889915466,0.16365717351436615,0.30267488956451416,-1.24120032787323,0.10197210311889648,0.47621920704841614,0.48816514015197754,-0.3277292251586914,-0.11716733872890472,-0.14511914551258087,-0.03997047618031502,-0.4693591594696045,-0.22647935152053833,1.4753751754760742,2,train
TCGA-IW-A3M6-01A,-0.19376106560230255,-0.18282628059387207,0.22491899132728577,0.30069899559020996,0.03894857317209244,-0.2685214579105377,0.4633319079875946,-0.4488683044910431,0.20391789078712463,0.43333950638771057,0.36619269847869873,-0.4802587628364563,0.16772058606147766,0.04746108502149582,0.36601522564888,2,train
TCGA-DX-A240-01A,0.1330793797969818,-0.1789354532957077,0.10708745568990707,0.45684653520584106,-0.20685848593711853,-0.03796058148145676,0.0346684530377388,-0.03610444813966751,-0.004327643662691116,-0.022665223106741905,-0.18916498124599457,0.03268006443977356,0.22772662341594696,-0.22945331037044525,-0.15969891846179962,0,train
TCGA-IE-A6BZ-01A,0.40037068724632263,-0.06497447192668915,0.06622255593538284,-0.08602800965309143,-0.47237372398376465,0.5589955449104309,-0.35117754340171814,-0.17340631783008575,-0.46519148349761963,0.34988582134246826,-0.20006558299064636,0.27732282876968384,-0.38514241576194763,-0.4895157814025879,-0.16642184555530548,3,train
TCGA-DX-A8BX-01A,0.18799610435962677,-0.211386039853096,0.15881255269050598,0.3258109986782074,0.1269082874059677,0.16884125769138336,-0.14167653024196625,-0.044241055846214294,-0.22632025182247162,-0.05983201041817665,-0.33231493830680847,0.45283156633377075,0.2922684848308563,0.03287418186664581,0.10909198224544525,3,train
TCGA-WK-A8XO-01A,-0.32064804434776306,-0.24649502336978912,0.33155640959739685,-0.048793479800224304,0.03822660446166992,-0.20927926898002625,-0.08648915588855743,-0.23229409754276276,0.034397419542074203,0.2120683491230011,-0.016512122005224228,0.1564011424779892,-0.08462514728307724,0.37088167667388916,0.05383932217955589,0,train
TCGA-IS-A3K7-01A,0.5172048807144165,0.04493256285786629,0.4857691824436188,0.0862639844417572,0.044355206191539764,0.1451392024755478,-0.034511201083660126,-1.1971454620361328,0.8735860586166382,0.6407307386398315,-0.3083851933479309,-0.09901991486549377,-0.13206441700458527,-0.09493117779493332,0.8259153366088867,2,train
TCGA-PC-A5DN-01A,-0.11895036697387695,-0.44532111287117004,0.19076859951019287,-0.15777482092380524,0.002584438305348158,0.1352694034576416,-0.24129541218280792,-0.28013983368873596,0.15437044203281403,-0.12974154949188232,0.17499013245105743,-0.34868213534355164,-0.04946481063961983,0.10061214119195938,0.12210278958082199,2,train
TCGA-X9-A971-01A,-0.14011618494987488,0.15099264681339264,-0.34766802191734314,0.1833701729774475,-0.21510393917560577,0.1922457367181778,0.1965257227420807,0.014788256026804447,0.34883353114128113,0.11681225895881653,0.31010201573371887,-0.1837976574897766,-0.016783246770501137,0.9004902839660645,0.1513945758342743,2,train
TCGA-DX-A7ES-01A,-0.3431820273399353,-0.2581157684326172,0.23670105636119843,-0.4763737618923187,-0.022240955382585526,-0.366166353225708,-0.20175151526927948,-0.2624450623989105,-0.039242640137672424,0.12449353188276291,0.14191626012325287,0.0005914868088439107,0.052905913442373276,-0.13703767955303192,0.10904357582330704,0,train
TCGA-VT-AB3D-01A,0.7788006067276001,0.41900014877319336,0.5151414275169373,-1.1533905267715454,2.387471914291382,0.062068093568086624,1.2348021268844604,-0.4279906749725342,-1.1654565334320068,0.2285763919353485,0.10885374248027802,0.12145161628723145,-0.07475707679986954,-0.1761697232723236,0.9862521290779114,3,train
TCGA-FX-A2QS-01A,-0.2917628288269043,-0.3862929344177246,0.33838701248168945,0.12094315141439438,-0.39590519666671753,0.3241313099861145,-0.16850066184997559,0.343575656414032,0.027863027527928352,-0.43418222665786743,-0.15175014734268188,-0.09532752633094788,-0.09750629961490631,0.95952969789505,-0.5879354476928711,0,train
TCGA-3B-A9HI-01A,-0.08310762047767639,0.2602178752422333,0.11061540991067886,-0.21622177958488464,-0.4432090222835541,-0.05041080340743065,0.13914534449577332,0.4124104976654053,-0.38101905584335327,-0.42838671803474426,-0.25461968779563904,0.4985882639884949,0.20166698098182678,-0.34906265139579773,0.0334978811442852,0,train
TCGA-3B-A9HO-01A,-0.10935817658901215,-0.032527897506952286,0.22418129444122314,-0.3223443329334259,-0.16676367819309235,-0.4989205598831177,-0.4255543351173401,0.46860742568969727,-0.1995665282011032,-0.23799870908260345,-0.5969202518463135,0.5933443903923035,0.122445248067379,0.2932361960411072,-0.5700291395187378,0,train
TCGA-DX-A8BO-01A,-0.07515017688274384,-0.14651289582252502,0.03677000850439072,-0.11384192854166031,0.2652060091495514,0.04916777089238167,0.04261539503931999,-0.3516007661819458,0.20707327127456665,0.5830422043800354,-0.5534845590591431,0.2553158104419708,-0.22372941672801971,-0.12967833876609802,0.5675255060195923,3,train
TCGA-MB-A5Y8-01A,-0.2640308141708374,0.2265128195285797,0.12865988910198212,0.050112318247556686,0.3577699065208435,0.49581485986709595,0.22448617219924927,0.08877123892307281,0.37788721919059753,0.10646303743124008,-0.5548094511032104,0.1819978952407837,-0.47193795442581177,-0.02806204743683338,0.3391004204750061,3,train
TCGA-MJ-A68J-01A,0.0032414051238447428,-0.328730970621109,0.08952344954013824,-0.19032660126686096,-0.041260357946157455,-0.07445622980594635,-0.2898969352245331,-0.3946055769920349,-0.19070833921432495,0.5496065020561218,-0.07541102170944214,0.2225760519504547,-0.14889366924762726,-0.37453049421310425,0.13304249942302704,1,train
TCGA-QC-A7B5-01A,1.3607724905014038,0.04553724825382233,0.25317302346229553,-0.5384936332702637,-0.3181084990501404,0.7798402905464172,-1.2586995363235474,-0.15094199776649475,0.12117985635995865,2.1860201358795166,-0.10229842364788055,-0.9971473813056946,-0.03315034136176109,-0.5080261826515198,0.14616410434246063,3,train
TCGA-VT-A80J-02A,-1.0687776803970337,0.105901800096035,0.5431256890296936,0.5813205242156982,-0.36438077688217163,-0.009338224306702614,0.0666164681315422,-0.7577375173568726,-0.14363838732242584,0.2721237242221832,0.26317811012268066,0.5958437323570251,0.6691339612007141,0.6207807064056396,-0.15027642250061035,3,train
TCGA-DX-AB32-01A,-0.08089742064476013,-0.21102052927017212,0.15153031051158905,-0.42940932512283325,0.6768868565559387,-0.11579279601573944,0.3769102096557617,-0.28620797395706177,-0.028154516592621803,0.06461841613054276,-0.45323583483695984,0.20865298807621002,0.47358617186546326,-0.4100818932056427,0.20045749843120575,1,train
TCGA-N1-A6IA-01A,0.12270165234804153,0.48471587896347046,0.24682782590389252,-0.1488976776599884,-0.9856328368186951,0.16223491728305817,1.0256340503692627,0.9145839214324951,-0.11039555817842484,-0.04094262048602104,-0.3443872630596161,-0.5402632355690002,-0.8819148540496826,0.06865305453538895,1.078861117362976,2,train
TCGA-X6-A7WB-01A,0.7389230728149414,0.2502346634864807,-0.08002631366252899,0.07497192919254303,0.39152848720550537,-0.34677654504776,0.2686941623687744,-0.11309869587421417,0.4043220579624176,0.17538411915302277,0.012911627069115639,-0.7669574022293091,-0.35621562600135803,0.316103458404541,0.37396082282066345,2,train
TCGA-DX-A1L2-01A,0.005573989357799292,-0.19743923842906952,-0.04277251660823822,0.1953829824924469,-0.3000137209892273,-0.0063372827135026455,0.05268971621990204,0.28286951780319214,-0.4837861955165863,-0.3881753087043762,-0.21503300964832306,0.614608883857727,-0.013255304656922817,-0.15011291205883026,-0.37417691946029663,0,train
TCGA-SG-A6Z7-01A,0.09983883053064346,-0.6815705299377441,0.34749528765678406,-0.034477122128009796,-0.3656759262084961,0.8594565391540527,-0.6158745288848877,0.3195139765739441,0.11965972185134888,-0.6509038805961609,0.23986022174358368,-0.7510681748390198,-0.2559836804866791,-0.021793726831674576,-0.5741407871246338,0,train
TCGA-3B-A9HP-01A,-0.07731492072343826,-0.15608781576156616,-0.3479215204715729,-0.14271165430545807,-0.04554010555148125,-0.3406676948070526,0.07103598117828369,-0.07109631597995758,0.2708197832107544,0.02785501629114151,0.2707260549068451,-0.17492489516735077,-0.2306315302848816,0.15186253190040588,0.28042349219322205,2,train
TCGA-DX-A3U6-01A,-0.16446428000926971,-0.026239346712827682,0.49046167731285095,-0.9375172257423401,1.8133095502853394,-0.25009554624557495,-0.985327959060669,0.22877439856529236,-0.0843038409948349,-0.17084930837154388,-0.11532744020223618,0.3646208345890045,-0.7475993633270264,0.005707595497369766,1.095710277557373,0,train
TCGA-DX-A3U9-01A,0.5440470576286316,0.3164769411087036,-0.4926508367061615,0.050921715795993805,-0.07443300634622574,0.25482046604156494,0.12406619638204575,-0.7214145064353943,0.08152320235967636,0.0672052726149559,0.5045702457427979,-0.27687543630599976,0.6192924380302429,-0.16562475264072418,0.5827250480651855,2,train
TCGA-DX-A1L1-01A,-0.28227898478507996,-0.05774462968111038,0.47803163528442383,-0.19328680634498596,0.6273830533027649,-0.24171662330627441,0.2772417366504669,-0.03270429000258446,-0.2426365464925766,0.316515177488327,-0.1849118024110794,0.2793867588043213,0.4093876779079437,0.48861443996429443,0.1725105345249176,0,train
TCGA-DX-A23U-01A,0.3138222098350525,-0.0776626467704773,0.12783296406269073,0.13916876912117004,0.016236362978816032,0.23835378885269165,-0.32173851132392883,-0.11237548291683197,-0.14050303399562836,0.34531521797180176,-0.15193405747413635,0.10290274769067764,0.2380545735359192,-0.5411869883537292,0.15780091285705566,0,train
TCGA-DX-A6YV-01A,0.29879772663116455,0.12251117825508118,0.031301066279411316,-0.14199496805667877,-0.16058076918125153,0.6844083070755005,-0.2864084243774414,0.5013771653175354,-0.4394550919532776,-0.1487082839012146,-0.1175641342997551,0.28056418895721436,-0.04135534539818764,-0.6045603156089783,-0.20909500122070312,1,train
TCGA-DX-A48R-01A,0.356447696685791,0.32764747738838196,-0.6500388979911804,0.32514479756355286,-0.09388885647058487,-0.13531069457530975,0.5034779906272888,-0.5641723871231079,0.3011375665664673,-0.217915877699852,0.5121084451675415,-0.2788791060447693,0.6384926438331604,0.47427043318748474,0.31654539704322815,2,train
TCGA-DX-A6YZ-01A,-0.7434083819389343,0.011119255796074867,-0.10421798378229141,0.3470298945903778,0.30767133831977844,0.17797504365444183,0.010727114044129848,0.6535913348197937,0.4062500298023224,0.21724995970726013,-0.34427210688591003,0.5131345987319946,0.30138006806373596,-0.21159905195236206,-0.11158517003059387,1,train
TCGA-DX-A48J-01A,0.07602664083242416,-0.05303623154759407,-0.6453872323036194,0.13179004192352295,-0.02602440118789673,-0.5806983709335327,-0.0587688647210598,-0.31465908885002136,0.17488405108451843,-0.14647933840751648,0.5377369523048401,0.05311640724539757,0.6796315908432007,-0.32327255606651306,0.5828819274902344,2,train
TCGA-DX-A1KZ-01A,-0.07956502586603165,-0.21440520882606506,0.06260786950588226,0.1779397577047348,-0.12980467081069946,-0.25926271080970764,-0.35645726323127747,0.7503511309623718,-0.20899295806884766,-0.25571513175964355,-0.381310373544693,0.5528572201728821,-0.012279900722205639,0.20832547545433044,-0.5081202983856201,0,train
TCGA-DX-A3U5-01A,0.28731656074523926,-0.33216941356658936,0.16006509959697723,0.44880861043930054,0.561042845249176,-0.08949798345565796,-0.003119604429230094,-0.4799305498600006,-0.5173394083976746,0.09280475974082947,-0.17149873077869415,0.5329190492630005,0.385087788105011,0.20013968646526337,0.3959980010986328,0,train
TCGA-3B-A9I1-01A,0.11536378413438797,0.15330231189727783,0.08669040352106094,0.600252628326416,-0.051881395280361176,-0.7482579946517944,0.6587560772895813,0.3371705412864685,-0.009594843722879887,-0.250473290681839,0.3162473142147064,-0.30973896384239197,-0.5056324005126953,0.1490127295255661,-0.9717305898666382,2,train
TCGA-IE-A4EK-01A,0.2557547986507416,0.21542592346668243,-0.8548964262008667,0.198424831032753,0.011541781015694141,-0.5553076267242432,0.08634097874164581,-0.47760504484176636,0.3999953269958496,-0.17996039986610413,0.29903706908226013,0.1087014451622963,0.5823858976364136,0.11624953150749207,0.5368810296058655,2,train
TCGA-HB-A2OT-01A,-0.013135307468473911,0.10335683077573776,0.11039171367883682,-0.2264048159122467,0.10241630673408508,0.34975287318229675,0.6792131066322327,-0.09800472855567932,0.15725532174110413,0.3606680929660797,-0.3893616795539856,-0.11875744163990021,-0.3938505947589874,-0.6368353366851807,0.03929690271615982,3,train
TCGA-MO-A47R-01A,-0.20736952126026154,-0.09214913100004196,0.29544854164123535,0.6598988175392151,-0.30164092779159546,0.0018501421436667442,-0.598285436630249,0.22710780799388885,0.058589816093444824,-0.2914632558822632,0.25562721490859985,0.022394832223653793,-0.07052183151245117,0.5279253125190735,0.022226598113775253,2,train
TCGA-X9-A973-01A,0.16994725167751312,-0.3121788203716278,0.09421747177839279,0.17196081578731537,0.11845788359642029,0.1669514924287796,-0.1902097910642624,-0.0378720685839653,-0.07629100233316422,-0.15290001034736633,-0.21928496658802032,0.1032550111413002,0.35102877020835876,-0.12216095626354218,0.133000448346138,3,train
TCGA-X6-A7WC-01A,0.03382688760757446,0.25141918659210205,0.14170454442501068,-0.04386872798204422,-0.4092675447463989,0.6330312490463257,-0.07578407973051071,0.9149023294448853,0.04960697889328003,0.0836581438779831,-0.29560256004333496,-0.042364414781332016,-0.13392259180545807,-0.029186060652136803,-0.16785874962806702,2,train
TCGA-3B-A9HT-01A,-0.2387530654668808,0.09526000916957855,0.36893710494041443,-0.35625383257865906,-0.1379803568124771,-0.294888973236084,-0.44884437322616577,0.4130140244960785,-0.1557859629392624,-0.0047723823226988316,0.011739681474864483,0.1561281383037567,0.329735666513443,-0.05905324965715408,-0.2641935348510742,2,train
TCGA-DX-A1KU-01A,0.04364646226167679,-0.10891866683959961,0.10735099762678146,0.06488551199436188,0.27652159333229065,0.1286916434764862,-0.4271615147590637,0.284923255443573,0.08371101319789886,-0.3391737937927246,-0.301677942276001,0.1791049689054489,0.18934008479118347,0.030816350132226944,-0.2948841154575348,0,train
TCGA-DX-A3U8-01A,-0.0584636926651001,0.14919781684875488,0.3095630705356598,0.1023954302072525,0.15554359555244446,-0.1278671771287918,-0.2583525776863098,-0.035486213862895966,-0.12538942694664001,0.09762033820152283,-0.04383715242147446,0.24100452661514282,0.3464769423007965,0.18160036206245422,-0.08242545276880264,2,train
TCGA-HB-A3L4-01A,0.3096976578235626,0.10289135575294495,0.18481102585792542,0.4715764820575714,0.18849320709705353,-0.1785852313041687,0.1942586898803711,-0.16335463523864746,0.2086457461118698,-0.18845686316490173,0.507267415523529,-0.7444615364074707,-0.2864792048931122,-0.5442225337028503,-0.11062203347682953,2,train
TCGA-IS-A3KA-01A,0.2520769536495209,0.4304766058921814,0.419633686542511,0.22209680080413818,-0.49719077348709106,-0.16509589552879333,-0.12934477627277374,-0.5820555090904236,-0.586837887763977,0.06314128637313843,0.5819348692893982,-0.023045964539051056,-0.04787348210811615,0.10448015481233597,-0.06130119040608406,2,train
TCGA-FX-A76Y-01A,0.22682148218154907,0.10158279538154602,-0.26477086544036865,0.25983983278274536,0.5799744725227356,-0.6481958627700806,0.04454473406076431,-0.13678611814975739,0.6832373738288879,-0.15784625709056854,-0.04052341729402542,-0.31105002760887146,-0.4615428149700165,-0.6075002551078796,0.07468737661838531,2,train
TCGA-MB-A8JL-01A,-0.20511093735694885,-0.43552324175834656,0.5489282608032227,-0.15383552014827728,-0.24805770814418793,0.3347031772136688,-0.1627952754497528,-0.3057975471019745,0.24542002379894257,0.5511751174926758,0.01662273332476616,-0.6208974123001099,0.21047914028167725,0.4162842631340027,0.051780007779598236,2,train
TCGA-KF-A41W-01A,-0.4545893669128418,0.11796724796295166,0.3618987798690796,0.008920847438275814,0.17927590012550354,0.03470230847597122,0.6611290574073792,0.544098973274231,-0.058896567672491074,-0.47991737723350525,0.1719849705696106,-0.13468094170093536,-0.38324323296546936,0.04611101374030113,-0.586136519908905,2,train
TCGA-HS-A5N8-01A,0.09857390075922012,-0.22583922743797302,0.2459578663110733,0.06733082979917526,-0.018238110467791557,0.27669668197631836,-0.40581873059272766,0.19314683973789215,0.36264216899871826,-0.23137694597244263,-0.09348223358392715,-0.4547830820083618,-0.3481171727180481,-0.2135591208934784,-0.009688100777566433,2,train
TCGA-DX-A6BG-01A,-0.08606820553541183,0.003581455210223794,0.2835555076599121,-0.07427923381328583,0.06659523397684097,-0.27649521827697754,-0.151964470744133,0.019522035494446754,-0.06016376614570618,0.04692099988460541,-0.056777458637952805,0.10604771226644516,0.3600381910800934,-0.3627645671367645,0.09150541573762894,0,train
TCGA-DX-A3M1-01A,-0.1414434313774109,-0.2827407419681549,0.19603709876537323,-0.009185384958982468,0.07945786416530609,0.5647109150886536,-0.1624743491411209,0.5310969948768616,-0.23714032769203186,-0.5158758759498596,0.017113836482167244,0.10024991631507874,0.22956979274749756,0.009581360034644604,-0.3854258358478546,0,train
TCGA-K1-A3PN-02A,0.3439127206802368,0.26767897605895996,-0.6183359026908875,-0.2176092565059662,-0.11996360868215561,0.009128711186349392,-0.010516558773815632,-0.25178074836730957,0.46343329548835754,0.017077408730983734,0.22688454389572144,-0.3272843658924103,-0.36510613560676575,0.6444026827812195,0.2858802080154419,2,train
TCGA-WK-A8XS-01A,-0.10249035805463791,0.04165082052350044,-0.2506500780582428,0.02735482156276703,-0.21959346532821655,-0.1121821403503418,-0.04003307595849037,0.3742407560348511,0.009384872391819954,-0.4258940815925598,0.648981511592865,-0.1749187707901001,-0.3695865869522095,0.46085798740386963,-0.4012002944946289,2,train
TCGA-DX-A8BG-01A,-0.2674756944179535,0.21838705241680145,0.23445016145706177,-0.7898869514465332,-0.3943627178668976,-0.18828919529914856,0.6308992505073547,-0.0825934037566185,-0.5218758583068848,-0.5000318884849548,-0.36278870701789856,0.5299997329711914,-0.2775372266769409,0.09879356622695923,-0.6417124271392822,1,train
TCGA-WK-A8Y0-01A,-0.15720105171203613,0.24148209393024445,0.27068790793418884,-0.27576813101768494,-0.38932403922080994,0.4079403281211853,-0.15463712811470032,0.3226451575756073,-0.3292146623134613,0.17718227207660675,0.10038355737924576,0.127384752035141,-0.40685030817985535,0.03100265935063362,-0.3678501844406128,3,train
TCGA-IE-A4EI-01A,-0.06980115175247192,0.1643781065940857,-0.6500083804130554,0.12728095054626465,0.10492878407239914,-0.25181692838668823,0.39753440022468567,-0.1366957426071167,0.6480371356010437,-0.2282990664243698,0.06343130022287369,-0.0817314088344574,-0.3048113286495209,0.7247521877288818,0.16206637024879456,2,train
TCGA-DX-AATS-01A,-0.17737063765525818,0.283409982919693,0.04745785892009735,0.11731532216072083,-0.3915325105190277,0.6198968887329102,-0.5216388702392578,0.7133179306983948,0.3624797761440277,-0.5738533139228821,-0.31549057364463806,0.13152055442333221,0.11308348178863525,-0.2692336440086365,-0.2148744761943817,3,train
TCGA-DX-A48L-01A,-0.21811597049236298,0.08936683088541031,-0.9221927523612976,-0.09551159292459488,-0.006239233538508415,0.3428289592266083,0.04061674326658249,-0.14294575154781342,0.013230393640697002,-0.027889104560017586,0.3060934245586395,-0.24439683556556702,-0.1108088567852974,0.3162427842617035,0.31790587306022644,2,train
TCGA-K1-A3PO-01A,0.025103727355599403,-0.2530558705329895,-0.010900961235165596,-0.35058921575546265,0.13217401504516602,-0.30059531331062317,-0.13190925121307373,0.04215943440794945,0.1602252721786499,-0.027751171961426735,0.06144919991493225,-0.26687514781951904,0.4717296361923218,-0.4576156437397003,0.0918782576918602,2,train
TCGA-DX-A6YU-01A,0.4998224973678589,-0.07519256323575974,0.06213328242301941,-0.6284595727920532,-0.15451344847679138,0.35077768564224243,0.06091417372226715,-0.04453170672059059,-0.5652953386306763,0.43515023589134216,-0.09925756603479385,0.031450722366571426,-0.5442433953285217,-0.24936453998088837,-0.3169880211353302,1,train
TCGA-QC-A6FX-01A,0.2686125934123993,-0.0794130489230156,-0.1485646665096283,-0.12469285726547241,-0.1207566186785698,0.3024461269378662,0.883272111415863,-0.02795194834470749,0.0070175714790821075,0.7127734422683716,-0.7718246579170227,0.12535616755485535,0.13160377740859985,-0.1667276918888092,-0.1294715851545334,3,train
TCGA-DX-A2J1-01A,0.11474048346281052,-0.2417038381099701,0.16716761887073517,-0.1723867505788803,0.07234251499176025,-0.25481468439102173,-0.18410547077655792,-0.04628221318125725,-0.22168368101119995,0.4364854395389557,-0.3468347489833832,0.2914813458919525,0.3025928735733032,-0.3528215289115906,0.1056872010231018,0,train
TCGA-SG-A849-01A,-0.41614964604377747,0.16380712389945984,0.273752897977829,-0.4563770890235901,-0.08531875908374786,0.1394110471010208,0.7898879647254944,0.38389307260513306,-0.23325717449188232,0.32960909605026245,-0.3075704872608185,0.20887711644172668,0.2881016135215759,0.03199689835309982,-0.6145821809768677,3,train
TCGA-DX-A6B8-01A,0.781419038772583,0.8396331071853638,-0.12453518062829971,-0.5356290936470032,-0.26760008931159973,0.83226478099823,0.7940961122512817,-1.1628791093826294,0.801617443561554,-0.07497143745422363,-1.3175100088119507,-0.4009045660495758,0.29871484637260437,-0.5701520442962646,0.2327890396118164,2,train
TCGA-MB-A5Y9-01A,-0.3476668894290924,-0.031244492158293724,0.2546413540840149,-0.14847061038017273,0.030059387907385826,-0.18390697240829468,0.2602550685405731,0.28525954484939575,-0.002196437679231167,0.44897064566612244,-0.46149951219558716,0.29894545674324036,0.2662641406059265,0.045546818524599075,-0.24768832325935364,3,train
TCGA-K1-A42W-01A,-0.3156743049621582,-0.06552309542894363,-0.4682891070842743,0.2969246208667755,0.043913133442401886,-0.47208645939826965,0.12729860842227936,0.06974935531616211,0.01960500329732895,-0.5951646566390991,0.4878036379814148,0.3447422385215759,-0.1567728966474533,0.5231882929801941,-0.2345098853111267,2,train
TCGA-DX-A7EN-01A,0.2572973668575287,0.21990439295768738,-0.6803992390632629,0.22480735182762146,0.12548163533210754,0.06229531764984131,0.0016952991718426347,-0.7963799238204956,0.042420241981744766,0.31975728273391724,1.0816079378128052,-0.1787274181842804,0.16597214341163635,-0.0843488946557045,0.17856517434120178,2,train
TCGA-PC-A5DK-01A,-0.06455908715724945,-0.05286647006869316,-0.5228121280670166,-0.09412077814340591,-0.07123637199401855,-0.6476840376853943,-0.075638547539711,-0.3490120768547058,0.18905000388622284,-0.07718124240636826,0.6140066981315613,-0.03431633487343788,0.7356423735618591,-0.11203086376190186,0.605446994304657,2,train
TCGA-DX-A6B9-01A,0.37976598739624023,-0.41759979724884033,-0.4108235538005829,0.01423975732177496,-0.0513942576944828,-0.2444925457239151,-0.025883197784423828,-0.13241934776306152,0.2768888771533966,0.27541571855545044,0.09458447247743607,-0.47949132323265076,-0.310589462518692,-0.5509699583053589,0.3182084560394287,2,train
TCGA-DX-A23T-01A,-0.1397751122713089,-0.24180097877979279,0.160673126578331,-0.9535617232322693,0.13307449221611023,-0.11465104669332504,0.04761926084756851,0.4866083860397339,-0.07375378906726837,0.25718191266059875,-0.4927263557910919,0.0773908719420433,-0.6216489672660828,-0.39476385712623596,-0.34034010767936707,0,train
TCGA-DX-A3LU-01A,0.05282001569867134,-0.30435818433761597,0.19279944896697998,-0.10461004078388214,0.09665568917989731,-0.32393044233322144,-0.1435547024011612,-0.04223465919494629,-0.2746167778968811,0.25830328464508057,-0.41609829664230347,0.40089941024780273,0.2913375198841095,-0.17881110310554504,0.09565006196498871,0,train
TCGA-DX-A6YT-01A,-0.17467640340328217,0.09949687123298645,0.14439988136291504,0.25200310349464417,-0.20963260531425476,-0.09227841347455978,0.30905455350875854,-0.2966347336769104,-0.7666176557540894,-0.6973565220832825,0.0789550393819809,0.7721060514450073,-0.14116276800632477,0.02809596247971058,-0.2832523286342621,1,train
TCGA-DX-A48N-01A,117.99046630321543,-250.25695769169974,29.850303876328695,47.44808352595623,-261.903607685803,93.53012296041523,-396.8768477716362,305.2367928306093,-60.00557874564296,-270.3119189342103,-134.84096929628257,85.03954307226893,49.859757482930036,80.51284785499855,-271.7084731562805,0,test
TCGA-3B-A9HU-01A,-139.85038886341513,-24.627408588230253,-309.5783264272332,-255.97166580055531,43.47042436080135,-390.6537341540013,47.25877849416957,-147.5921582960838,154.41301883193657,49.64436870544413,322.76748404869346,-108.85431151575297,23.542900432435815,117.95935517013766,171.80930422252507,2,test
TCGA-DX-A6BA-01A,-53.622977848721405,-48.17634953094973,-376.9192905197028,-12.212351733638364,-231.23847749287947,-202.45235212997747,-255.87508312198906,99.55624116231344,193.3639403609865,-170.03803772761344,207.02093432281546,-196.49126022037626,-85.22223411594778,534.3370764620803,-112.1710727497272,2,test
TCGA-DX-A3UC-01A,8.859743984606697,54.05182893061425,-511.89459532982056,6.134996332855207,19.915477953166427,-213.8083237236267,32.138442054174156,-141.29412375674602,172.1476710665186,48.19525413554923,340.8967097892637,-225.14469027604773,-46.813816669267204,164.5683914246671,153.58350275683418,2,test
TCGA-DX-A3LW-01A,84.24474267612528,-253.75051600602652,58.78459032083989,7.527933971512062,23.097898140951184,131.13402525232698,-30.709368508467083,-12.178205152977567,-82.7398580894277,-155.35568256596187,-125.05086156583684,87.40095890864548,112.63118280173819,-211.58158891846733,27.375904010618253,0,test
TCGA-MB-A8JK-01A,48.62515104325133,43.80960012776739,-13.469553609417366,-167.78356420561587,-192.99380450360786,1.1683773627899636,-228.1120460104515,180.01340797870284,-74.89097270113946,-112.30482247454644,-123.35757381472563,264.1972190596847,56.55908586156419,-336.13946730036304,-143.948170967679,3,test
TCGA-DX-A2J4-01A,-56.65538098187642,-137.58325937640723,166.93562817962413,-265.4859475725573,23.250088579737422,-229.73493421066914,-48.45919958855629,16.354750585506324,-4.810668207537553,53.37857204675945,-98.21840310590426,174.91973486359083,165.9421672023998,-303.7354677628726,23.343794678607214,0,test
TCGA-X6-A7WA-01A,11.720700285802238,17.138100525455037,-410.9198110178213,-23.269333721895197,1.6687472510696226,-116.91024592194083,41.75245329313411,-96.42837288928321,161.8453066233287,-1.5870194338507417,211.24218110485626,-143.50814084494542,-75.66558331547613,349.2737511368118,106.56476594328291,2,test
TCGA-QQ-A8VF-01A,-38.98861884738766,37.8229652818484,263.93915958015447,-110.5787380379028,-75.59906323677629,18.54950070478253,-40.26583078383717,60.725743117237364,-6.400913919272225,62.90723842036908,-86.22652260898856,93.34392316232312,140.25928839523715,73.46346379233186,-64.20788100721626,2,test
TCGA-DX-A7ET-01A,146.08972266184003,232.44801708099052,230.10249841632321,-158.70320371325965,-41.33747589343259,88.07487112606869,101.83694018706824,-15.753584226673953,-248.68789707193002,42.644964875430865,-174.81997283737823,231.60617840820805,49.31402570619101,-181.43664287361594,-96.19301845052058,3,test
TCGA-3B-A9HX-01A,-3.7216243854920825,162.9447583080043,14.288813112859446,-61.32321975565347,-29.07419989620799,-76.68519266246554,-126.75200734714308,59.91236313317744,-80.8435361048271,-160.8230454192689,102.86224446135543,-126.98076888448695,-102.29594752524606,-71.07653487090738,-86.44622078017909,2,test
TCGA-DX-A3UE-01A,26.330258985502308,19.96980816785137,-515.4513291004902,67.08635797827083,41.88844670959026,-67.13396280846564,61.562131211588685,-98.51838924815404,123.23547676836392,11.488221948876552,203.78470250129806,-91.7222846098258,-93.03295759697296,245.68291618639918,134.56266012210668,2,test
TCGA-DX-A23R-01A,23.40142105488795,-213.28652520933193,89.91083835555764,52.03704893397335,53.92698511818935,276.5206092974618,-36.19128702506705,-96.38134239715419,30.77532387947257,-161.26646675100184,-31.044566761322326,-95.03772793150932,-22.439004482754367,-319.8797313627722,68.85965173631838,0,test
TCGA-DX-A3UA-01A,-179.96460382238388,-71.93366589516923,130.78928937536122,185.53358388442123,70.39370094695575,279.9232854460262,100.6499308999072,-141.21102523207736,132.65595433556607,124.13440555437654,-27.329697792568975,-40.46344136440603,54.368773995973754,-42.047389001839356,163.5426821577051,2,test
TCGA-DX-A6BE-01A,-39.71150700658696,-202.20626801352228,180.3466352238696,-212.50624354062464,-34.30964464597045,-178.03037427185146,-38.43715470572049,17.811377433819697,-2.3872786692584,33.78671526387492,-93.09458264755675,149.39944753528968,154.06993723769054,-159.83375408653072,-15.690579576969993,0,test
TCGA-DX-A3UF-01A,30.682792682417684,-86.19498698608402,-168.0642601433489,20.10964297579824,113.07943730747,-167.77732027340312,239.2290741990731,-252.756248530644,70.21440761438744,-20.272616014196927,264.51586233579127,-365.2419375913519,-57.27372577993819,585.0820825978852,160.04988554243852,2,test
TCGA-Z4-AAPG-01A,-232.62521108913901,183.80062098385574,221.5730523431176,137.27623504486692,-129.45334895538426,408.101823507765,-103.58252961739879,158.7543108504282,142.29455015508154,185.8664223940349,-192.4720805651053,88.21659028398277,-9.276306199986205,181.399958438016,-151.2248280527669,3,test
TCGA-DX-A3M2-01A,-7.263176372723741,2.9076698933471845,167.94865160536662,-35.13481922672389,-42.1835996587652,-14.69286786773536,-95.81904796552298,131.54536361309468,-108.0034835083347,129.62747830923306,-217.8899182297025,329.3731629453818,92.86771753088614,-236.66225445481936,-134.8216715674105,0,test
TCGA-QQ-A5VA-01A,-337.2101418091738,-184.50282077357994,270.8452258929164,-137.57679576745332,91.9821533445655,-16.557819337529605,72.24680868666482,14.274567637616897,182.53279895255855,219.5064639578596,35.91450713062624,-70.04728103771696,62.03727457643527,116.29109909070787,26.241987178154698,0,test
TCGA-3B-A9HZ-01A,-54.22821897938032,5.360432864765474,-292.0399839364073,-150.48869730829858,56.09108538939848,-276.18943665813754,73.54985548433423,-122.92003720986713,191.99891478130965,18.428619814342348,194.86809243716388,-91.13750730756084,127.78323515016757,272.04449410669366,161.14268614105475,2,test
TCGA-DX-AB2J-01A,-16.46114734370289,-285.3272401815087,73.45798601448739,168.76536621597901,39.12378795237699,-48.181754166765025,2.080328091357926,-94.01532896856163,156.12706056910523,-76.86650579453739,-14.088323947375926,-271.26543768139913,-73.24338300894534,232.2674925427165,43.02043879656559,3,test
TCGA-SG-A6Z4-01A,106.28298651862178,228.16573461176117,107.38119968295852,-84.54793380045221,-145.3761721805658,367.39445833443824,-94.15973475886652,158.16701080883374,-153.17384823085158,-187.642819045226,-114.16260136055534,197.55331385802376,72.34647936881028,-484.42663605584784,-137.84744840238423,3,test
TCGA-DX-AB37-01A,29.35644235412616,-64.99473500292362,183.8708955090677,-242.0139685462974,-60.43600437265923,-65.46432168999655,-237.25562782434397,-71.11135849822604,-41.564975633044874,416.9700525734672,-133.61848070867782,189.62565421864028,8.970557413683744,-239.93578113683125,75.75793311665534,0,test
TCGA-DX-A6YR-01A,-83.3638634683328,-8.386311553697434,69.63596503362312,108.43602355193877,54.069866706455,278.9178948614971,16.651779727825783,164.17243641166021,-47.09279721243636,65.04884822681463,-165.64918126613532,300.3126661828258,66.83497764287397,-297.5480038508085,-58.40760362064262,1,test
TCGA-HB-A5W3-01A,-31.560653064371426,-6.4698202627064445,-329.2354538661005,19.60329211503674,49.961427418292004,-268.4287735368578,85.76502155973475,-211.3582589678247,222.22046194745226,24.220233435643788,245.33544566288757,-257.92217798748226,-61.02024624448874,384.06479279543765,193.6634694627178,2,test
TCGA-IW-A3M5-01A,-55.99748510804849,-133.7678203436387,146.74023595282856,161.20849492812593,-116.08355230376368,256.25873272038854,-155.9929053495894,86.8016020495459,106.48032793828827,-113.1000092969474,-59.45112823581889,-98.42369471435416,-41.36716857271781,-155.76437701792915,-62.14963709340352,2,test
TCGA-DX-A6YX-01A,-119.08591950006978,150.79123889499638,206.95571719736608,119.12765888066495,-111.31472480787944,287.4920535667762,-26.48951439726183,80.76622272257934,-29.803253016158042,89.94103467406346,-158.2329261917042,187.7046851595961,-70.17859674734397,107.59433232043818,-127.30816645691077,1,test
TCGA-3B-A9HY-01A,32.02826039950484,-6.387683611538821,-313.36650452136087,18.791914772780785,56.775194867597236,-69.07996281407088,84.50539008529721,-23.545366014051528,176.16177633488655,-79.98176583429036,193.61453879105534,-215.08598275306622,53.05736157565814,168.11947749474623,136.85238648269046,2,test
TCGA-FX-A3RE-01A,-90.74986577675905,-163.87381562521068,30.74850084028692,179.58852486902458,72.8423327003722,-9.088846616108574,96.97659656337454,-124.90269121083092,176.17097532929947,-56.20193596575087,16.755952778636967,-343.7879271691502,-74.25758694447967,199.16090376595903,158.2673438278808,2,test
TCGA-LI-A67I-01A,31.447693042272963,104.96054583880795,72.19377888168938,-51.01161660763023,-51.38136978185734,245.1237755119505,-130.63905043550497,89.44209408749889,-102.73960015239527,-110.4202486112744,-75.77416940840114,80.37833353168502,-78.87451462552704,-349.6997370153222,-88.63997455869084,1,test
TCGA-DX-A23Y-01A,-32.147813640889275,-117.17324927992598,216.58556844422938,-82.22725137661526,-45.46041116889695,-59.00178643282925,-85.57921762371245,158.24078368890682,-153.82325223486478,23.615354759892895,-122.90204418972728,166.56979868099424,66.21990002695331,277.9866218415239,-150.1705704999874,0,test
TCGA-DX-AB2F-01A,98.0532050100278,-259.2836323312574,65.0324003840367,-17.219330645646323,-175.83791516650686,56.04936075130227,-217.86482077282412,158.24452855662352,-155.44699398648174,-68.5335255497531,-157.82650361370267,207.20666896886357,-70.24260404805771,-98.28787562143651,-193.9938034532059,0,test
TCGA-DX-A7EM-01A,39.624935080325194,43.573451831894694,-351.4888710508576,-158.3128280209931,-74.92351401381562,-198.9290962766319,-69.8284653159804,103.55319431662734,78.57701820056275,-123.33306937085172,276.56803045424147,-203.6487739511043,50.007680385789534,384.83225345178136,-88.22637989405018,2,test
TCGA-Z4-A9VC-01A,-4.207781971332547,-101.93962909699955,95.04736668446274,-106.18089436512277,14.096956028220944,14.46108294446457,-49.74823857443931,21.827109153020505,-11.308240456611587,-85.37426575256355,-41.136126135772614,37.86238623924037,144.11125491889655,-279.37087520209997,14.105283837352674,0,test
TCGA-DX-AB2V-01A,101.82553142655449,-104.684096298997,81.79947632772206,14.662921505667763,89.7464195265203,46.62568322110864,332.7951091622194,-95.46304457598615,-272.882741807535,52.6213308142088,-112.46064882164096,71.41614478176338,88.10674083067141,56.700172743456456,55.614108010818306,1,test
TCGA-3B-A9I3-01A,-29.807597269642798,-21.096722226575718,-62.261617645434306,8.43833261941821,291.6578066924917,-286.70589822798905,285.1665497198947,-478.51348191245944,91.51191060396775,123.34159270317264,289.4810313827471,-218.49376871352524,283.1428324384057,-1.6619074241934821,453.28497364714104,2,test
TCGA-IF-A4AJ-01A,39.16511032691532,-10.361478719211595,-366.28912559743685,-27.92308132727751,-210.30067869449678,-122.24309026659705,-96.49012720043447,200.70444867231708,110.86686261344649,-134.65701842117616,223.1044348494563,-171.76466497600032,12.759396295339414,514.3847573141556,-27.95242592863366,2,test
TCGA-QQ-A5V9-01A,14.779911143497108,-17.12379631893147,194.58702233691045,-207.67060777836267,-122.05148208302852,-18.253702476860166,-247.9550830468321,245.004891902949,-125.75240245738189,-119.40107669723936,-192.98761716367494,255.3247070911124,57.61906243561149,-128.22101829875726,-123.88414084585507,3,test
TCGA-IE-A3OV-01A,41.18125878248259,64.9659191001492,-260.46422320820426,-197.40732857566445,-113.14980144006319,-180.54689777945168,-103.27689106556066,42.506951571331385,-12.593809000056291,-65.6465840130583,200.68587360645856,-115.49629115205381,73.56108648553695,319.97806717923936,-76.08988349732537,2,test
TCGA-K1-A42X-01A,31.394189359693637,-30.317922864426663,-21.201487777279862,182.66837662843022,112.20965860424265,-513.7389442955988,-50.93488970179198,-162.50046529351064,154.65991755405398,-25.046203048983987,202.85647534160216,-464.2706758777074,-121.44187575301703,-22.587426687452975,140.00799607107624,2,test
TCGA-QC-AA9N-01A,25.38519967104648,-217.80874609892376,164.01150815532822,37.89938846116471,114.27333352166397,61.27502896769334,251.2266037778846,-160.9154576175424,-139.1784886790826,27.847686545506665,-10.4551052381316,-40.849865387612994,-51.93113568995767,31.846355245957696,149.49940635822892,3,test
